base_line/conv2d/kernel:0
(5, 5, 3, 6)
[[[[ 0.24085754  0.22108157  0.20089066  0.02815543  0.00704485
    -0.09666401]
   [ 0.1270471  -0.12321973 -0.06833318 -0.20553973 -0.08743336
     0.02034704]
   [ 0.11638561 -0.04778966 -0.10184263  0.01231072  0.01734665
     0.2236669 ]]

  [[ 0.02536916 -0.03975153 -0.06067829 -0.04907934 -0.08754942
    -0.09413123]
   [ 0.07971182  0.08623815  0.12478856 -0.09094296  0.06454367
     0.12304913]
   [ 0.02177365 -0.06953418  0.09184704  0.01972071  0.09398762
    -0.17828044]]

  [[ 0.2540984  -0.0243711   0.03776936 -0.13942938  0.13088244
    -0.20746225]
   [-0.03406342 -0.16194136  0.0222843   0.14348622  0.00206148
     0.21770841]
   [ 0.00383254  0.01308567 -0.13303074  0.28606048 -0.12910034
    -0.13244599]]

  [[ 0.21645026 -0.09370823  0.18362531 -0.11582464  0.01700061
    -0.21345252]
   [-0.15417068 -0.13497247 -0.03004461  0.01199069 -0.0010887
     0.24346039]
   [ 0.03410771 -0.1298119  -0.09500773  0.07129389 -0.0995982
     0.13753244]]

  [[-0.0861577   0.04039139  0.00383441 -0.08630279 -0.02067487
     0.04252531]
   [-0.11112895 -0.22694093  0.07222176  0.20693402 -0.06314724
     0.18662725]
   [ 0.09760902  0.0852888  -0.3174559   0.15500729  0.08273691
     0.0738214 ]]]


 [[[ 0.13491444  0.1488986  -0.18531407 -0.11631276  0.02745923
    -0.03001702]
   [-0.12171847  0.03038893  0.0601832  -0.24786039  0.01716042
     0.159085  ]
   [-0.1819893  -0.11015698  0.29434845  0.06677555  0.13990693
     0.2211508 ]]

  [[ 0.22987202 -0.0818073  -0.1638679  -0.33111212  0.02530712
    -0.08193614]
   [-0.15822928 -0.04156151  0.09658607 -0.00399386 -0.1190248
     0.21030465]
   [ 0.0713773  -0.03839587  0.20912123  0.08259401  0.05393841
    -0.03948146]]

  [[ 0.0565934  -0.09328447  0.01457603 -0.37237266 -0.04147997
    -0.09687564]
   [-0.12555759 -0.17276779 -0.12900071 -0.07453649 -0.08168674
     0.01039687]
   [-0.12037066  0.02663839  0.2618028   0.28834984 -0.1839345
     0.06092717]]

  [[ 0.1651559  -0.07148202  0.09248983 -0.03178363 -0.09222555
    -0.24970879]
   [-0.19164214  0.11148727 -0.097197   -0.11692806  0.05008067
     0.15219666]
   [ 0.01215188 -0.2159169  -0.10779797  0.04614694 -0.0409097
    -0.11057846]]

  [[ 0.11728179  0.1298089   0.06948989 -0.02724354  0.11280692
     0.0531073 ]
   [ 0.04934298  0.05895578 -0.04223172 -0.14199407  0.10332898
     0.08305789]
   [-0.11750358  0.09873981 -0.15606757  0.05529394  0.02174893
    -0.16686109]]]


 [[[ 0.2182678  -0.21389845 -0.06124631 -0.08864727  0.15186235
    -0.18768081]
   [-0.2272327  -0.03024148 -0.0014932   0.11843208  0.21317664
    -0.08179576]
   [-0.08497637 -0.04793992  0.19976725 -0.16422316  0.07385077
    -0.10874342]]

  [[ 0.05765394  0.12378445 -0.10364965 -0.08391283 -0.00368656
    -0.05971411]
   [-0.12094662  0.20154421 -0.07829498 -0.21881548 -0.14596349
     0.23807289]
   [ 0.09231047  0.18665166  0.42705998 -0.11392553 -0.22546549
    -0.01314017]]

  [[-0.01963679  0.2537927  -0.07927981 -0.19198115 -0.17832409
     0.02172928]
   [-0.03511103  0.03218334 -0.03822069 -0.13333562 -0.21157253
     0.024179  ]
   [ 0.14892696 -0.03990424  0.20825528 -0.13836972 -0.3155336
    -0.02946706]]

  [[ 0.05931262  0.26012158 -0.03835199 -0.11871675 -0.04123368
    -0.07762122]
   [-0.09224638  0.38003215 -0.10801662 -0.28364462  0.13067321
     0.17679328]
   [-0.11702943  0.23018762  0.20713706 -0.05733618  0.13835035
     0.06009069]]

  [[-0.10659698  0.20847853 -0.02100938 -0.13305219  0.01102273
    -0.19498074]
   [-0.20919752 -0.06683773 -0.0766584  -0.06548563  0.13473946
    -0.09094486]
   [ 0.06959322  0.06027419 -0.02423831 -0.14463168  0.21801485
    -0.13223553]]]


 [[[-0.00160774 -0.09419227  0.03148098  0.20930953  0.12405333
    -0.1671784 ]
   [-0.10857863 -0.01753063 -0.08537817  0.09715177  0.07833014
    -0.05455124]
   [-0.20823109  0.03103328  0.1550554  -0.00344765  0.17066278
    -0.05951751]]

  [[ 0.06674635  0.03467786 -0.21720107 -0.01195178 -0.19100791
     0.19248715]
   [-0.14120844  0.05899735  0.0672554  -0.06894213 -0.29227942
     0.13321334]
   [-0.0145293   0.04151265  0.23380288  0.17040628 -0.08020266
    -0.07187602]]

  [[ 0.16594945 -0.0210604  -0.12979588  0.07894997 -0.01273301
    -0.0016039 ]
   [ 0.02260633  0.10747834 -0.00063687 -0.05819743 -0.27573964
    -0.04153388]
   [ 0.03984841 -0.06185336  0.1996051   0.09776283 -0.18413343
     0.04531739]]

  [[-0.15849099 -0.05852521 -0.04371888 -0.1580559   0.00791712
     0.10385766]
   [ 0.06522231  0.06172599 -0.03401222  0.06155676  0.1366551
    -0.11141752]
   [ 0.11596211  0.0380616   0.10842104  0.09062426  0.13381624
    -0.0323928 ]]

  [[ 0.06336456 -0.06403156 -0.0023117   0.02770253  0.04277081
     0.02749401]
   [-0.13814765 -0.07747793 -0.00152936 -0.01405242  0.22218716
     0.00668467]
   [ 0.17628032 -0.09626687 -0.17220515 -0.12394374  0.1628992
    -0.25814912]]]


 [[[-0.17943375  0.03005663 -0.05636169  0.11823166 -0.00558783
     0.03837293]
   [-0.02494115  0.0783145  -0.04446116  0.05916306 -0.06664506
    -0.03476712]
   [-0.04773035  0.01367732  0.12488077  0.05674795  0.03150859
    -0.03476388]]

  [[-0.07383993 -0.06347389 -0.02936055  0.0412244  -0.05951167
     0.18013439]
   [-0.20908491 -0.05006928 -0.01558083 -0.03444912 -0.11637594
    -0.11834165]
   [-0.08056553  0.04443213  0.13458025  0.14888531 -0.1461481
    -0.26233548]]

  [[ 0.03782292 -0.20496039  0.07849114  0.05999306 -0.04095504
     0.10409866]
   [-0.12552162 -0.20470585 -0.13199516 -0.00443657 -0.07558306
     0.02180452]
   [ 0.04908974 -0.04512694 -0.04189517  0.22830206 -0.10971642
    -0.09964212]]

  [[ 0.01891122 -0.20653044 -0.01931859 -0.06383796  0.09482621
     0.17410639]
   [-0.04500093  0.06087089 -0.10574476  0.02342386  0.11682989
    -0.08258276]
   [ 0.04950813  0.01564673  0.13550392  0.16842292  0.11080404
    -0.20259927]]

  [[-0.24777298 -0.23938453  0.00997238  0.07736295  0.01999285
     0.03589004]
   [ 0.16622828 -0.17173807  0.10623783 -0.02526733  0.12368385
     0.1984592 ]
   [ 0.00416048  0.10235479 -0.25430682  0.12821771 -0.01263877
     0.03376889]]]]
base_line/conv2d/bias:0
(6,)
[-0.02465878 -0.11861057  0.03254114  0.06969286  0.04319413  0.00563164]
base_line/batch_normalization/gamma:0
(6,)
[0.81045085 0.8183718  0.7399884  0.773934   0.9948982  0.6208478 ]
base_line/batch_normalization/beta:0
(6,)
[-0.41830188 -0.12711586 -0.19954494 -0.26257747 -0.35102618 -0.22025955]
base_line/dense/kernel:0
(1536, 128)
[[ 3.65785100e-02  9.27012563e-02 -2.60674320e-02  6.52436391e-02
   2.64272038e-02  2.83253491e-02 -4.32582609e-02 -2.13662907e-02
  -3.76975313e-02 -1.80851400e-01  1.19166321e-03  3.30070741e-02
  -8.57188087e-03  1.56690981e-02 -2.70457063e-02 -8.11062530e-02
  -1.95284130e-03 -2.11353283e-02  6.44979477e-02 -4.56817932e-02
   1.10092200e-01  1.22758606e-02  2.38000099e-02 -6.31819367e-02
   1.90842032e-01 -5.18721901e-02  3.03751547e-02  2.94682235e-02
  -1.57895647e-02 -5.55256270e-02  5.88952377e-03  2.00925525e-02
   3.99339653e-04 -3.83970663e-02 -1.77104734e-02 -3.90273295e-02
  -2.87394803e-02 -3.62486243e-02 -3.82932499e-02 -3.26873809e-02
  -7.73620829e-02  5.20820450e-03  4.74230312e-02  5.65543771e-02
  -5.76090030e-02 -4.93210256e-02  5.56463338e-02 -9.16627178e-04
   1.36977151e-01  1.03001624e-01 -4.37570028e-02  1.37710907e-02
  -8.36357102e-02 -3.67164463e-02 -7.44135305e-03 -4.94558327e-02
  -2.44858135e-02  2.78909188e-02 -1.20135481e-02  2.33723875e-02
   4.76328023e-02 -1.19061889e-02  1.40195593e-01  1.00157373e-01
   6.73342496e-02  3.75493988e-02 -7.22216368e-02  4.37273942e-02
   3.06551326e-02 -2.97260247e-02 -4.90230396e-02 -2.89319735e-02
  -1.33257722e-02 -6.37730807e-02  3.76113206e-02 -1.99435800e-01
  -3.89791280e-02 -6.32202113e-03 -1.97062735e-02 -9.02883988e-03
   4.43960205e-02  2.25946568e-02 -1.70111936e-02 -1.82785075e-02
   2.98040919e-02  2.39048265e-02 -3.85715328e-02 -1.54503696e-02
  -3.10023669e-02 -7.03310128e-03 -1.29795657e-03 -3.53004672e-02
  -9.34153348e-02 -3.49688232e-02  1.56936198e-01  1.66491102e-02
   1.87996924e-02  1.83936190e-02 -5.61418086e-02 -7.49344006e-03
   1.06768636e-02  1.52227849e-01 -6.05255999e-02  1.23699658e-01
   1.67769548e-02 -8.79881233e-02 -2.96363933e-03 -4.35359031e-02
  -7.68220425e-02 -4.28310446e-02 -1.26497865e-01  6.68295920e-02
   5.84954992e-02 -6.55621337e-03 -3.07984985e-02 -1.14298373e-01
  -3.17894621e-04  2.46224068e-02 -5.96170239e-02 -6.64869025e-02
  -1.13378325e-02  4.82989587e-02  5.68375364e-02  2.38502659e-02
   5.41660674e-02 -3.18669453e-02 -1.33234099e-01 -1.08766486e-03]
 [-1.78745948e-02  1.01164468e-01 -6.71797395e-02  1.34371240e-02
  -1.33548928e-02  4.65302095e-02 -3.29884961e-02 -6.41269460e-02
  -6.94334507e-02  2.82676481e-02  2.49134507e-02 -4.37376834e-02
   3.80984172e-02 -3.56841758e-02 -2.96462923e-02 -2.38679312e-02
  -7.21330717e-02 -4.38543409e-02  1.22840079e-02  2.45587621e-02
   4.25506569e-02 -5.10517973e-03  2.11419482e-02 -3.52903418e-02
   3.14942747e-02 -3.20233516e-02 -3.90286967e-02 -3.87345441e-02
   7.41230557e-03 -3.14852409e-02  2.02847030e-02 -4.25607637e-02
  -4.16081678e-03 -1.05556790e-02  3.57539393e-02 -3.66055816e-02
  -2.27570385e-02  2.75004841e-02 -1.96939483e-02 -1.46007538e-01
  -3.13074514e-02 -4.76833060e-02  2.71130186e-02  1.79910269e-02
  -5.70080429e-02  4.22153622e-02  5.90701867e-03  1.05489828e-01
   5.73022664e-02 -3.22367735e-02 -8.86018202e-02  1.01573942e-02
  -6.19763918e-02 -2.61581521e-02  1.05174415e-01 -3.70043912e-03
  -1.50494967e-02 -3.23136151e-02 -2.77895574e-02 -4.28446755e-02
   2.58758627e-02  1.45932529e-02 -2.66602244e-02  4.39342931e-02
   5.51847145e-02  7.34449690e-03 -3.02549098e-02  6.53903559e-02
  -4.39535566e-02 -2.03990024e-02  1.62675865e-02 -2.78981607e-02
  -7.11875632e-02 -4.84077893e-02 -1.11090085e-02  7.64137059e-02
   2.30013803e-02 -5.81967346e-02  1.28429467e-02  4.22235020e-02
  -3.97204012e-02 -1.91430956e-01 -3.64084765e-02 -6.52300268e-02
  -4.13492918e-02 -4.50580381e-02 -5.95982522e-02  1.15423966e-02
  -7.08396956e-02 -3.18537392e-02  2.82144211e-02 -5.91245033e-02
  -8.10656603e-03  1.70784425e-02  6.69808462e-02  2.89638750e-02
  -3.62236425e-02 -1.56633016e-02 -5.97547879e-03  3.55377590e-04
  -1.06985047e-01  9.56712738e-02  8.22086353e-03  8.66682008e-02
   5.75043828e-07 -6.75270241e-03  1.15008876e-02 -7.19529986e-02
  -3.18105076e-03 -6.59847260e-02 -2.61835139e-02  7.61364326e-02
   5.02252467e-02 -7.27349296e-02  2.88842227e-02  2.10282207e-03
  -6.45755371e-03  1.05645070e-02 -6.12591207e-02 -3.59290875e-02
  -1.39322458e-02  1.59616582e-02 -2.93012355e-02  2.46598828e-03
   1.38952043e-02 -5.80286309e-02 -4.72696126e-02  8.01250245e-03]
 [ 1.94173187e-01  1.77413076e-01  3.63006227e-04  1.23139344e-01
   3.46258879e-02  4.15666103e-02 -9.62163880e-02  5.95647730e-02
  -4.46881093e-02 -2.48337060e-01 -2.74879914e-02 -3.84251364e-02
  -2.30831839e-02 -4.42136154e-02  2.42227390e-02  5.22255674e-02
   5.25476784e-03  5.18616959e-02 -2.34495327e-02 -2.34102160e-02
   6.29967228e-02 -9.31209605e-03 -5.82812764e-02  1.61257070e-02
  -1.49345562e-01 -1.82000585e-02  3.65760177e-04  4.63163182e-02
  -4.25873101e-02  7.30603933e-04 -3.14481556e-03  2.91830953e-02
   4.13660668e-02 -2.88322568e-04  3.79367694e-02  1.92497205e-02
  -1.04716271e-02 -9.32020843e-02  2.28373036e-02 -7.46321492e-03
   2.71966308e-03  3.68912891e-02  2.65455991e-01  4.15802374e-03
   2.57372484e-02  7.07560554e-02 -1.54498219e-01  1.65283605e-02
  -1.29578099e-01 -1.74211696e-01 -8.12842324e-02 -5.46085499e-02
   2.77029574e-02 -3.33383456e-02  6.97353482e-02  2.75948308e-02
   6.56927377e-02  1.01569071e-02 -2.57782433e-02  3.89134847e-02
  -4.43115234e-02  8.24835151e-04 -5.29704988e-02 -1.63799018e-01
   6.32451698e-02 -8.72313157e-02 -2.36451954e-01 -6.98831528e-02
  -2.91998535e-02  1.17092608e-02  4.13958728e-02 -4.62369621e-02
  -5.77205718e-02 -2.82496382e-02  7.83038586e-02 -2.00337991e-01
  -1.83337554e-02  2.21387334e-02  3.07538789e-02 -5.38967289e-02
  -2.85153650e-02 -2.16888357e-03  3.14880386e-02 -1.78785920e-02
  -3.37839350e-02 -6.62131608e-03 -2.66729817e-02  5.86231872e-02
  -5.41950762e-02  1.40708685e-02 -1.14022512e-02 -5.71377985e-02
  -8.92886072e-02  4.20010909e-02 -4.59492616e-02  5.66697493e-02
  -8.87325853e-02 -2.46605128e-02 -4.16293629e-02  7.74812847e-02
   3.98457125e-02 -1.83536828e-01 -7.59893954e-02 -1.37477592e-01
  -5.98411970e-02 -2.32551247e-01  1.29418030e-01  8.02080426e-03
  -1.40552949e-02 -5.16662225e-02 -5.35660386e-02 -5.38648572e-03
   2.69844290e-03 -5.08442856e-02 -1.06198855e-01 -8.91999155e-02
   3.55941057e-02 -1.14535727e-02  4.08860669e-02  1.25834728e-02
  -7.78986290e-02  1.12043053e-01  5.45127392e-02  2.34104767e-02
  -1.05844915e-01  1.32714808e-02 -2.20046103e-01 -7.74061447e-03]
 [-5.98789901e-02 -4.81134877e-02 -6.10035425e-03  1.10398166e-01
   2.15216689e-02  4.02439348e-02  4.30856235e-02  6.12353794e-02
  -5.09927224e-04 -5.05702309e-02  3.39740328e-02 -8.69219229e-02
  -6.07175566e-02 -2.90434044e-02 -1.08679295e-01 -5.52452616e-02
   4.20837989e-03 -2.56066099e-02  1.22100428e-01 -1.22941220e-02
  -4.62368429e-02  3.05264238e-02 -4.00458742e-03 -2.07185317e-02
  -4.72585335e-02 -3.43169458e-02 -4.70785610e-03  2.88873762e-02
   5.58877655e-04 -5.40865250e-02 -8.49092230e-02  3.37168723e-02
  -4.98606488e-02 -2.31222380e-02 -2.07182113e-02  3.15852202e-02
   2.16474682e-02 -1.17487507e-02 -6.71565309e-02  3.76461935e-03
  -5.79520315e-02 -2.90812943e-02 -2.45518275e-02  1.68139189e-02
  -3.55970929e-03 -5.12778647e-02  6.47518635e-02 -1.53173879e-02
  -5.62411547e-02  1.16357364e-01  6.00945204e-02 -5.99982813e-02
  -5.51773794e-02 -6.26429617e-02 -8.21788386e-02  6.12299284e-03
  -1.02298923e-01 -2.83214245e-02  6.38430519e-03 -6.66117594e-02
  -1.61812396e-03  1.22148450e-02 -3.35377343e-02 -3.96431470e-03
  -5.69038512e-03  1.54491933e-02  1.16853295e-02 -7.82317817e-02
  -6.16314784e-02 -5.84775358e-02  2.88548879e-02  1.83861461e-02
  -3.53489928e-02 -6.04214966e-02  3.36830467e-02  9.10463780e-02
  -2.55013183e-02 -3.22817415e-02 -2.53535751e-02 -1.81704573e-02
  -4.64837402e-02 -4.73727956e-02  2.99299769e-02 -8.12466964e-02
  -1.37679521e-02  4.30018939e-02 -8.04314315e-02 -7.54899532e-03
  -4.85215969e-02  1.92136765e-02 -4.21986394e-02 -2.66732480e-02
  -2.86198761e-02  2.23638732e-02  4.90894169e-02 -4.19034362e-02
   5.63231334e-02  4.84962203e-02 -6.47640005e-02 -5.55007197e-02
  -6.32861105e-04  2.27468703e-02  1.57340895e-02 -1.76928025e-02
  -9.66173876e-03  2.28914302e-02  3.81743945e-02 -3.99324559e-02
  -3.51069085e-02  3.97718921e-02  3.59394290e-02  2.03294046e-02
  -3.25639769e-02 -3.69179919e-02  7.26891086e-02  1.28974259e-01
   2.36287788e-02  5.01982914e-03 -8.24454892e-03 -1.61965676e-02
  -3.33925560e-02  7.46714398e-02  1.58857685e-02  4.00875919e-02
  -5.24739325e-02 -5.13052195e-02 -6.06586970e-02  8.02385807e-02]
 [ 2.50853803e-02 -7.49379769e-02 -5.10166772e-02  6.96604997e-02
  -7.12504610e-02 -3.68447863e-02 -1.03136105e-02  3.21354046e-02
  -5.80199696e-02  1.41735217e-02 -2.28735674e-02 -1.34802550e-01
  -1.21049313e-02 -3.13466089e-03  1.09729106e-02 -3.44254188e-02
  -2.22592540e-02  2.17697416e-02 -1.42462868e-02 -4.03653942e-02
  -3.18217278e-02 -2.35716589e-02 -7.19034448e-02 -1.53206792e-02
   9.68108997e-02  2.66187023e-02  2.96171270e-02  2.33791880e-02
  -2.83247959e-02 -5.72231859e-02 -4.05616425e-02 -1.73969790e-02
   3.66556048e-02 -3.09510771e-02 -7.03087747e-02 -2.87203351e-03
  -6.96511492e-02 -9.19257030e-02 -7.60739893e-02 -1.95380881e-01
  -1.12463841e-02 -2.28769444e-02  6.99576885e-02 -1.14136226e-01
  -3.23301144e-02 -1.13266155e-01  2.57073399e-02  1.11989379e-01
   8.86708945e-02 -7.13155465e-03 -3.68993543e-02 -1.20078893e-02
  -1.51830232e-02 -2.66948175e-02 -4.68462333e-02  3.19855027e-02
  -4.15749177e-02  1.72356341e-03 -6.00145124e-02  3.82531956e-02
   2.56733329e-04  4.26467620e-02  1.11982254e-02  2.94384081e-02
  -6.12776317e-02  2.23884787e-02 -3.66426669e-02 -1.17373550e-02
   2.45995484e-02  3.30261104e-02 -6.28707232e-03  3.97191085e-02
   1.23733487e-02  4.13258933e-02  2.53016055e-02  1.18043281e-01
   4.75317612e-02  3.35868597e-02 -9.82775725e-03 -2.45670360e-02
   4.74015400e-02 -1.57513380e-01  3.20019498e-02 -6.99877664e-02
  -3.06850895e-02  1.34053817e-02 -1.17905326e-02 -6.49062023e-02
   3.14643085e-02 -2.04561315e-02  2.15208642e-02 -4.79659028e-02
  -1.03854388e-02 -9.57827717e-02  8.36313963e-02 -2.59090662e-02
   2.22202088e-03 -3.29583511e-02  2.26470456e-02 -3.89731713e-02
  -5.45309158e-03 -1.69855338e-02 -5.61758205e-02  5.45741506e-02
  -6.39077798e-02 -1.33966625e-01 -1.08736325e-02 -3.85051668e-02
  -5.95119335e-02  1.98006853e-02 -6.03468306e-02  4.25364226e-02
   9.67662595e-03 -2.02485304e-02  1.06830664e-01  1.01806421e-03
  -8.21935982e-02  2.65872739e-02 -1.62214246e-02 -7.51920640e-02
  -4.30329554e-02 -4.39667143e-02 -2.22742185e-02  4.48880754e-02
   8.89306515e-02 -3.15620936e-02 -2.40090825e-02  7.96196386e-02]
 [-1.47399426e-01 -2.18747094e-01 -6.76602423e-02 -1.20135799e-01
  -2.58885324e-02 -3.97534147e-02 -3.68495844e-02 -2.56276391e-02
   3.40239778e-02  1.51616544e-01 -1.09425317e-02  5.14432304e-02
   6.34003023e-04 -2.81896666e-02  1.72559712e-02 -1.84073392e-02
  -4.71700653e-02 -4.62922901e-02 -8.35660920e-02  2.62868553e-02
  -1.10889003e-02 -7.51171634e-03  2.46074069e-02  2.39689220e-02
  -1.85151137e-02  3.29012126e-02 -3.19104232e-02 -1.32291745e-02
  -6.45869449e-02  2.63890959e-02 -5.90924397e-02  2.47056969e-02
   1.26499366e-02  3.44401151e-02 -2.55877040e-02 -3.99037004e-02
   3.10082380e-02 -3.13621536e-02 -5.73222376e-02 -6.81956261e-02
   2.71118004e-02  2.38628183e-02  4.16177697e-02 -1.03478521e-01
  -8.84257555e-02  6.52903616e-02  2.81660222e-02  2.07203493e-01
  -9.78254676e-02  1.07010111e-01  1.28398475e-03 -2.84510702e-02
   1.92013308e-02 -2.88463719e-02 -1.21512808e-01 -5.18661633e-04
  -3.01119804e-01  2.02597529e-02  1.22297471e-02  2.76700724e-02
   2.72569805e-02 -5.23353405e-02 -8.84494409e-02 -8.18499774e-02
  -4.81066946e-03 -2.59536766e-02  9.12185460e-02 -3.66131999e-02
   4.84555624e-02 -5.56202643e-02 -6.27683550e-02  2.03810930e-02
  -1.00101754e-02  4.81195375e-03 -5.01967110e-02  9.72054377e-02
  -3.16365995e-02  1.21711418e-02 -1.68154109e-02  3.93206812e-02
  -1.31941708e-02 -6.75526038e-02  1.68955941e-02 -6.52567893e-02
   3.69150005e-02 -2.88345143e-02 -5.21641187e-02 -1.12450169e-02
  -8.74877051e-02  7.59078516e-03  2.06504706e-02 -1.83754992e-02
   4.25876155e-02 -2.95631383e-02  1.42468527e-01 -1.62505209e-02
   2.01561898e-02 -1.54068088e-02 -9.70493443e-03 -5.99057861e-02
  -8.88791829e-02 -4.64571007e-02 -3.11416034e-02 -4.71658222e-02
  -2.13756841e-02  5.40853292e-02  1.05839029e-01 -2.79469490e-02
   4.51450683e-02  1.69936698e-02  9.00173336e-02 -8.22888017e-02
   1.24822527e-01  1.80679224e-02  4.47127186e-02  8.42009857e-02
  -3.23622823e-02  3.11285816e-02 -9.27974749e-03 -4.49227951e-02
  -3.37008089e-02  2.83809863e-02 -6.51369169e-02 -2.15096325e-02
   1.70876637e-01 -7.03402758e-02 -4.85399254e-02 -5.63929230e-02]
 [-4.52488288e-02  1.14618875e-01 -4.49743196e-02  6.47388073e-03
   5.17797396e-02 -1.22664180e-02 -1.22541696e-01 -3.54174860e-02
  -6.83572441e-02  4.24428051e-03 -9.48521402e-03  5.29078357e-02
  -1.52365686e-02 -2.34655496e-02 -2.36892216e-02  4.47342880e-02
   2.34741904e-02  4.61490974e-02 -2.84276575e-01 -8.69237259e-03
   5.02696410e-02 -1.49584766e-02  8.19220953e-03 -1.62785351e-02
  -1.29188702e-01  2.79504098e-02 -3.66460271e-02  2.15637051e-02
   5.24503812e-02  5.67737641e-03 -4.63216007e-02  4.98003885e-02
   3.41759659e-02 -9.64755286e-03  4.61644828e-02 -6.71668574e-02
  -5.76623566e-02 -2.07699258e-02 -1.78226326e-02  4.27167583e-03
  -6.89599887e-02 -4.25528586e-02  4.03220057e-02 -2.17465945e-02
  -5.06792665e-02  9.73645896e-02  1.03818551e-01  1.95565112e-02
  -2.10486025e-01  1.00926999e-02 -6.98028058e-02  1.49885714e-02
   2.56113727e-02 -4.17923965e-02 -1.11610964e-01 -1.71929039e-02
  -1.54068798e-01 -3.58564295e-02 -1.81417167e-02 -2.96954159e-02
   1.67973749e-02  3.56003977e-02 -1.30602792e-01 -3.71038169e-03
  -1.03254154e-01 -4.12727445e-02 -1.10399015e-01 -3.97489294e-02
  -6.19670004e-02  4.51572016e-02  3.76970135e-02 -8.53163830e-04
  -4.68447544e-02 -4.61039841e-02  3.57960202e-02 -2.24959739e-02
  -2.05324236e-02  3.90289836e-02 -6.14524223e-02 -3.15139517e-02
   4.79562134e-02  8.83770511e-02 -5.62758185e-02  2.08980218e-02
  -1.67633314e-02  1.24225616e-02  3.32592316e-02  9.64665134e-03
   2.88878344e-02 -2.93710865e-02 -6.17386661e-02 -2.48054154e-02
   1.39455304e-01 -3.75892706e-02  1.16564203e-02 -5.39876381e-03
   8.15275460e-02 -5.49178161e-02 -2.78558098e-02  5.02942093e-02
  -5.53602651e-02 -4.32802811e-02  4.48120711e-03  9.98638645e-02
  -5.56150191e-02 -2.23871171e-02 -4.73816879e-03  4.64733578e-02
   2.49339937e-04  3.93769853e-02 -3.79565433e-02 -9.62882936e-02
  -1.18713677e-02  6.10540435e-02 -1.02697708e-01 -5.46072684e-02
   4.70642708e-02  1.03665497e-02 -4.31908853e-02  1.64820831e-02
  -8.74807239e-02 -2.93504894e-01 -5.11114113e-02 -5.22768460e-02
  -3.17693800e-02  2.63153613e-02 -9.26682353e-03  2.07637157e-02]
 [-3.75344381e-02  5.16391471e-02 -4.97894734e-02 -4.33576629e-02
  -9.08496901e-02 -5.93994930e-02  1.58268567e-02  1.66863259e-02
   3.52108367e-02 -3.69391590e-02  3.00264917e-02 -8.90666619e-03
  -1.66802779e-02 -4.95385565e-02 -5.77402264e-02 -9.76361148e-03
   3.07239201e-02 -6.47143051e-02 -2.59831101e-02 -3.82809006e-02
   1.36133015e-01 -1.44183235e-02  1.71048399e-02 -5.44727109e-02
   1.74625311e-04 -2.96633728e-02 -3.41844261e-02 -2.67135147e-02
  -5.13933040e-03  1.07451910e-02 -2.80165616e-02 -5.20155765e-02
  -7.90840313e-02 -5.02775237e-02  2.08853744e-02 -1.10184178e-01
   4.04774956e-02 -9.81525425e-03 -5.87279908e-02 -8.27459842e-02
  -2.45288648e-02 -6.39944291e-03  2.59692199e-03 -2.82971691e-02
   2.15554461e-02  5.06001757e-03  2.05283426e-02  5.25714718e-02
   4.40385155e-02 -2.73581967e-03  2.73181796e-02 -4.13573273e-02
   1.60847455e-02  2.41699517e-02  6.22069985e-02  1.13677299e-02
   1.04039151e-03  1.77311562e-02  2.77611078e-03  1.81491747e-02
  -6.27931952e-02 -7.35033676e-02 -9.73098259e-03  3.91560271e-02
   8.73744022e-03  2.86400076e-02  5.00955023e-02 -1.38773546e-02
   1.57400896e-03  2.72714086e-02 -3.63323539e-02 -1.00364052e-02
   2.37839296e-02 -3.78435547e-03 -1.87718887e-02  4.09265608e-02
   3.37011963e-02 -4.99186069e-02  3.48303914e-02 -2.08919086e-02
  -4.64087240e-02 -1.39155656e-01 -4.11682464e-02  2.96170469e-02
   2.68725827e-02 -3.13499244e-03  1.58180054e-02 -8.89766738e-02
   3.13987173e-02  2.95817312e-02  3.02142762e-02  4.33939509e-02
  -6.43701702e-02 -4.70173582e-02  4.25545499e-03 -4.00962047e-02
   2.35046115e-04 -5.78306392e-02  2.50299331e-02 -6.51861951e-02
  -5.89756407e-02 -1.23258494e-02 -9.21040680e-03  2.52403766e-02
   3.45860496e-02 -1.18457332e-01 -5.93903586e-02  8.38420819e-03
   3.35695148e-02 -4.27466165e-03  5.11655957e-02  4.42491546e-02
   5.27619086e-02 -2.65207235e-02  3.90749685e-02 -2.96444893e-02
  -2.22686436e-02 -3.72477770e-02 -6.11958504e-02 -2.60337591e-02
   2.05730163e-02  5.71804158e-02 -6.04207069e-02 -1.35316160e-02
   2.94492543e-02 -5.52908517e-02 -9.29175243e-02 -2.30741799e-02]
 [-4.85333279e-02  1.95515558e-01 -4.77104746e-02  1.60051584e-01
  -6.21310286e-02 -2.50339750e-02 -1.85664222e-01  1.13333240e-02
   4.27811146e-02 -3.70732024e-02 -5.45613803e-02  1.33996774e-02
   7.69435102e-03  1.64241008e-02 -1.10156514e-01 -1.01460464e-01
  -4.55642231e-02  1.68982837e-02 -6.12309063e-03 -2.90257502e-02
   9.93746798e-03 -7.92155191e-02 -3.56606394e-02  1.41549846e-02
   1.25296086e-01 -3.51378781e-04 -2.16403902e-02  1.53245563e-02
  -1.74602047e-02 -3.52831855e-02  7.45731080e-03 -6.56447262e-02
  -3.46967913e-02 -6.24916926e-02 -4.84004132e-02  7.42327049e-02
   1.75114237e-02 -8.67532641e-02  5.77358790e-02  1.93243660e-02
   4.85052615e-02 -4.49642260e-03  2.08516624e-02  9.14517716e-02
  -1.98821388e-02 -4.48972359e-02 -1.28722355e-01 -2.26451252e-02
   1.65410172e-02 -1.34761006e-01  4.16045077e-03 -2.19317572e-03
  -5.00648245e-02  2.25698669e-03  9.57423747e-02  1.38920173e-02
   1.22256868e-01  3.16124298e-02 -6.13210835e-02 -1.16005458e-01
   3.13332267e-02 -6.48395568e-02  1.25939995e-01  4.16467711e-02
   1.31062299e-01  4.39704768e-02 -6.40816540e-02 -1.38714537e-01
  -4.61493358e-02  1.54726184e-03 -4.39593196e-02 -2.65021063e-02
   4.46758717e-02 -7.63438344e-02 -2.54945420e-02 -2.33685970e-01
  -5.96142607e-03 -6.71094358e-02  1.59882661e-02 -4.61349487e-02
   1.13395387e-02 -3.14222425e-02  3.76999239e-03  3.06725185e-02
   3.28472108e-02  5.21220192e-02  2.31442116e-02 -4.55541797e-02
  -6.08853623e-02 -1.75594725e-02  2.39755865e-03  8.97566509e-03
  -1.49015099e-01 -6.28061071e-02  3.57131846e-03  1.34129217e-02
  -5.84767200e-02 -4.17975672e-02  4.09679934e-02  3.68347503e-02
  -1.93383787e-02  3.25630535e-03 -1.11377679e-01  4.16906402e-02
  -6.36150222e-03 -2.31743827e-01 -8.10877532e-02  5.26376814e-02
  -5.37280664e-02  3.86048593e-02 -5.72592802e-02  1.06200539e-01
  -3.63995209e-02  1.72011554e-02 -3.09748769e-01 -6.27807081e-02
   3.73817831e-02  5.30949095e-04 -3.74454260e-02  1.03310505e-02
  -3.28236148e-02  6.53009713e-02  1.06862932e-02 -1.46992244e-02
   5.17865308e-02  1.79687142e-02 -3.16791274e-02 -8.45513716e-02]
 [-6.12379909e-02 -1.58045709e-01 -3.37630734e-02  1.14243822e-02
   3.04179899e-02 -7.22348457e-03 -1.65030379e-02  9.73823946e-03
   5.08964062e-02 -5.10257222e-02 -3.93253490e-02 -1.15289502e-02
   4.59897444e-02  1.35026844e-02 -4.81409067e-03 -8.74987543e-02
  -6.21269457e-02  3.58473286e-02  8.09346512e-02  5.72380517e-03
   1.74884982e-02  1.55492546e-02 -9.43728816e-03 -1.16877854e-01
   2.69046649e-02  2.56094653e-02  5.21128550e-02  4.21150625e-02
   3.90034579e-02 -1.79351643e-02 -1.88056119e-02  4.73142229e-03
   2.30818596e-02 -4.03637178e-02 -3.10825501e-02  3.06272246e-02
  -4.11310792e-02 -7.27742091e-02  3.16849649e-02  2.25762092e-02
  -4.52950075e-02 -1.15319164e-02 -5.82571737e-02 -3.27401496e-02
  -3.00039742e-02  2.72523854e-02  8.79011303e-02 -7.95485731e-03
  -5.77581227e-02  4.90988418e-02  8.77970830e-02  2.72441674e-02
  -4.25460525e-02 -2.99295317e-02 -2.29053330e-02 -2.63440534e-02
  -8.69138464e-02  3.79108987e-03 -6.66525811e-02  3.63106169e-02
  -5.71011156e-02 -7.90916979e-02 -6.34558778e-03  5.79477176e-02
  -2.69574821e-02 -8.30942765e-02  9.56317037e-02 -6.17680177e-02
  -5.60020655e-02  2.12643277e-02 -5.87731935e-02  2.71028001e-02
  -4.67056893e-02  1.60423033e-02  2.88995784e-02  1.03727698e-01
   2.32371874e-02 -4.99727353e-02  3.73575948e-02  5.52635528e-02
  -1.16922837e-02 -9.60152820e-02  1.49889123e-02 -7.43151223e-03
  -1.64668709e-02  2.29643006e-02 -7.83841237e-02  7.42005603e-03
  -7.21488148e-02 -3.00484952e-02 -5.35873659e-02  7.52018415e-04
   3.03829070e-02 -6.94030523e-02  1.78700760e-02  2.87753418e-02
   6.22874722e-02 -3.05225067e-02 -1.22770727e-01  1.82515495e-02
   4.00293991e-02  2.26238165e-02 -2.27981061e-02  3.67914401e-02
  -5.71035519e-02 -9.70957652e-02 -1.74535085e-02  4.37085889e-02
   1.63613800e-02 -5.67900427e-02  5.65701276e-02 -3.36165838e-02
   1.13630593e-02 -2.90489895e-03  9.77370292e-02  1.60873756e-01
   2.79631168e-02 -3.42615470e-02  2.78567546e-04 -7.39882886e-02
   3.75616066e-02  2.53135748e-02  3.03161554e-02  2.79724076e-02
  -8.10314808e-03 -2.23512631e-02 -7.54110748e-03 -5.48862293e-03]
 [-9.72572993e-03 -1.06517896e-01  1.74775049e-02  5.96440285e-02
  -1.40752122e-02 -1.70406606e-02  6.11206070e-02 -5.55712059e-02
   1.97448507e-02  1.27772227e-01 -6.41272143e-02  3.15596387e-02
   4.09254543e-02 -4.79173623e-02 -8.72797072e-02 -5.25835231e-02
   3.09027452e-02 -5.92458844e-02  2.94699445e-02 -3.46644297e-02
  -2.02976540e-01  1.45707419e-02 -6.01524487e-02  2.84626298e-02
  -1.41774163e-01  3.02209184e-02  1.15995882e-02 -2.39418037e-02
  -1.81076806e-02  2.13817619e-02 -8.17238912e-02  1.50315790e-02
  -3.50166373e-02  2.27724221e-02 -3.07293143e-02  2.01364551e-02
   4.21654545e-02 -1.57395341e-02 -7.35236034e-02 -2.16703713e-02
  -4.33660187e-02 -6.04503714e-02 -1.84411690e-01 -3.51687893e-02
  -4.99088056e-02 -7.25372806e-02  1.77873477e-01 -3.45165073e-03
  -7.23912660e-03 -7.38984942e-02  6.86256438e-02 -3.27302516e-02
  -1.32113900e-02  1.10142846e-02 -2.82432847e-02  3.49745415e-02
  -1.03651613e-01 -5.32154329e-02 -8.49855915e-02 -1.34498766e-02
   7.03414856e-03  1.26497848e-02 -5.97138368e-02  1.44876763e-01
  -1.41180575e-01 -6.67468738e-03  9.89790633e-02 -6.50457367e-02
  -2.57266294e-02 -5.23749888e-02  4.91665564e-02 -3.19141410e-02
  -6.49072006e-02 -1.51322186e-02  5.36623783e-03  8.03105980e-02
   8.56400561e-03  1.98052265e-02 -2.71789599e-02  1.82959307e-02
   5.04668569e-03  4.04772833e-02  4.48971614e-02  2.82055251e-02
  -4.65846881e-02 -2.15894505e-02  3.02378312e-02  1.65718552e-02
   1.08259935e-02  4.34781983e-02  5.07882936e-03  4.40203510e-02
   1.40996315e-02  4.93827164e-02 -1.67141519e-02  2.54135840e-02
   7.81042650e-02  2.64357924e-02 -2.85501257e-02 -2.97212191e-02
   6.84970245e-02 -2.25577310e-01 -2.86775324e-02 -2.94301301e-01
   2.46347487e-02  1.20058358e-02  2.25000996e-02 -2.66957451e-02
  -2.48831455e-02 -2.87453588e-02 -3.80160403e-03 -1.51015580e-01
  -2.24141985e-01 -3.18336599e-02 -7.99220279e-02  6.41538575e-02
  -5.61758988e-02  4.55574542e-02 -4.51024473e-02 -2.46235561e-02
   1.02421448e-01 -1.76006466e-01 -1.25228129e-02  1.39791546e-02
  -1.81245551e-01 -1.48755126e-02  1.98033080e-01  2.59161294e-01]
 [-1.35258362e-02 -2.28154436e-01  3.37027153e-03 -6.75654784e-02
  -3.72748706e-03  2.99125221e-02  1.71953272e-02 -6.75194934e-02
   9.75193642e-03  5.01020066e-02  4.46640588e-02  4.87045683e-02
  -3.87957357e-02 -5.11767454e-02  2.17860248e-02 -5.93690574e-02
   1.74978394e-02 -5.57440780e-02 -7.56268874e-02 -4.80697788e-02
  -2.46735409e-01 -4.58576009e-02  2.21163575e-02 -1.25594344e-02
   3.04163643e-03 -4.10440052e-03 -2.17046514e-02  4.53578234e-02
  -2.74218004e-02 -4.82736602e-02 -4.37246310e-03 -3.99321057e-02
   1.74697470e-02 -4.47788611e-02 -2.60515753e-02 -2.35904213e-02
   2.90137250e-03  3.54349129e-02 -1.47783279e-03 -1.04954027e-01
   2.72574294e-02 -1.82000399e-02 -1.93299636e-01  3.06296032e-02
   1.86992213e-02  7.06477910e-02 -4.47932445e-02  4.64113504e-02
  -3.08864261e-03 -1.25029208e-02 -1.37692109e-01 -8.73211026e-03
   8.01075771e-02  1.09607372e-02 -1.54089794e-01 -3.38544734e-02
  -1.01465240e-01  1.05719389e-02 -6.93951398e-02  4.39396612e-02
  -4.92065959e-02 -3.56942229e-02  8.66808295e-02  1.44521920e-02
  -3.73263583e-02  4.63747308e-02 -6.31655753e-02 -7.08947331e-02
   6.19783364e-02  1.48949269e-02 -2.51003969e-02 -4.59275655e-02
  -3.39866825e-03 -5.11473455e-02 -8.92338902e-03  2.83931755e-02
  -1.42387683e-02 -9.17806756e-03 -4.47840802e-02  1.99428163e-02
  -2.43450422e-03  1.33835459e-02 -8.36238824e-03  4.99067567e-02
   2.24242918e-02 -2.33719740e-02 -2.57864166e-02 -2.22175568e-02
  -6.88842535e-02 -7.39040226e-02 -6.09932840e-02  2.28594355e-02
   1.69442177e-01 -7.36727891e-03 -1.95558146e-01 -5.32194711e-02
   1.47172054e-02  1.04489522e-02  2.72980426e-02 -1.97451785e-02
  -8.05652440e-02 -6.61087930e-02 -8.04935768e-02 -1.16087180e-02
  -3.02651729e-02  2.66930778e-02 -2.66752820e-02 -5.77463917e-02
  -7.59158731e-02 -6.27778769e-02  5.76646952e-03  4.35365044e-04
  -1.29726678e-02 -1.11273415e-02  2.41809599e-02  6.64523393e-02
   4.59377281e-02  5.09270281e-02  4.68217693e-02 -6.58579543e-02
   9.62267146e-02 -1.32529587e-01  6.48173084e-03  2.77121291e-02
  -7.66011328e-02 -4.54443917e-02  7.08725005e-02  5.34942821e-02]
 [ 2.46982500e-02 -2.48001870e-02  2.64115166e-02  1.76262110e-01
  -1.36765465e-02  2.38104276e-02 -9.25409496e-02 -3.41279954e-02
  -1.43353650e-02 -5.88248633e-02 -4.68711928e-02  3.84675711e-02
   3.38450223e-02 -5.98321669e-02 -1.16580375e-03 -7.22099841e-03
   3.04240771e-02 -6.78426102e-02 -2.48865873e-01  2.84813112e-04
  -5.81053831e-02 -4.10975181e-02  2.38555558e-02  8.38181451e-02
  -1.67382532e-03 -2.29030252e-02 -4.04404849e-02 -3.82408779e-03
   4.32563871e-02  3.57404016e-02 -5.99581487e-02  5.39897382e-02
   6.06044382e-02 -7.14081377e-02 -1.97424553e-02  2.75595319e-02
   2.95067613e-04 -2.09331289e-02  1.01852370e-02  6.86534643e-02
  -2.22851569e-03  5.01768105e-02 -1.21243382e-02 -2.83133034e-02
   5.34242727e-02  1.33920953e-01  1.12024294e-02 -1.11128978e-01
  -1.03719912e-01 -5.73026612e-02 -3.94556038e-02 -4.00644690e-02
  -1.38654048e-02 -9.89024644e-04 -1.03564963e-01  4.29943204e-02
  -1.37045428e-01 -3.99465747e-02 -1.12310583e-02  6.30033612e-02
   2.26086825e-02 -3.90356891e-02  6.19601980e-02  1.13485329e-01
  -1.86562631e-02  1.22907590e-02 -5.63986488e-02 -2.32814532e-03
  -5.97596727e-03 -2.09731422e-02 -2.69317366e-02 -5.75744547e-02
  -2.36691236e-02  4.54144515e-02 -3.31852511e-02 -6.99829757e-02
   6.78163208e-03 -2.13891384e-03 -2.48984993e-02 -5.45395445e-03
   3.07249129e-02  7.31869265e-02 -2.50328053e-02 -1.37395849e-02
  -4.33697402e-02 -6.36633206e-03 -2.64059622e-02  1.97182428e-02
  -8.04240480e-02  2.79258844e-02  3.31146196e-02  1.11001218e-02
  -1.32641755e-02  1.24702398e-02 -3.27846073e-02 -5.31060286e-02
   2.69101597e-02  2.07460001e-02 -4.58145477e-02  3.39239053e-02
  -4.59344573e-02 -1.80478618e-01 -2.24078465e-02 -1.11325961e-02
   2.85750329e-02  7.71425012e-03  1.09940507e-02  3.69052812e-02
  -1.79778729e-02 -2.81486381e-02 -1.55721292e-01  1.35506904e-02
  -9.07861665e-02  4.95576002e-02 -9.02944431e-02  5.72092049e-02
   1.85673758e-02  2.15440188e-02  3.24631408e-02  4.34877127e-02
  -1.36001250e-02 -2.86184430e-01 -4.42489125e-02  3.72313261e-02
  -2.38215432e-01 -1.25242472e-02 -1.57464258e-02  1.66729197e-01]
 [-6.38123881e-03  9.04958844e-02 -6.49429783e-02 -1.70316454e-02
  -3.79168205e-02 -2.14776285e-02  5.17454930e-03  3.37273069e-02
  -2.38016844e-02 -9.82924327e-02  4.91080917e-02 -2.46742684e-02
  -4.79488671e-02 -3.46682407e-02 -1.07628472e-01 -7.55309537e-02
   2.35563447e-03 -2.97136884e-02  1.15055144e-01  4.74876084e-04
  -1.53449178e-02 -1.32786343e-02 -3.11578568e-02 -1.34459576e-02
   1.34002596e-01 -6.58337846e-02 -2.14578044e-02  5.07985316e-02
  -1.44058745e-02 -4.89856824e-02  2.37976350e-02 -3.11989337e-02
  -2.50829887e-02  1.01439795e-02 -6.12248108e-02 -8.42082351e-02
   9.62792616e-03 -9.19513926e-02 -8.21433663e-02 -1.78561017e-01
  -5.43137044e-02  3.50387618e-02  2.68328786e-02 -4.07280140e-02
  -4.84901257e-02 -3.01647987e-02 -4.98917513e-02 -1.59115121e-02
   5.85169084e-02 -4.84642759e-02 -4.47709709e-02  1.57827642e-02
  -1.06309019e-01  1.18831685e-02 -2.53834203e-03  2.86349729e-02
  -1.15019418e-02 -4.45947163e-02  2.00832114e-02  3.65245193e-02
  -2.24895664e-02 -1.11520281e-02 -4.39648479e-02 -4.39412892e-02
   1.35506783e-02 -4.43067215e-02 -1.83595868e-03 -3.48530859e-02
  -6.94214627e-02 -5.58452383e-02  1.78446509e-02 -1.72695685e-02
  -3.79453674e-02 -5.55438846e-02 -8.76327083e-02  1.82389487e-02
  -8.07052553e-02 -5.64577095e-02 -7.53381476e-02 -5.68381846e-02
  -3.59624550e-02 -3.14307734e-02 -4.45165075e-02  1.46964351e-02
   2.57385150e-02 -1.49368476e-02 -6.72542956e-03 -7.68086836e-02
  -4.52912524e-02 -1.56066334e-02  1.95398014e-02 -4.33259606e-02
   4.68663611e-02 -3.10993008e-02  1.51021443e-02 -2.27586851e-02
  -6.57866104e-03 -9.66851041e-02  3.64615656e-02 -2.42655613e-02
  -1.10827098e-02 -3.48275807e-03  6.93389168e-03  5.63922105e-03
  -5.06419875e-02  6.64502475e-03  2.82876492e-02  1.38573274e-02
  -1.02714254e-02  4.04285453e-03  6.93235546e-02 -8.74577183e-03
  -1.93998516e-02 -6.03744946e-03 -1.10169947e-02  1.28784170e-02
  -2.23416444e-02 -1.39188785e-02 -8.22394621e-03 -4.15815301e-02
   2.45122369e-02  1.45182312e-02 -2.80843284e-02  3.15728821e-02
   4.53068875e-02 -1.94154233e-02 -2.96097770e-02 -3.96675095e-02]
 [ 3.24902683e-02  1.41324073e-01 -5.59049360e-02  7.36690983e-02
  -8.64248425e-02  3.13543342e-02 -8.30631480e-02 -5.27356826e-02
  -9.93980095e-03 -1.24028027e-01  4.58533352e-04  3.97906937e-02
  -3.90694737e-02  2.06026211e-02 -5.49536124e-02 -3.30524631e-02
  -7.25427419e-02  1.05803208e-02 -1.11788332e-01 -1.24585144e-02
  -8.02644938e-02 -1.43991066e-02 -3.75351347e-02  5.58902547e-02
   1.32798165e-01 -4.09005284e-02 -1.64572336e-02 -2.78082620e-02
   4.77135852e-02 -4.41531166e-02  8.69208667e-03 -7.26662353e-02
   1.01684723e-02  8.98826122e-03 -3.86073999e-02 -1.00289106e-01
   2.98921037e-02 -2.50426866e-02 -3.38581689e-02 -6.66893050e-02
  -3.55110429e-02 -5.95100224e-02 -8.09113979e-02  4.07110490e-02
  -2.01999955e-02  6.81355875e-03 -2.00765971e-02 -9.49507952e-03
   8.36884778e-04 -4.72207554e-02 -5.34793399e-02 -2.66486425e-02
  -5.41344620e-02 -1.21573936e-02 -2.88427956e-02 -3.46198641e-02
   1.11558333e-01 -2.39489377e-02 -4.13478874e-02  8.54091626e-03
   5.45486212e-02  2.09386405e-02  4.27063331e-02  5.59482090e-02
   1.96370948e-02  5.03938608e-02 -1.81735575e-01 -2.24510312e-01
  -4.30950932e-02 -1.09909801e-02  4.07440625e-02  3.74925472e-02
   5.00530079e-02 -2.94724125e-02  1.46501726e-02 -3.37743640e-01
   1.39738834e-02 -1.67366881e-02 -6.75852690e-03 -2.91280187e-04
   2.54494678e-02 -1.33314073e-01 -6.01313412e-02  1.08755063e-02
  -3.05715837e-02 -6.19790256e-02  2.67466418e-02  5.54704368e-02
  -8.04330036e-02  3.50773521e-02  1.72730088e-02 -6.34602457e-02
  -1.11424349e-01 -2.88311951e-02 -9.56401452e-02 -5.84652685e-02
   6.07964583e-02  3.30285504e-02 -2.38114800e-02  6.13121502e-02
  -4.55289334e-02 -3.78668159e-02 -7.59582892e-02  5.17488569e-02
   1.61523074e-02 -1.13076486e-01 -2.76602642e-03 -2.40733996e-02
  -3.86395399e-03 -1.95413511e-02  3.93851148e-03  1.09480940e-01
   2.17866786e-02 -4.12451364e-02 -2.75607646e-01 -1.27450570e-01
   2.68609710e-02 -5.34808114e-02 -5.95638901e-02 -2.31694002e-02
   3.03129014e-03 -6.90249577e-02 -8.34855065e-03 -3.17510366e-02
  -6.86267614e-02 -5.98229468e-03 -2.63087004e-02  7.09005957e-03]
 [-2.17417367e-02 -1.38911143e-01 -5.92746586e-02  1.63967181e-02
   5.84870977e-05  1.04563322e-03  8.81834328e-02  4.53370064e-02
  -5.07722162e-02  2.37826128e-02  6.62931651e-02 -2.24888660e-02
  -5.70363291e-02 -4.67542410e-02  1.67391151e-02 -5.53088002e-02
  -4.98139225e-02 -5.68381734e-02  6.60361946e-02  3.05759981e-02
   1.29928738e-02  2.38454305e-02  2.18081959e-02  6.00550957e-02
  -1.08443312e-01 -5.71386553e-02 -6.55767992e-02  4.60205879e-03
  -1.04676085e-02 -2.99359709e-02 -1.25998467e-01 -2.15202831e-02
  -1.24747530e-02 -3.42421569e-02 -4.68930006e-02 -3.65145728e-02
  -4.94467877e-02  1.42531805e-02 -5.91676608e-02  4.33892347e-02
  -7.37836212e-03  2.13730019e-02  5.38710272e-03 -7.57221133e-02
  -6.38569742e-02 -4.71641161e-02  2.55826339e-02  6.51582628e-02
  -6.85330108e-02  4.87464368e-02 -2.29646955e-02 -3.87948006e-02
   3.32685709e-02 -6.16351292e-02 -1.65165793e-02  2.02953201e-02
  -9.94070619e-02 -3.42122428e-02 -7.65546113e-02 -6.77481741e-02
   2.90195029e-02  3.05948183e-02 -1.35534666e-02 -6.21054880e-03
  -4.01224904e-02 -4.13908102e-02  1.02929525e-01 -1.18920550e-01
   1.13944104e-02 -4.46584858e-02 -5.30913696e-02 -5.04958369e-02
   3.53067294e-02 -4.70090769e-02 -2.22466048e-02  2.56126642e-01
   2.81757656e-02  4.61172778e-03  3.63987647e-02  3.79371345e-02
  -6.39719442e-02 -1.22442944e-02  1.74176916e-02 -8.37982520e-02
  -2.96859536e-02 -7.44502153e-03 -1.45190395e-02  8.76715034e-03
   1.49284191e-02 -7.01032430e-02  2.20947973e-02  3.35429795e-02
   5.98300248e-02  2.42269132e-02  1.16937116e-01 -5.56077883e-02
  -1.49736218e-02 -1.01781702e-02 -2.22592130e-02  5.35332449e-02
   1.20895766e-02  2.43248791e-02  4.21884693e-02  8.12648237e-02
  -2.84248497e-02 -1.05876863e-01  3.39141935e-02 -9.86607652e-03
   4.10553403e-02  1.95331052e-02  6.34687468e-02 -2.36314852e-02
  -6.55970126e-02 -2.56140735e-02  1.17714293e-01  7.93348849e-02
   1.57188736e-02 -9.29383095e-03  4.48597074e-02 -8.56678337e-02
   1.55667722e-01  1.22343756e-01 -2.17814073e-02 -4.82963957e-02
   8.86253938e-02 -1.25125935e-03  1.46337217e-02 -1.43749276e-02]
 [ 3.63231637e-02 -4.47624139e-02  4.27163504e-02  5.96299991e-02
  -6.16257973e-02  2.80504469e-02 -3.14266398e-03  1.24107767e-02
  -3.44265178e-02 -1.98347755e-02 -3.77255194e-02  4.15211208e-02
   4.27693725e-02  3.47402580e-02  3.92910168e-02 -6.67205155e-02
  -7.58798867e-02 -1.32987173e-02  8.70433748e-02  3.15738991e-02
  -1.52767643e-01 -3.81403603e-03 -3.97356153e-02 -6.70350790e-02
  -7.12540839e-03 -4.27734144e-02 -7.86287636e-02  3.14993709e-02
  -5.04355915e-02 -2.77580246e-02 -6.65526558e-03 -3.56794260e-02
   4.71278243e-02 -2.91885231e-02 -7.59039745e-02  4.42778245e-02
  -3.07493284e-02 -5.71380705e-02  3.73944710e-03  4.02330384e-02
  -1.89205371e-02  1.33239850e-02 -1.60312310e-01 -2.56756041e-02
  -1.51052130e-02 -1.11372821e-01  7.54723186e-03 -1.67703442e-02
   6.46027736e-03  1.63436338e-01 -2.27397718e-02 -3.81599814e-02
  -4.80839051e-02 -3.30674239e-02 -4.27333154e-02 -3.12933652e-03
  -1.13438241e-01  1.73243061e-02 -5.78283146e-02  4.02460061e-02
  -4.11235802e-02 -2.18244940e-02  1.29855098e-02  1.63165107e-01
  -1.65922903e-02 -6.77307695e-02  1.93010405e-01 -6.15459569e-02
   1.97860282e-02  3.22065204e-02  7.61491852e-03 -3.62524241e-02
  -5.48884794e-02  1.07026715e-02  5.53928576e-02  7.13641196e-02
  -9.11186729e-03 -6.50277585e-02 -1.97374132e-02  1.20697552e-02
  -4.20851149e-02  1.12724625e-01  2.58926880e-02 -2.52710618e-02
  -3.80157530e-02 -1.70467738e-02  8.28194991e-03 -4.14344780e-02
  -8.39957744e-02  5.12995757e-02 -5.72373308e-02 -1.36219747e-02
  -1.35950640e-01 -3.79080593e-04 -1.03194676e-01  3.94088924e-02
  -6.61681173e-03 -2.34114248e-02 -2.46959664e-02 -4.33204286e-02
   2.52725370e-02 -6.68155327e-02 -1.63707715e-02 -2.45026380e-01
   2.72976831e-02 -8.60300511e-02 -1.09894052e-02 -7.14406464e-03
  -8.29489604e-02 -1.26339551e-02  7.68321380e-02 -8.22211951e-02
  -2.05714926e-01 -6.44612638e-03 -1.38685396e-02  6.06237352e-02
  -4.64915447e-02 -3.73207033e-02 -5.86313233e-02 -9.84723121e-03
   1.79919928e-01  2.04485133e-02 -2.18427982e-02 -5.34587502e-02
  -1.14458613e-01 -2.62305159e-02  2.48827990e-02  2.77726144e-01]
 [ 1.19304564e-02 -1.77877843e-01  4.38805530e-03  5.08894883e-02
  -2.70936894e-03 -2.76201721e-02 -4.63055372e-02  4.82933261e-02
  -5.47374971e-02  7.36769065e-02  1.97821967e-02  1.33583292e-01
   5.87900542e-03 -5.38419783e-02 -1.33285001e-02  4.36175987e-02
  -5.89698963e-02  1.62513033e-02 -1.15499102e-01  2.95785479e-02
  -2.66659915e-01  2.67165340e-03  4.04153019e-02  6.14106767e-02
  -1.33169796e-02 -4.99126986e-02  2.69982759e-02 -4.21972647e-02
  -7.79789835e-02  4.24698591e-02 -7.65243769e-02  1.87259074e-02
   4.17084526e-03  2.70109735e-02 -9.98382457e-03  7.17325229e-03
   2.03198493e-02 -2.59521790e-02  2.31407676e-02 -8.00881907e-02
  -7.17543289e-02 -7.72439837e-02  7.06885532e-02  3.86562645e-02
  -1.20848399e-02  2.05238208e-01 -4.34822701e-02 -2.85653025e-02
  -9.50203761e-02 -2.84065306e-02 -4.21385989e-02 -1.69016682e-02
  -6.24834597e-02  1.20747443e-02 -1.07157417e-01  4.47979905e-02
  -1.52609348e-01 -5.40834013e-03 -4.88104932e-02 -2.66850982e-02
  -2.99309641e-02 -4.87077981e-04  5.67925908e-02  4.46162140e-03
  -3.98947038e-02 -1.41558973e-02 -2.69186068e-02  6.16313294e-02
   5.25532328e-02 -4.87172529e-02 -1.97687019e-02  2.83708796e-02
   7.90483132e-02  1.58286728e-02 -6.61895946e-02 -4.33129594e-02
   2.96429661e-03  3.07031460e-02 -2.00844612e-02 -1.07331453e-02
  -5.91472499e-02 -4.74977249e-04 -1.35363592e-02 -4.11742292e-02
   6.39806548e-03  3.38758603e-02  1.97988283e-02 -2.59535201e-02
  -6.91072224e-03  3.66565920e-02 -2.11466793e-02  4.00177650e-02
   1.48942083e-01  1.40778888e-02 -1.04789667e-01  1.83779933e-02
   1.03323897e-02  8.56604427e-03  6.00632578e-02 -8.03824165e-04
  -7.17711374e-02 -8.01542550e-02 -1.83475763e-02  5.47169521e-02
   1.88046154e-02 -2.56104134e-02  2.53502186e-02 -8.60593021e-02
  -7.30371056e-03 -4.69618104e-02  1.08406059e-02 -4.51570824e-02
  -1.58853978e-02  4.24983241e-02 -1.49967326e-02  4.48974594e-02
   3.02005503e-02  8.93661194e-03 -4.26150113e-02 -4.55555990e-02
   1.04058303e-01 -1.92090288e-01  4.43138331e-02 -1.38473008e-02
  -1.68365538e-02 -1.23214601e-02 -4.80522998e-02  5.05622812e-02]
 [-2.76771951e-02 -8.25755075e-02  4.28512692e-02  6.21815883e-02
  -4.60633226e-02  2.31058453e-03  7.21399114e-02  1.93664618e-02
  -1.11456192e-03 -1.85536537e-02 -3.30033316e-03  1.16062559e-01
  -2.33772099e-02  2.37270109e-02  2.24409755e-02 -2.49305982e-02
  -3.63756157e-02 -6.13448955e-02 -3.46535712e-01 -6.39345944e-02
  -1.90910362e-02 -5.09500466e-02 -5.53097762e-02  2.03121342e-02
  -6.58701062e-02 -3.90443802e-02 -5.51349521e-02  1.72014963e-02
   2.67065130e-03 -3.13670710e-02  6.31701760e-03  1.55196646e-02
   5.31092063e-02 -2.76886821e-02 -3.83530743e-02  6.26868103e-03
   9.87238903e-03 -3.64706069e-02 -9.18844482e-04  1.95254548e-03
   2.51308084e-02 -5.19362502e-02 -6.80710226e-02  9.64699164e-02
  -2.11391989e-02  8.06349702e-03  2.28075814e-02 -2.00683445e-01
  -1.58008695e-01 -9.33517590e-02 -5.68028018e-02 -4.24749628e-02
  -3.00362278e-02 -5.44878989e-02 -9.96191576e-02 -6.02923855e-02
  -2.12725580e-01 -5.88206202e-02 -4.94867973e-02 -4.70262840e-02
  -5.68200983e-02  2.05354020e-02  3.16428281e-02  7.63647407e-02
  -1.00612901e-01  9.11044981e-03 -1.78363528e-02  5.64781995e-03
  -4.78604473e-02 -2.54830997e-02  2.57758927e-02  4.66388091e-02
  -3.12154405e-02 -4.73378934e-02  4.32056561e-02 -7.24060519e-04
  -1.16981762e-02  4.39539738e-02 -3.31972502e-02  4.73379903e-02
   4.26750025e-03 -5.78735508e-02  3.11202332e-02 -3.05551179e-02
   5.26351444e-02 -6.23238608e-02  1.45173054e-02 -6.04798310e-02
   5.22420742e-03 -1.55504271e-02  3.25914733e-02  2.74280552e-02
  -1.77654997e-01  5.34796603e-02 -5.35275824e-02  2.21134182e-02
   1.72740798e-02 -1.59205869e-02 -9.81358439e-02  4.23657857e-02
  -7.94160180e-03 -1.08454101e-01 -1.68175215e-03  2.94568390e-02
   2.77209412e-02 -7.65358238e-03 -7.58168176e-02  1.45549364e-02
  -1.96958371e-02 -4.48367046e-03 -1.77181110e-01 -1.55808613e-01
  -2.12076247e-01 -1.40398473e-03  9.32414904e-02  1.93052944e-02
  -1.09652020e-02  3.07790432e-02  4.69322316e-02 -3.61448973e-02
  -1.94943566e-02 -3.03252727e-01 -2.84597613e-02 -3.32322083e-02
  -1.11061953e-01  2.15743184e-02 -2.34500393e-02  1.31173328e-01]
 [ 1.79280452e-02  1.12314172e-01  9.27397795e-03  4.82968390e-02
  -3.68521884e-02  7.39907438e-04 -1.83121189e-02  3.98838371e-02
   1.17918244e-02 -1.01934113e-02 -7.49614695e-03 -6.76641688e-02
   5.60510382e-02  2.27643438e-02 -1.13417916e-01  5.76709434e-02
  -5.88101633e-02 -1.50101082e-02  3.29610333e-02 -4.28952165e-02
  -7.14629367e-02  3.45141515e-02  3.47515084e-02  2.70427484e-03
   8.26626942e-02  1.16970912e-02  4.56375554e-02  1.49600739e-02
   2.65324973e-02 -1.39120026e-02  2.66666664e-03  1.94399208e-02
  -5.11488728e-02  4.04163711e-02 -3.03285923e-02 -6.41646460e-02
  -3.41821127e-02 -5.96396178e-02 -6.70086294e-02 -1.66395381e-01
  -5.74585497e-02  9.91243403e-03  6.13354966e-02  1.76094268e-02
   6.69728592e-03 -1.04161985e-01 -2.52674576e-02  2.70566288e-02
   4.31982651e-02 -7.03010783e-02 -7.39259124e-02  1.34676341e-02
  -6.00325763e-02 -7.91150797e-03  2.97976490e-02  1.45759219e-02
  -7.07765017e-03 -2.08570901e-02 -6.83134748e-03  2.14593019e-02
   5.62894493e-02  2.16649696e-02 -2.48099566e-02  1.67551283e-02
  -3.28719206e-02  3.24066542e-02  6.94870651e-02 -8.04335326e-02
   3.28162685e-03 -8.24891683e-03 -3.92864496e-02 -6.33443296e-02
   2.65662223e-02  3.30089852e-02 -5.50341122e-02  3.28362398e-02
   9.93492082e-03  2.49490831e-02 -1.07636740e-02 -5.32269292e-02
  -2.75986101e-02 -4.26123291e-02  1.84602980e-02 -5.11413217e-02
  -1.53468903e-02 -2.88872812e-02 -1.50249843e-02 -1.35299573e-02
   1.09098880e-02 -1.17438124e-03 -4.21276689e-02 -3.73590961e-02
   1.29544577e-02 -4.26402763e-02  1.65782142e-02  1.38638299e-02
   3.17702591e-02 -9.51770172e-02  4.23808582e-02 -1.00466870e-02
  -4.00854722e-02  1.98199656e-02  3.61298583e-02  3.01324055e-02
   3.96797359e-02 -4.47135360e-04 -1.43746184e-02 -8.87229294e-02
   1.25902351e-02 -3.08926683e-02  6.29782155e-02  5.21807298e-02
  -5.98388053e-02 -1.38058793e-03  7.25822058e-03 -1.45735014e-02
  -4.16936614e-02 -7.53949657e-02 -1.23516098e-02 -2.45014876e-02
   5.52010909e-02  4.22519445e-02 -1.10683516e-02  1.87547561e-02
   1.41170183e-02 -1.66638531e-02  5.48940524e-03  1.42542897e-02]
 [-3.08746863e-02  1.23205505e-01 -8.08517411e-02  6.23321943e-02
  -5.28717861e-02 -1.53064225e-02 -2.34832242e-02  1.41175603e-02
  -7.71420076e-02 -3.23875129e-01 -2.15732522e-04  4.29064222e-02
   3.38577628e-02  2.51525640e-02  1.28400624e-02 -5.56807853e-02
   1.40217310e-02 -8.45904499e-02 -6.82155788e-02 -3.03748343e-02
   6.82115695e-03  2.44749449e-02 -1.50147928e-02  2.09338889e-02
   6.96014464e-02  3.70362252e-02  3.11989971e-02  4.31551132e-03
  -9.54756513e-03 -5.02806418e-02  9.12462026e-02  3.00417915e-02
  -7.29123950e-02 -4.26099971e-02  1.54998675e-02 -2.34181527e-02
   2.49466915e-02  3.17082033e-02 -2.72080898e-02 -9.69799906e-02
   4.13497724e-02 -6.11167997e-02 -1.81192905e-01 -2.46066451e-02
   4.75393329e-03 -1.17272675e-01  5.09837605e-02 -7.40116835e-02
   1.53660581e-01 -1.44734398e-01 -5.42051457e-02 -6.31687045e-02
  -5.15411273e-02  3.93595919e-02  3.35876867e-02 -4.68482962e-04
   1.43187076e-01 -4.16416191e-02 -2.63970234e-02 -2.08926387e-02
   3.11787333e-02 -8.21062028e-02  1.41080409e-01  1.77574400e-02
   9.95189846e-02 -5.15538007e-02 -7.26494119e-02 -1.05720580e-01
  -2.09939815e-02 -8.45838990e-03  2.98105702e-02 -7.13912712e-04
  -4.21546735e-02  3.72205228e-02  2.38301251e-02 -2.12257802e-01
  -9.34057031e-03  2.27689892e-02 -5.72657958e-03 -5.90188354e-02
   4.50551398e-02 -5.00844680e-02  5.27493563e-03  8.29329528e-03
   1.78594030e-02  4.22579497e-02 -2.25405283e-02 -2.52637975e-02
  -5.56438453e-02  2.23402283e-03 -4.23253834e-04  3.96531150e-02
  -2.31501803e-01 -7.23617300e-02 -4.55312952e-02 -6.90658540e-02
   4.23437953e-02 -3.85747440e-02  3.73321176e-02 -5.38123921e-02
   4.20802133e-03  1.22910440e-02 -5.75708412e-03 -1.61301065e-02
   3.59987058e-02 -1.33467525e-01  1.58341061e-02  3.25003229e-02
  -4.52688970e-02 -4.39760685e-02 -1.01461686e-01  1.31670982e-01
  -2.37418879e-02 -4.40368289e-03 -1.14546992e-01 -1.01708673e-01
   2.52564624e-03  1.72312884e-03  4.21949029e-02  3.42201255e-02
  -1.96987726e-02 -1.20850034e-01 -5.41286282e-02  1.14730243e-02
   1.19579779e-02  9.42352414e-03  3.82770263e-02 -3.40138003e-02]
 [ 1.09976800e-02 -8.59182552e-02 -5.95337264e-02  5.89726605e-02
  -3.17670703e-02  1.36636132e-02  2.50423774e-02 -2.17419583e-03
  -6.10320792e-02  4.84490581e-02  4.07310538e-02 -2.66099367e-02
  -6.22029416e-02  6.63215155e-03 -7.23430291e-02 -3.60173360e-02
  -5.39384857e-02 -5.51607870e-02  8.03238004e-02  4.57643867e-02
  -2.32418701e-02 -2.60060690e-02 -7.03459829e-02 -9.94409025e-02
  -6.70861304e-02 -2.17022579e-02  2.23741811e-02 -5.07940948e-02
  -2.83871926e-02 -6.54665753e-02 -8.69209506e-03  3.91931199e-02
  -3.58547308e-02 -1.40291424e-02 -3.52439582e-02  2.01467462e-02
  -3.21928300e-02  1.71810873e-02 -2.86090132e-02  3.52964625e-02
  -2.18353420e-03  2.33874656e-02  1.10887941e-02  5.12423227e-03
  -5.08791301e-03  4.70814481e-03  2.41260398e-02  9.66426507e-02
  -3.01287510e-02  1.96079791e-01  7.18848826e-03 -8.24805070e-03
  -2.65031308e-02  4.81354538e-03 -2.18087286e-02 -2.43874472e-02
  -1.13125883e-01 -7.79626379e-03 -8.14935472e-03 -1.17828241e-02
   2.68137604e-02  3.63186710e-02 -5.37190698e-02 -9.80205834e-02
  -1.14923194e-02 -3.28951068e-02  4.22508828e-02 -1.11869695e-02
  -4.04000469e-02 -2.64895353e-02 -3.59621346e-02 -3.31497341e-02
  -1.83195136e-02 -2.09681820e-02 -2.17984170e-02  8.03888813e-02
   9.31556243e-03 -1.34191504e-02 -2.53227856e-02  5.61480457e-03
   2.99447756e-02 -6.47237077e-02  3.30279060e-02  3.16744521e-02
  -2.88393684e-02 -5.34842629e-03 -1.10580623e-02  4.66656871e-02
  -8.22035074e-02  3.50066572e-02  1.30881779e-02 -3.19529697e-02
   8.99047107e-02 -7.68907070e-02 -2.08067708e-03 -4.96841595e-02
   1.89965237e-02  1.48778073e-02 -1.03237510e-01 -2.52014096e-03
   2.59044301e-02 -1.07493531e-02  3.24033685e-02  9.82382968e-02
  -4.19422165e-02 -3.37951183e-02  3.28197367e-02 -7.98977613e-02
  -3.83820087e-02  4.03331295e-02  7.89419748e-03 -4.13586721e-02
   3.15633491e-02  1.43540073e-02  8.47067162e-02  1.15233637e-01
  -3.68054025e-02  3.43028679e-02 -5.18722124e-02 -5.74125312e-02
   7.82919154e-02  1.24560157e-02 -1.29483212e-02  1.19792055e-02
   1.29102811e-01 -4.95483633e-03 -9.01650116e-02 -5.70471846e-02]
 [ 1.01434045e-01  8.92113615e-03 -5.92007898e-02  2.03385159e-01
  -7.84948543e-02 -5.05637042e-02  7.01323450e-02 -2.01449897e-02
  -3.44993826e-03 -4.01371485e-03  1.42273149e-02 -3.37837189e-02
   4.07470465e-02 -5.05850092e-02  3.28342319e-02  7.11198747e-02
   3.93787064e-02  4.83499654e-02  6.75035864e-02 -7.55719654e-03
  -1.16113834e-01 -3.71588282e-02  3.36474888e-02 -5.08997887e-02
  -1.13797545e-01 -6.83209673e-03 -4.07201611e-02  5.04118912e-02
  -4.94340947e-03  3.61137316e-02 -6.76335171e-02 -2.66122408e-02
  -6.63334057e-02 -2.54204813e-02  2.52353139e-02 -5.63734919e-02
  -2.78300401e-02  3.65234613e-02 -3.92741300e-02  1.90681648e-02
   3.86035964e-02 -4.37773503e-02 -8.70438144e-02 -8.53219852e-02
  -6.19965680e-02 -7.16998801e-02 -1.96764693e-02 -1.09319881e-01
  -7.51117617e-02  9.93503183e-02  4.88589443e-02  5.14227748e-02
   2.90095303e-02 -9.45657585e-03 -1.12501644e-01 -6.13470264e-02
  -1.65268742e-02 -2.40870956e-02 -4.84061800e-02 -6.31536841e-02
  -4.08421084e-02 -4.23499532e-02 -2.92265043e-02  2.33329944e-02
  -9.32773426e-02  4.32260744e-02  1.89700767e-01 -1.36989281e-01
  -5.61131537e-02  3.99343520e-02 -4.40597581e-03  3.59309837e-02
   4.85188738e-02  3.12825590e-02 -2.11756434e-02  9.16803405e-02
  -7.65639991e-02 -5.79343438e-02 -5.92023358e-02  4.99348156e-02
   1.46442968e-02 -1.65555216e-02 -2.45103128e-02  2.55231448e-02
  -1.42478906e-02 -4.27496135e-02 -1.48544628e-02 -1.08365656e-03
  -4.60577235e-02 -2.90273800e-02 -6.69311360e-02  5.13763428e-02
   5.29527366e-02 -2.52489708e-02 -1.08566038e-01 -1.00626657e-03
  -4.46076319e-02  3.84488255e-02  2.34440118e-02 -4.34243642e-02
   5.71799055e-02 -2.88802743e-01 -2.22386699e-02 -2.19263792e-01
   3.61868106e-02 -1.60738081e-01 -6.02617562e-02 -1.11831045e-02
  -7.32553005e-02 -3.37641910e-02  1.11779824e-01 -2.10601941e-01
  -1.95300862e-01 -3.40579338e-02  1.00522473e-01  2.22612679e-01
   1.02067683e-02 -3.42574087e-03  1.44331148e-02 -5.90662248e-02
   1.72509596e-01 -1.16308153e-01 -4.88135628e-02 -1.60933789e-02
  -2.83628013e-02 -8.26285556e-02  7.93120712e-02  1.79495916e-01]
 [ 7.76495859e-02 -2.09654674e-01 -3.24567198e-03  4.56792340e-02
   2.35175546e-02  2.07903795e-02 -1.54486578e-02  5.61180059e-03
  -3.80338319e-02  1.50914252e-01 -4.32868265e-02  3.48948352e-02
   4.51738313e-02  3.91783565e-02 -5.56655936e-02 -6.67246729e-02
  -5.44379875e-02 -5.74679896e-02 -1.05712838e-01  3.22558396e-02
  -1.82273820e-01 -5.50408773e-02 -6.23298548e-02  1.10638119e-01
  -2.56857965e-02  9.20139439e-03  1.05161010e-03 -1.77872963e-02
  -8.02816451e-02  5.18510267e-02  1.97268650e-02 -7.38434568e-02
   3.31984796e-02  2.31478121e-02 -5.28055951e-02  1.42511921e-02
  -5.80570512e-02 -3.74275632e-02  2.19359808e-02  4.82143424e-02
  -8.37373734e-02 -4.90015335e-02  3.06686405e-02  3.36906202e-02
  -2.29031108e-02 -1.12445699e-02 -1.12169415e-01 -2.50652973e-02
  -6.80613518e-02 -5.96048161e-02 -9.73881688e-03  2.26515997e-02
  -1.20154563e-02 -1.56286955e-02  5.18116541e-02 -4.48896028e-02
  -8.25020224e-02  1.88972037e-02 -1.78172030e-02 -5.27227297e-02
  -4.11872938e-02 -4.28554323e-03  4.59231436e-02 -3.49170305e-02
  -4.69693169e-02 -2.25969255e-02 -2.94854827e-02  3.75318788e-02
   2.25242842e-02  1.02842795e-02  4.50951271e-02  4.42022756e-02
  -2.17574146e-02  9.79974121e-03 -4.77960892e-03  1.85214430e-02
   5.32684065e-02  7.19076321e-02 -7.59628713e-02 -3.29329930e-02
  -1.94683503e-02  8.05572644e-02 -5.21314703e-02  4.84063476e-02
   2.11911853e-02  3.34221087e-02 -8.39403656e-04 -5.18626682e-02
  -7.11587742e-02  4.48061563e-02 -1.87706053e-02  4.43320908e-02
   1.06242195e-01 -4.81720567e-02 -8.57911780e-02 -2.40451866e-03
  -7.80170932e-02  2.00226624e-02 -4.16029394e-02  2.81502586e-03
  -5.66983633e-02 -9.25430208e-02  1.26261124e-02  8.29768255e-02
  -4.66672592e-02  2.01870166e-02  6.87192976e-02  3.10127926e-03
  -2.49278964e-03 -5.58926612e-02 -3.74547131e-02  2.44342368e-02
   3.51794809e-02  5.71550627e-04 -7.62011707e-02 -5.49563244e-02
  -5.26227877e-02 -1.91706582e-03 -1.09066265e-02 -9.10592452e-02
  -3.02063543e-02 -1.66663915e-01  4.81573977e-02  3.17131057e-02
   1.13694750e-01  2.97392923e-02  3.24677415e-02  7.75749758e-02]
 [-1.14424892e-01  4.15714122e-02  1.91799439e-02  1.36716012e-02
   4.12454084e-02  5.48492000e-02  1.14291608e-01  5.47760651e-02
  -4.69502062e-02 -8.66904035e-02  9.27573349e-03  8.83243382e-02
  -4.71022651e-02 -1.50631526e-02 -2.73969714e-02  8.17144406e-04
  -3.32087502e-02 -1.33578072e-03 -3.08850288e-01  2.01152097e-02
   3.92180532e-02 -1.07606221e-02 -2.41620578e-02 -2.38197166e-02
  -6.72127530e-02  7.36342091e-03  1.14857852e-02 -5.92181226e-03
   3.16752419e-02  3.23275290e-02  5.32591622e-03  2.49524750e-02
   3.16889957e-02  3.49898040e-02 -4.05214652e-02 -2.32775528e-02
  -3.16904113e-02  4.05095220e-02 -2.76621077e-02  3.35214064e-02
  -5.63211367e-03 -2.46435869e-02 -8.17669265e-04  1.83051061e-02
   5.76377176e-02 -9.59195569e-02  3.22678052e-02 -2.00873807e-01
  -1.17482930e-01 -7.65673518e-02  2.87295766e-02 -1.60962045e-02
   4.49325144e-02 -3.51213408e-03 -1.75117671e-01  3.79555933e-02
  -2.19924405e-01 -4.08349447e-02 -5.63777387e-02 -3.23522352e-02
  -2.30826531e-02 -2.99095120e-02  2.61119325e-02 -2.77658813e-02
  -7.10411370e-02  5.46726882e-02 -4.72744443e-02 -2.61532571e-02
   1.94453285e-03  1.26033835e-02  3.13842595e-02 -9.83120315e-03
   1.14076296e-02  1.53983552e-02 -3.57681140e-02  5.28356396e-02
   7.90704566e-04  4.56510931e-02  1.72443371e-02 -1.17032137e-02
  -3.09961084e-02  5.11782467e-02  3.40781175e-02 -2.95295902e-02
  -1.30932964e-02  3.33695747e-02 -6.75088167e-02 -6.09911568e-02
  -5.48165627e-02  4.35252301e-02 -4.67183553e-02 -1.82252694e-02
  -1.82963744e-01 -3.83620784e-02 -8.59348327e-02 -4.02031802e-02
  -5.25564142e-02  1.28856152e-02  3.61644663e-02  3.60868908e-02
  -4.04584222e-02 -8.79539475e-02  4.01242860e-02  6.22052811e-02
  -1.84997190e-02  1.00564562e-01 -2.84993323e-03  2.45082844e-02
   6.41642883e-03 -6.83570467e-03 -3.54603902e-02 -9.31012705e-02
  -1.50935203e-01  1.45556405e-02  4.13264483e-02  6.41534850e-02
   1.48954138e-03 -4.86107878e-02  4.03695926e-02  3.38211544e-02
  -9.48175341e-02 -2.14474991e-01  4.99308258e-02  4.36026230e-02
  -1.23423636e-01  3.32398377e-02 -7.97107369e-02  6.79448619e-02]
 [-1.15579385e-02  1.25654727e-01 -5.61086349e-02 -3.69310081e-02
  -3.56191001e-03  4.10299748e-02  2.63577309e-02 -1.57149490e-02
   3.93993184e-02  6.08603954e-02 -5.90801686e-02 -1.05222061e-01
  -1.13595957e-02 -5.60747385e-02 -1.53654879e-02  1.36919394e-02
  -3.57386507e-02 -7.87551701e-02 -1.86585970e-02 -6.17247969e-02
  -2.23873295e-02 -1.42924823e-02  3.23802680e-02 -3.94780673e-02
  -4.72536534e-02 -5.77842779e-02 -1.48702282e-02  2.11682767e-02
  -9.42477304e-03  1.93200372e-02 -3.21690962e-02  5.32147437e-02
   5.55903353e-02 -7.65036270e-02 -3.33824232e-02 -8.79173055e-02
   1.80939976e-02 -2.43267268e-02 -5.67166274e-03 -1.77059442e-01
  -5.69225959e-02  1.67275053e-02  5.75794913e-02  6.15597842e-03
  -1.73942500e-03 -1.10048540e-01 -5.80806062e-02 -3.66201438e-02
   6.43737018e-02  4.88893017e-02 -6.07480528e-03 -7.20503693e-03
   1.28086368e-02  1.95989944e-02  1.62232835e-02 -2.92234179e-02
  -2.37634405e-02 -4.48466875e-02  1.29038468e-02 -6.00802451e-02
  -3.52660641e-02 -8.78192335e-02  1.17738813e-03 -4.30238917e-02
  -8.29293020e-03 -9.20147076e-03 -1.56403035e-02 -6.56012520e-02
  -2.96583213e-02  3.44578475e-02  5.17788297e-03  2.45167166e-02
   2.62655579e-02 -1.79749187e-02 -7.26505667e-02  5.14443368e-02
  -8.96702185e-02 -4.42630798e-02 -5.09736054e-02 -5.79283386e-02
  -3.24763148e-03 -1.27385065e-01  6.53231237e-03 -5.10337166e-02
  -2.38059685e-02  1.53585812e-02  3.12463064e-02 -9.80175063e-02
  -1.81578845e-02  1.89240519e-02 -3.90556492e-02 -2.39697993e-02
   4.19886485e-02  2.00584866e-02  4.70751897e-02 -1.49060169e-03
  -4.23557013e-02 -7.91850165e-02  2.69539095e-02 -1.65625196e-02
   2.90052872e-02 -8.85497034e-03 -3.56357992e-02  2.77624913e-02
  -5.57693839e-02 -1.17057040e-01  1.30995866e-02  1.59907117e-02
   1.80977900e-02 -3.77179533e-02  4.21833731e-02  2.52553765e-02
  -3.04991566e-02 -2.35475469e-02  3.49213257e-02  3.33809517e-02
   2.36214213e-02 -2.75117699e-02 -2.64017358e-02 -1.22776367e-02
   7.71677587e-03  5.41673927e-03 -3.57011519e-02  3.08841169e-02
   5.44627681e-02  1.58360489e-02 -1.72024779e-02  4.47209552e-02]
 [ 8.66947696e-03  1.55234009e-01 -2.46712584e-02  1.71523631e-01
  -1.31370709e-03 -2.11015763e-03 -8.61298665e-02  5.90442121e-02
   3.03108394e-02 -2.24636212e-01 -3.91125269e-02 -5.31825684e-02
  -2.41266266e-02  1.74046941e-02 -1.84087276e-01 -6.32782131e-02
   1.64072700e-02 -9.38001126e-02 -5.77568449e-03  4.08324562e-02
  -2.16784906e-02  8.71041510e-03 -4.51177446e-04 -2.29610987e-02
   1.11974537e-01  4.44865413e-02 -1.04937002e-01  2.57219523e-02
  -6.37757331e-02  2.61860527e-02 -1.82028860e-02 -3.69253941e-02
  -6.18380941e-02  7.97718950e-03  4.43610996e-02  3.37514356e-02
   3.12849544e-02  4.99961106e-03  1.87294800e-02 -6.71133250e-02
  -5.47412783e-03  3.19851078e-02 -8.91204625e-02 -3.07501163e-02
  -2.63159350e-02 -1.92375958e-01  9.12610348e-03  3.68033946e-02
   7.44333789e-02 -1.04121648e-01  2.10879445e-02 -2.68621114e-03
   6.52394667e-02 -6.04044870e-02  3.24121583e-03  8.27928726e-03
   3.81423682e-02  3.12438942e-02 -7.14813620e-02  2.59410497e-02
  -4.66363281e-02  4.02116310e-03  1.33866921e-01  4.46550213e-02
   1.28253654e-01  3.92990261e-02  6.26355363e-03 -1.86930746e-02
  -2.93132123e-02  5.03832512e-02 -4.93667908e-02  3.16571468e-03
  -3.78689058e-02  3.25066620e-03 -7.12495968e-02 -3.96873683e-01
   5.16107827e-02  1.47051830e-02 -2.66744737e-02 -2.19146963e-02
  -5.86853810e-02 -1.03911953e-02  1.83071867e-02 -6.11701310e-02
  -4.41955291e-02 -2.64764950e-02 -6.46657916e-03 -8.96352227e-04
  -1.06561556e-02  4.52527702e-02 -6.47972375e-02 -1.43291736e-02
  -6.83268160e-02 -5.97581454e-02  4.59120935e-03 -4.54259329e-02
  -1.19928773e-02  5.16352020e-02  2.15195827e-02 -5.47164194e-02
  -5.27338758e-02  8.56685569e-04  7.03389421e-02  4.11447622e-02
  -5.89022487e-02 -2.71394253e-01 -4.41684537e-02  5.27909724e-04
  -2.74351109e-02 -1.98277310e-02 -4.86830175e-02  1.27779454e-01
   5.46066975e-03 -1.90377105e-02 -1.39172941e-01 -4.94479798e-02
  -1.37181990e-02 -6.18569888e-02 -4.79492322e-02  8.03290159e-02
   6.18611276e-02 -4.71344516e-02 -2.06997618e-03 -6.81254789e-02
   1.48867015e-02 -6.11789525e-04 -2.99737342e-02 -8.05265978e-02]
 [ 3.52229215e-02 -1.82244048e-01  5.43062799e-02 -4.50847670e-02
  -1.47123123e-02 -6.27166256e-02  6.08316474e-02  1.46837961e-02
   2.61572544e-02  1.62003294e-01  5.85246943e-02  6.77417964e-02
   3.71823064e-03 -6.89002275e-02 -8.27237889e-02 -5.85126914e-02
   3.68611701e-02 -1.04322555e-02  1.38996318e-01 -5.93116991e-02
   6.22985400e-02  2.13282692e-04 -5.32041714e-02  7.75003731e-02
  -7.28614852e-02  3.23024429e-02 -5.01396619e-02 -4.19503562e-02
  -1.05433073e-02 -3.32844369e-02 -1.53191593e-02 -2.84527838e-02
   7.20002279e-02  2.47287694e-02 -5.99177741e-02 -1.69440955e-02
   4.09430042e-02  1.54641308e-02 -5.28191440e-02 -7.45395711e-03
  -7.98841100e-03 -6.77222684e-02 -1.74620077e-02  3.44646685e-02
   8.65571667e-03  6.43570945e-02 -8.60353350e-04  1.28029007e-03
   4.25511524e-02  9.42613557e-02  7.73987621e-02 -3.19258682e-02
  -6.16936833e-02  4.85192463e-02  3.80385085e-03  4.11015153e-02
  -3.57455015e-03 -8.92093498e-03  6.96983933e-03 -1.21574216e-02
   3.53783704e-02  4.04270552e-02  5.06501235e-02  2.58222092e-02
  -8.93094614e-02 -5.55656403e-02  2.91222688e-02 -4.06288132e-02
  -2.51764879e-02  8.42496473e-03  1.83317922e-02 -1.99122969e-02
  -3.80762145e-02 -1.43685313e-02  3.12240468e-03  1.61850244e-01
  -3.28224227e-02 -5.90286478e-02  6.55744448e-02 -7.86529295e-03
  -3.95307280e-02  5.71869202e-02 -1.51652936e-02 -6.59895539e-02
   7.36920256e-03  4.07745168e-02  9.88560729e-03 -2.10067369e-02
  -5.46513945e-02 -5.32110631e-02 -3.96205671e-02  1.55570814e-02
   1.11579029e-02 -6.68005869e-02 -2.55776048e-02  3.05835698e-02
   7.30114952e-02 -5.98347262e-02 -9.64017492e-03 -2.22059786e-02
   1.26504079e-02  7.10999519e-02 -2.22296137e-02  9.83599797e-02
   3.08359116e-02 -4.32571769e-02  2.33993288e-02 -9.41617191e-02
   7.38990819e-03  5.20879291e-02  2.52641998e-02 -7.07003698e-02
  -1.56987080e-04  4.07764837e-02  8.82425681e-02  7.27199465e-02
   2.73918901e-02  2.42375266e-02 -2.27530599e-02 -2.36358419e-02
   1.83127765e-02  3.57532352e-02  1.27119720e-02 -1.52332764e-02
   9.34033990e-02 -4.44083773e-02 -5.93158081e-02  9.22398418e-02]
 [-3.74688604e-03  3.49911787e-02 -5.21504059e-02  8.65914449e-02
  -6.54208064e-02  2.83018369e-02  1.37651160e-01  4.22888175e-02
  -5.59691386e-03  6.04842827e-02  2.75709238e-02  8.20729416e-03
  -2.53860839e-02 -4.13135849e-02 -7.26598129e-02  9.49655939e-03
  -7.00668320e-02 -3.83936288e-03  2.31346246e-02 -5.67156486e-02
  -1.47170201e-02 -1.97692681e-02 -8.04267591e-04 -9.81073678e-02
  -1.69327870e-01 -5.26310615e-02 -5.76899610e-02 -5.33294724e-03
   5.15159406e-02 -2.48860521e-03 -2.31317226e-02 -5.69307543e-02
  -4.72121984e-02  2.24338402e-03  6.68386221e-02  2.92731412e-02
  -3.87354977e-02 -3.03777028e-02 -4.60358150e-02  8.61541703e-02
   4.52490114e-02 -5.74323125e-02 -8.28991160e-02 -2.53586303e-02
  -7.85943866e-02  9.63451192e-02  4.93133478e-02 -1.12344190e-01
   3.01859584e-02  2.56002918e-02 -5.58189116e-02 -1.18900826e-02
   1.33302789e-02 -6.77193850e-02 -1.71733331e-02  4.09566835e-02
  -2.68652923e-02 -6.29575551e-02  1.24111287e-02  5.85729368e-02
  -4.13715839e-02 -1.62550900e-02 -7.26332664e-02  1.57677699e-02
  -2.61633933e-01 -1.87460370e-02  3.01372092e-02 -1.15528591e-01
   4.86222953e-02 -1.84544716e-02  7.02912314e-03  2.06799712e-02
  -2.22413726e-02 -6.63776174e-02 -1.19654811e-03  5.00271842e-02
   7.40039442e-03 -5.91446459e-02  3.94198895e-02  2.24720053e-02
   6.36196649e-03 -2.60340441e-02  9.67415050e-03  9.70002171e-03
   2.99134161e-02 -3.95610966e-02  4.44518328e-02 -6.55668303e-02
  -1.20773248e-03 -6.17971979e-02 -5.73857985e-02 -1.95567794e-02
  -6.29626811e-02 -5.19930013e-02 -8.88737887e-02  1.90156568e-02
   1.41901104e-02  7.69959623e-03 -8.09937716e-02 -3.02858893e-02
  -6.22381829e-02 -2.57144213e-01 -5.37879486e-03 -2.56610513e-01
  -3.55006456e-02 -1.99040800e-01  1.12846680e-02  4.23791073e-02
  -5.80341518e-02 -2.63342466e-02  1.88919846e-02 -9.21258423e-03
  -1.74256135e-02 -4.44141366e-02 -3.02856378e-02  1.09662607e-01
  -4.95877303e-02 -1.90234073e-02 -3.65291312e-02 -8.49110484e-02
   1.52479308e-02 -7.36125484e-02  4.45025861e-02 -3.10880579e-02
  -1.62703812e-01  1.28252711e-02  3.96395586e-02  1.44690946e-01]
 [ 1.25694135e-02 -1.67202517e-01  2.55009416e-03 -1.25930654e-02
  -6.48013651e-02  1.57379508e-02  2.68450789e-02 -5.62133174e-03
   1.71930715e-02  7.34200552e-02 -1.28097879e-03  1.11867577e-01
   3.26574706e-02 -1.15559120e-02 -2.65644249e-02  5.38135991e-02
  -5.72165363e-02  3.96170020e-02 -7.34832883e-02 -4.47860435e-02
  -3.04226160e-01 -3.64560485e-02  3.86352278e-02 -2.96629388e-02
   3.69371171e-03  1.98142696e-02 -5.46894094e-04 -2.12717820e-02
   6.47008885e-03  2.24983729e-02  2.55812984e-02  3.72311100e-02
   4.81123403e-02  5.84245799e-03 -8.72758031e-02  9.31592286e-03
   5.33315241e-02 -1.01560052e-03  2.03699637e-02  4.26402017e-02
  -4.17847820e-02 -6.41236231e-02 -9.21439100e-03  5.82462922e-02
   7.52072781e-03 -7.90830776e-02 -1.18767284e-01 -3.14195007e-02
   3.48689267e-03 -9.18339416e-02  8.67863558e-03 -4.30225171e-02
  -5.82940951e-02 -4.16386575e-02  1.94695895e-03  3.39216031e-02
  -4.91832644e-02  1.08440462e-02 -2.25456022e-02 -8.71433970e-03
   6.95700850e-03  6.87503293e-02  6.20134808e-02 -5.06729297e-02
  -2.59880628e-02  3.60891297e-02 -8.01753104e-02 -9.12779719e-02
   2.78148763e-02  2.02617254e-02 -6.20685238e-03 -4.12814096e-02
   6.47667274e-02 -2.04324014e-02 -7.49094486e-02 -3.55199911e-02
   4.27796058e-02 -3.89040075e-02 -3.70792896e-02 -2.85301842e-02
  -2.58755293e-02  8.19843858e-02 -6.32972494e-02  2.91217193e-02
   4.35207337e-02 -5.63243739e-02 -4.35606427e-02 -5.47696487e-04
   3.22761610e-02 -8.17681402e-02 -6.22952506e-02  2.63794661e-02
  -1.82452658e-03  2.19665226e-02 -1.43566802e-01 -2.45516747e-02
  -3.74415144e-03 -6.66399226e-02 -2.14010384e-02  2.92906649e-02
  -8.75171646e-02 -3.71966958e-02  9.92351305e-03  2.87171248e-02
  -1.11575881e-02  1.63370054e-02 -3.19042020e-02  2.34220345e-02
   5.70054688e-02  3.15653123e-02  3.34353261e-02 -1.43407196e-01
   2.53000651e-02 -1.00434152e-03 -3.96747552e-02  6.13174923e-02
   4.28254083e-02  1.68005805e-02 -1.92008913e-02 -1.36424722e-02
   8.54241550e-02 -2.03062892e-01 -5.52518293e-02  1.35605680e-02
   6.01572804e-02 -5.25639430e-02  1.34094968e-01  8.45566159e-04]
 [-5.56500405e-02  3.36622857e-02 -4.15501110e-02  6.12983741e-02
   3.56062762e-02 -4.88692075e-02  8.99820402e-02 -5.62905706e-02
   1.30409990e-02 -4.11236808e-02 -4.55920659e-02  1.53348267e-01
   1.33014247e-02  5.14172949e-02 -1.18792407e-01 -6.07068166e-02
   2.98035387e-02 -2.94348854e-03 -2.97072470e-01 -3.47284488e-02
   9.08090174e-02 -3.03421542e-02  4.23616096e-02  2.88567953e-02
  -1.29300222e-01  4.88098757e-03 -1.03843780e-02 -2.93331929e-02
  -1.48711586e-03  2.34337430e-02  3.23316525e-03 -3.64930816e-02
   2.96708718e-02 -4.99840826e-02  1.22393006e-02 -5.51261529e-02
   3.26198302e-02 -6.01703860e-02 -7.52080092e-03 -7.62171969e-02
  -1.61834841e-03 -1.18616540e-02 -5.77900559e-02  8.09556618e-03
  -2.17503449e-03  5.12398183e-02 -3.13677303e-02 -1.48608565e-01
  -1.27151281e-01 -2.58052964e-02  2.58399565e-02 -5.16297705e-02
   7.04077259e-03 -2.50186101e-02 -1.63347404e-02 -2.35678982e-02
  -1.47359088e-01  2.51678308e-03 -3.46322097e-02 -2.85058450e-02
  -4.17333096e-02 -1.63146425e-02 -4.15918715e-02  1.65189151e-02
  -6.20754398e-02  4.69875149e-02 -1.59009531e-01 -3.93479802e-02
   4.77606691e-02 -3.73654552e-02  1.17134182e-02  1.88480001e-02
  -5.04723787e-02 -4.98504788e-02  2.38140784e-02 -2.48009264e-02
  -6.86603924e-03 -7.04154605e-04 -6.04348481e-02 -1.26875639e-02
   3.61087881e-02  7.71723688e-02 -5.18624298e-02  5.30769192e-02
   3.31130363e-02 -3.17771994e-02  3.39260958e-02 -5.06638326e-02
  -8.08546878e-03 -2.56106574e-02  2.55927090e-02 -1.56938545e-02
  -3.41933444e-02  4.23368849e-02 -6.55837283e-02 -9.50928498e-03
  -3.08044488e-03 -4.41966355e-02 -8.21863264e-02 -1.41401505e-02
   4.46115248e-02 -1.38528749e-01  4.06786837e-02 -9.03477240e-03
  -4.46574688e-02  6.50290102e-02 -8.57865512e-02  2.40802784e-02
   1.18858982e-02 -1.57324746e-02 -2.69359294e-02 -2.59478744e-02
  -1.07467294e-01 -6.13671020e-02 -5.64429723e-02  2.09173188e-02
  -5.99076264e-02 -3.03215422e-02 -4.92074378e-02  1.74196810e-02
  -7.94930980e-02 -1.63587257e-01  1.05786668e-02 -2.69779041e-02
  -2.55764369e-02 -1.92091763e-02 -6.55039102e-02  8.70711282e-02]
 [-3.77647281e-02  3.94432340e-04 -2.94543244e-02  5.56330457e-02
  -2.39882469e-02 -4.57313135e-02  5.55245616e-02 -7.06103630e-03
  -3.33858468e-02  6.72932342e-02 -1.84315759e-05 -1.05092548e-01
   4.89941873e-02 -1.51809510e-02 -1.21291457e-02 -3.63355055e-02
  -2.14089248e-02  1.27386581e-02 -6.70223311e-02 -8.60531479e-02
   2.39885552e-03  4.86735906e-03 -1.89651418e-02 -5.34918196e-02
   4.72439453e-02 -3.49196605e-02  1.07587893e-02  3.91467884e-02
  -3.95250693e-02  1.57270879e-02 -5.17605245e-02  2.34784260e-02
   1.59761216e-02  2.17540022e-02 -1.87301897e-02 -9.36295241e-02
   6.82761567e-03 -1.08146407e-02 -1.83330793e-02 -1.64129660e-01
  -2.57895719e-02 -1.06255617e-02 -9.59609728e-03  7.63811497e-03
  -2.66528334e-02  8.82343296e-03 -2.70430837e-03 -2.91625760e-03
  -6.47302810e-03  4.50739637e-02 -6.76079020e-02 -3.41464356e-02
  -6.11973777e-02 -6.28753081e-02  5.93941212e-02  2.21406817e-02
  -3.83179337e-02 -2.33626142e-02  4.33124825e-02 -3.37612033e-02
   1.32606430e-02  1.71692930e-02  1.57160684e-02  1.56881176e-02
   2.89912838e-02  4.79436740e-02  2.81704981e-02 -1.56246319e-01
   3.99693660e-02 -1.12558911e-02 -3.29435878e-02  3.43015902e-02
  -3.58848944e-02 -6.30399361e-02 -2.22751182e-02  8.23382754e-03
  -4.01733182e-02 -2.37819962e-02 -7.61987716e-02  2.47760136e-02
   1.91695765e-02 -7.51014203e-02 -1.34767301e-03 -4.85637076e-02
   1.79740647e-03 -3.38394940e-02  3.66294757e-03 -2.65564118e-02
  -5.62089048e-02 -5.30820675e-02 -8.81259795e-03  2.34152619e-02
   4.64804024e-02 -9.49660093e-02  9.03488398e-02 -5.60501330e-02
  -3.60162172e-04 -3.79523784e-02  5.11786342e-03 -2.07597073e-02
  -4.20540757e-02 -9.08844359e-03  5.24387173e-02  7.39146546e-02
  -9.59682278e-03 -6.83956966e-02  7.87898339e-03  2.40031723e-02
  -1.31893530e-01  1.80760939e-02  4.84951697e-02  5.67743406e-02
  -5.32900728e-02 -3.14489976e-02 -2.16166563e-02  1.17601594e-02
  -4.40168865e-02  1.27719166e-02  2.84471945e-03  2.85097901e-02
   9.71112121e-03 -1.79187430e-03 -2.22077913e-04  3.92425284e-02
   4.59183231e-02 -9.37604606e-02 -4.43848632e-02  4.68182638e-02]
 [ 1.29745621e-02  2.05922633e-01  4.76374943e-03  1.20542735e-01
  -4.03176360e-02 -3.78058776e-02 -1.01161063e-01 -1.54591184e-02
   7.28874374e-03 -1.79420725e-01 -2.14080922e-02 -7.74544328e-02
   5.77047877e-02  1.43886600e-02 -7.64234690e-03  1.87019967e-02
  -5.57870790e-02 -8.25494751e-02 -4.52525131e-02 -2.03728415e-02
   6.08838629e-03 -6.79031760e-02  2.49426737e-02 -1.99216548e-02
   7.89754912e-02 -5.36658093e-02 -7.82953724e-02 -4.64698225e-02
   5.91144487e-02 -4.89584636e-03  7.11871013e-02 -6.32935688e-02
  -2.58676223e-02  1.77307259e-02  2.46884227e-02 -2.08570641e-02
  -1.79842021e-02 -4.47606221e-02  4.75619659e-02 -1.04249977e-01
  -1.70929842e-02 -2.18180083e-02 -5.07879145e-02  3.29184085e-02
   1.54892430e-02 -2.21009582e-01 -5.15663326e-02  9.65096802e-03
   3.65636647e-02 -3.65425162e-02 -1.93767287e-02 -6.48421347e-02
  -6.04500696e-02  7.57065276e-03 -7.69179240e-02  1.89068317e-02
   4.60865982e-02  1.98290404e-02  6.58650994e-02  7.61088636e-03
   3.16083580e-02  1.72854494e-02  7.45929554e-02  2.28722747e-02
   9.44897309e-02  6.63876310e-02  3.63287888e-02 -9.73386317e-02
   2.09693704e-03 -5.00593372e-02  3.29942144e-02 -4.17610146e-02
  -3.73198390e-02 -4.76205535e-03 -1.97130591e-02 -2.45599791e-01
  -5.86508736e-02 -3.44909094e-02  2.93789767e-02 -1.59174576e-02
  -4.54203114e-02  1.16828540e-02  5.36156725e-03  4.91343103e-02
   4.33476502e-03 -1.64130062e-03 -2.66271774e-02 -3.45538929e-02
   7.72235310e-03  4.37016524e-02 -9.08994116e-03 -1.91681869e-02
  -1.30049735e-01 -4.57727499e-02  2.28152294e-02 -6.69397190e-02
   4.77549694e-02 -2.45473329e-02 -5.28820567e-02  1.76936127e-02
  -2.05885582e-02  7.18125775e-02 -3.46545205e-02  1.88122075e-02
  -4.30717431e-02 -2.90987253e-01  1.83052365e-02  1.90196689e-02
  -5.29709226e-03  1.17090037e-02 -1.06845601e-02  8.99511650e-02
   8.03644396e-03 -6.86905384e-02 -1.31631747e-01  3.81693221e-03
   2.95720417e-02 -1.83451269e-02 -6.92227632e-02 -5.44526018e-02
  -4.75889668e-02 -1.46836485e-03  1.09351277e-02  4.20966856e-02
   5.12895994e-02 -2.93755308e-02 -2.31401883e-02 -7.64858946e-02]
 [-2.14387923e-02 -1.55256137e-01 -1.22406427e-02 -7.59939477e-02
  -1.37770744e-02 -2.95396671e-02  2.92289574e-02  4.72276397e-02
  -6.28396273e-02  1.00761570e-01  1.53781408e-02 -4.68512550e-02
   1.84844271e-03 -2.68943515e-02 -7.88413137e-02 -6.22097068e-02
   2.98069548e-02  4.84266132e-03  1.14760228e-01  4.76390570e-02
   9.54521634e-03  1.56973694e-02  7.86426477e-03  1.94555894e-02
   9.80906095e-03  1.65692624e-02 -5.17977104e-02  2.23229756e-03
  -6.09756224e-02  1.74036939e-02 -9.65764597e-02  3.34367082e-02
  -3.21426056e-02 -3.65466848e-02 -4.81439084e-02  5.75056933e-02
   4.09093276e-02  1.89394522e-02  6.80870712e-02 -9.41252336e-03
  -1.75495204e-02  2.89300252e-02  3.34178023e-02  6.36348501e-02
  -3.44797783e-02  8.78800601e-02 -2.40726415e-02  8.08800906e-02
   2.81735178e-04  6.14856668e-02  1.66127458e-02 -2.72407401e-02
   4.84573804e-02  3.66573147e-02  7.85455704e-02  5.26769832e-02
  -8.56191441e-02 -2.41616927e-03 -7.58975670e-02 -5.20859025e-02
   2.62274109e-02 -6.14581704e-02 -5.44127785e-02 -2.66552996e-02
  -4.12218757e-02 -4.92640771e-02  3.02320141e-02  4.06582989e-02
   4.39759232e-02  1.62096266e-02 -7.33305002e-04  3.30914594e-02
   1.82746053e-02  3.46638858e-02 -4.03123870e-02  1.39180258e-01
   3.47191766e-02 -2.09343992e-02  1.45632569e-02 -3.25809754e-02
   4.19185348e-02  1.95951737e-03 -2.79887728e-02  4.18427698e-02
  -3.76554281e-02 -2.68297885e-02  7.56077701e-04  3.58952885e-03
   2.33965889e-02  2.21806280e-02 -1.21353632e-02  2.40078457e-02
  -3.19357701e-02 -9.42971632e-02  1.20827621e-02  1.57856420e-02
   3.18502933e-02  2.06879936e-02 -1.72584481e-03 -3.53318416e-02
  -5.02912663e-02 -3.48166153e-02  5.80823123e-02  5.90737201e-02
  -9.87865031e-03  5.39725239e-04 -8.76866933e-03  1.33661542e-03
  -2.20930856e-02 -2.77734119e-02  6.94874153e-02 -5.70859350e-02
  -6.55117631e-02  5.19671515e-02  4.81874272e-02  1.11908495e-01
  -1.02440706e-02  2.93295886e-02  4.64176238e-02 -5.09420931e-02
   5.06109223e-02  1.20397404e-01 -9.48026404e-03  6.81680813e-03
   1.54622477e-02 -7.66809508e-02 -9.22926366e-02  8.48466381e-02]
 [-7.93639757e-03 -1.20248655e-02 -3.78967868e-03  8.63622576e-02
   2.47033853e-02 -7.20674545e-02  1.06416687e-01 -5.62814288e-02
  -1.52358413e-02  1.35828480e-01  2.05545351e-02  2.12376984e-03
  -3.09683732e-03  3.72234955e-02 -1.52313009e-01 -1.06242476e-02
   2.63622701e-02  9.43986885e-03  1.29635148e-02 -9.86351352e-03
   2.62146201e-02 -4.88701351e-02 -1.64316185e-02 -4.37128693e-02
  -6.70894757e-02 -5.68142645e-02  1.61337703e-02 -1.30301323e-02
  -2.81601381e-02  1.63460092e-03 -4.29237857e-02 -6.11344986e-02
  -2.26703100e-03 -1.61055420e-02  5.52874338e-03 -8.78946409e-02
   5.37496284e-02 -3.74674685e-02 -3.22091281e-02 -6.86254278e-02
   2.79638413e-02 -5.87291233e-02 -4.69201244e-02 -2.07567289e-02
  -4.17368300e-03  6.93689361e-02  1.01793036e-02  5.80291376e-02
   6.21765293e-02 -7.44011849e-02  2.27998402e-02  1.35367606e-02
  -9.62095186e-02  9.27147083e-03  5.74072264e-02 -1.90554862e-03
   1.10164806e-01 -4.28406037e-02  3.41484137e-02  8.68676521e-04
  -5.43752164e-02  5.78833818e-02 -8.46337900e-03 -2.90128700e-02
  -9.17537361e-02  4.53224592e-02  1.43888995e-01 -8.69443044e-02
  -1.17283710e-03  2.78418064e-02 -2.55706534e-02  3.44346389e-02
   6.54152483e-02 -8.80537834e-03 -4.91624475e-02  1.48863733e-01
  -1.11994380e-03  5.88565283e-02  2.00719647e-02 -3.82169150e-02
  -1.58491097e-02 -7.40482956e-02  4.17472655e-03  4.00581248e-02
  -1.86781641e-02  1.14432294e-02 -1.85634196e-02 -5.94931357e-02
   5.25630675e-02 -4.58765253e-02  8.29430949e-03  2.01702025e-03
   3.76246609e-02  5.90436980e-02 -2.15040788e-01 -1.02463858e-02
   1.41225653e-02 -4.72006835e-02  1.99644379e-02 -3.27925682e-02
  -5.29561676e-02 -2.36456782e-01  4.53790426e-02  7.10543469e-02
   5.18799163e-02  1.92319311e-03 -2.56420346e-03  2.34924331e-02
   3.19311582e-02  6.68459339e-03  6.25305399e-02  1.03743784e-01
  -3.29146199e-02 -4.07454036e-02 -5.48826419e-02  7.69911930e-02
   6.69198716e-03 -3.59325074e-02 -1.33099528e-02  3.95712955e-03
   7.81163126e-02 -8.41783211e-02  2.95501407e-02  1.14838779e-02
  -1.27563281e-02 -2.82817036e-02  1.20191611e-01  1.94714740e-01]
 [ 2.45920219e-03 -1.76872090e-01 -4.84392755e-02 -9.21853855e-02
   8.17654468e-03 -5.60761355e-02 -7.03172386e-02  2.52357665e-02
  -6.19065464e-02  8.56467932e-02  3.51291113e-02  1.23869225e-01
   2.30893251e-02  1.54254334e-02  9.50337946e-03 -1.24924053e-02
   5.08840866e-02 -2.92685870e-02 -1.56041563e-01  1.83805246e-02
  -1.59237534e-01  4.45207297e-05 -3.94478589e-02 -1.44420722e-02
   6.20370694e-02 -3.20338719e-02 -2.47002691e-02 -7.77560566e-03
   1.50833493e-02  2.31094360e-02  7.92480335e-02  3.04241553e-02
   4.56585921e-02 -5.05543388e-02 -1.98111888e-02 -5.00586070e-02
  -4.06615585e-02 -1.71979833e-02 -4.59093601e-02 -3.29942070e-02
  -4.12600450e-02 -5.19335903e-02  5.04408218e-02  4.15304936e-02
  -4.00630981e-02  3.99472490e-02 -1.19482033e-01  7.44189024e-02
  -9.46612209e-02  2.27050707e-02  2.37051435e-02  1.42146861e-02
  -3.18339728e-02  3.70778181e-02 -4.37292363e-03 -1.40257478e-02
  -6.02607019e-02 -6.43658414e-02 -3.15566733e-03  1.44285709e-02
  -3.63605767e-02 -8.42349753e-02  4.28959094e-02 -1.23738917e-03
  -6.90050572e-02  5.53179234e-02 -1.14925377e-01 -6.40935004e-02
  -2.66667753e-02 -5.14010228e-02 -1.39530059e-02  2.81759892e-02
   1.49692763e-02  7.37395510e-03  3.68027203e-02  1.23214805e-02
   5.81360795e-02 -7.55299674e-03  4.91485782e-02 -2.09809057e-02
  -4.63817082e-02  4.41084206e-02  5.39058866e-03  2.88443007e-02
  -2.98379231e-02 -6.35891035e-03 -5.96956611e-02  3.63746621e-02
   1.27909007e-02  2.79712211e-02  2.66794814e-03 -2.30984371e-02
   4.52676006e-02 -8.31067190e-03 -7.21057085e-03 -1.91895179e-02
  -4.24253643e-02 -3.41139548e-02  2.98912860e-02 -6.10329695e-02
  -5.74684590e-02 -1.42854750e-01 -1.93538088e-02  1.33426171e-02
  -8.56956467e-03  1.09509416e-01 -3.68546098e-02 -9.06016584e-03
   6.41606674e-02 -1.94870085e-02 -6.44330457e-02 -1.31523147e-01
  -5.95109351e-02 -7.56399299e-04 -2.50228215e-02 -4.76700142e-02
   3.80684994e-02  1.61797833e-02 -1.72868315e-02 -3.26891765e-02
   6.38665035e-02 -2.44425818e-01 -1.08048664e-02  2.49036662e-02
   1.59171283e-01  2.80963555e-02  4.42455336e-02  1.13040231e-01]
 [-1.97112903e-01  7.28516467e-03  2.48283544e-03 -1.72910482e-01
   5.23266569e-02 -4.34078015e-02 -1.05893668e-02  3.80792376e-03
   5.20856641e-02 -8.80732238e-02  4.73377146e-02  2.29057837e-02
  -1.69465411e-02  5.40588088e-02 -2.09825244e-02  4.59797829e-02
  -5.86239249e-02  4.00339104e-02 -3.11357230e-01 -6.78953007e-02
  -1.15223825e-02 -2.61742026e-02 -1.34533606e-02  1.06209695e-01
  -1.66956052e-01  6.52885064e-05  1.57250725e-02  1.42707080e-02
  -4.86439131e-02  4.86232154e-02 -2.07729694e-02 -5.01925051e-02
  -1.20368171e-02  5.16121276e-02 -2.18659788e-02 -5.12247607e-02
   3.90309468e-02  2.66442504e-02 -1.51910922e-02 -5.03415540e-02
   1.71158444e-02  3.43948863e-02 -1.08826496e-01  2.23713461e-02
  -9.94301867e-03  9.70279574e-02 -3.45949270e-02 -1.84594497e-01
  -1.05431534e-01  6.94926977e-02 -3.36460881e-02 -2.57639699e-02
  -2.83343397e-04  8.83639604e-03 -8.20563510e-02 -5.98075315e-02
  -1.91595390e-01  5.12085063e-03 -7.29315123e-03 -4.51838933e-02
  -2.28548166e-03 -4.41717952e-02 -5.91292605e-02 -1.19585201e-01
  -1.26218408e-01  4.50049974e-02  4.53482242e-03  3.72341126e-02
  -2.23416444e-02  1.22383395e-02 -3.79714323e-03  2.71710474e-02
  -1.09329475e-02  1.05644725e-02 -2.47075353e-02  1.09449029e-02
  -3.54640968e-02  5.19043542e-02 -2.86185369e-03 -2.80761365e-02
   8.73798225e-03 -1.22656114e-03 -6.55829161e-02 -4.34722267e-02
   4.36051972e-02 -1.28078908e-02  4.27417234e-02  4.44973782e-02
  -1.89107414e-02  1.17279151e-02  1.91997718e-02 -4.37021516e-02
  -4.45267744e-02  8.52014171e-04 -9.82707515e-02 -2.08844673e-02
   7.71094933e-02  1.23807713e-02 -3.60096954e-02 -4.23794687e-02
  -3.21070775e-02 -2.05673084e-01 -4.29955497e-02  2.77531557e-02
   2.56348792e-02 -4.57164161e-02 -4.37651500e-02 -2.80744093e-03
  -4.89933677e-02 -6.91350666e-04 -7.37668900e-03 -1.27262801e-01
  -1.88094392e-01 -5.21662384e-02  1.62396301e-02  2.03026250e-01
  -3.50257531e-02 -5.00243641e-02  3.88696119e-02  1.35748750e-02
   9.36200470e-02 -1.54035836e-01 -3.68968807e-02  2.37811431e-02
  -3.73592563e-02  5.13910912e-02 -7.44357780e-02  2.75650863e-02]
 [ 3.34546082e-02  1.44248856e-02 -9.76223797e-02 -5.62710650e-02
  -1.42152989e-02 -3.28828618e-02  3.55674550e-02 -1.47895375e-03
   1.33802253e-03  3.94860394e-02 -5.13807423e-02 -1.34032294e-01
   3.27659696e-02  1.45353125e-02 -1.33647978e-01 -3.40583757e-03
   3.95466089e-02  1.60086714e-02  2.77330801e-02 -6.54186606e-02
   7.65123265e-03 -6.34816960e-02  1.63594708e-02 -1.08097218e-01
   3.32764015e-02  2.74859164e-02  4.24328260e-02 -2.54849112e-03
   3.34457941e-02 -6.91920966e-02 -4.66806516e-02 -6.09372705e-02
  -1.53844291e-02 -2.49783248e-02 -3.39147821e-02 -1.28157120e-02
  -3.22851762e-02  2.20385138e-02 -7.00057372e-02 -1.65725917e-01
   3.87676619e-02  3.92258354e-02 -3.90171334e-02 -3.16703785e-03
  -1.72587410e-02 -9.38186049e-03 -4.21970673e-02  6.72645941e-02
   3.25028561e-02  3.02876905e-02 -3.16696018e-02  3.94583680e-02
  -1.29808202e-01 -7.47437850e-02 -5.40742017e-02  4.09174077e-02
   8.04442447e-03 -1.28806848e-02  4.53081988e-02 -2.38638874e-02
  -4.97925393e-02 -1.89956408e-02 -2.25706794e-03 -1.48048084e-02
  -1.03292137e-01  2.15519546e-03  2.63863169e-02 -9.18702409e-02
   7.46182213e-03 -5.05607463e-02  2.48041912e-03 -6.26271069e-02
  -4.04024348e-02  5.50222257e-03 -4.80188094e-02  2.43961029e-02
  -1.77956782e-02 -9.17756651e-03 -7.37374946e-02 -2.37858668e-02
   1.51166394e-02 -5.76544255e-02 -6.39654621e-02 -4.89915088e-02
   2.90669110e-02  3.05760968e-02 -4.11180928e-02  1.54258655e-02
   5.31853223e-03 -6.97088987e-03 -5.93574718e-02 -5.47146872e-02
   4.98987327e-04  5.85653400e-03 -2.49709971e-02  3.45986299e-02
  -6.75346842e-03 -3.02776452e-02 -8.88129696e-02  1.03795715e-02
  -9.79315266e-02 -2.64887586e-02 -2.22022943e-02  2.06743050e-02
   2.73994152e-02 -7.26109594e-02 -3.29520255e-02 -3.36505361e-02
  -9.60371718e-02  2.69243121e-02 -2.28834711e-02  6.36548400e-02
   2.91536879e-02 -2.78111119e-02  1.59158316e-02 -5.04652830e-03
  -3.05888113e-02  5.94405318e-03 -3.31796370e-02  1.81714608e-03
   5.06665930e-02 -3.24083194e-02 -5.18808030e-02  1.85690559e-02
   3.10118049e-02 -1.17754536e-02 -2.40195356e-02  3.46815027e-02]
 [ 6.39474671e-03  5.44852987e-02 -3.44245322e-02  6.69503883e-02
  -2.46517342e-02  1.92289818e-02 -8.06496367e-02 -1.36165563e-02
  -7.79032558e-02 -1.01715036e-01 -9.49861780e-02  1.21132908e-02
  -4.15616333e-02  2.63015833e-02 -1.18110731e-01  9.83500108e-03
   1.08935395e-02 -9.01086703e-02  7.33521432e-02 -5.82301021e-02
  -9.08631757e-02 -5.92678450e-02 -6.03672005e-02 -3.13220695e-02
   1.30029649e-01 -2.23790444e-02 -7.28047937e-02  4.93064076e-02
   4.00847569e-02 -4.45036143e-02 -4.73558158e-02 -4.67387997e-02
  -1.45040844e-02 -6.40582740e-02 -8.66170973e-02 -7.66669214e-02
  -4.02303878e-03 -5.54595478e-02  6.58510774e-02 -7.53979608e-02
  -1.16849819e-03  3.14146429e-02 -7.52201229e-02  1.87927186e-02
   2.08528470e-02 -9.13132429e-02  1.88117642e-02 -2.69364752e-02
   4.66223583e-02 -2.61383858e-02 -1.69139002e-02  3.81982550e-02
  -7.62904286e-02 -2.08534226e-02  8.47672224e-02 -4.83023562e-02
   4.71541435e-02  6.00674823e-02  4.31900397e-02 -6.04038909e-02
   3.73690911e-02  2.85736844e-02  1.16823502e-01  1.82593148e-02
  -4.38997820e-02 -5.75342625e-02 -2.02608146e-02 -3.30192270e-03
   3.59493196e-02  8.71282630e-03  2.50659771e-02  4.96410429e-02
  -4.02797051e-02  2.87725627e-02 -2.45509464e-02 -2.43838742e-01
  -2.70074140e-02  3.10092289e-02  1.99311916e-02  1.09944595e-02
   3.76439318e-02 -7.77584016e-02 -3.70755885e-03  4.02124003e-02
   2.75504123e-02 -1.92276612e-02  4.94867675e-02 -8.13070033e-03
  -4.24979106e-02  3.21250632e-02 -1.15180258e-02 -3.79245877e-02
  -1.03787191e-01 -3.05664297e-02 -1.90488119e-02  2.05497704e-02
  -2.74724588e-02 -3.87467025e-03 -5.86426742e-02 -2.31771525e-02
  -2.65005752e-02 -3.53620052e-02 -1.27671137e-01 -5.17707467e-02
  -4.77647735e-03 -2.55065799e-01 -8.57824311e-02 -6.45129606e-02
   1.42169632e-02  4.74506756e-03 -6.41238317e-02  8.75021592e-02
  -3.21035720e-02 -3.88655923e-02 -1.03220522e-01 -1.25141189e-01
  -6.88120257e-03 -4.69040275e-02 -3.18928808e-03 -2.86129341e-02
  -5.96281476e-02 -1.12375086e-02 -4.83109467e-02 -2.39043254e-02
   2.21775081e-02 -4.28291298e-02 -5.27506918e-02  1.23565812e-02]
 [-3.63101661e-02 -5.32694981e-02 -7.89190084e-02 -1.65969934e-02
  -2.05422863e-02  3.24669778e-02  5.66411503e-02 -4.95361611e-02
   4.91960980e-02  5.69916656e-03 -5.19364364e-02 -1.42298071e-02
  -1.47898402e-02  3.97075713e-02 -7.41949454e-02  4.42755409e-02
   6.10790495e-03 -2.76139751e-02  6.38051778e-02  3.51493061e-02
   2.98134275e-02 -2.63470449e-02 -6.81883544e-02  1.01128377e-01
   3.78823048e-03  3.71328294e-02  1.20801078e-02  5.91576919e-02
  -5.25047258e-02 -2.47497838e-02 -6.93583190e-02 -5.02817594e-02
   1.68736260e-02  2.94549037e-02  1.16643170e-02  7.30997475e-04
  -6.07918855e-03 -8.09200853e-03 -9.26084965e-02 -3.21841761e-02
   1.17149660e-02 -4.55395281e-02 -2.49439441e-02  2.90988386e-02
  -5.36649190e-02  2.93111484e-02 -4.18094993e-02  6.07372969e-02
  -5.70112765e-02  6.67198673e-02  1.13011196e-01  3.38371396e-02
  -4.42003161e-02  4.37371954e-02 -5.47253452e-02  7.07474053e-02
   6.51261583e-02  3.39582376e-02 -5.73093407e-02  3.25276330e-02
  -3.76501009e-02 -8.28122050e-02 -2.96375882e-02 -1.24099031e-01
  -1.15675330e-01 -1.30424807e-02  6.42938614e-02 -2.05255877e-02
   3.29462588e-02  4.42981496e-02 -2.57725641e-02 -5.94827719e-02
  -6.36366606e-02 -5.90618812e-02  2.79584546e-02  1.43698826e-01
  -4.74084206e-02 -2.42494848e-02  3.05479020e-02 -1.29334992e-02
  -4.22506891e-02 -3.46061476e-02  1.55102951e-03  2.41128001e-02
   4.06258143e-02  7.20304763e-03 -5.66149615e-02 -3.75993066e-02
  -2.26200335e-02  6.64728694e-03 -1.69504099e-02 -3.73317078e-02
  -1.23597565e-03  4.57642134e-03  1.55196309e-01 -2.01983098e-02
  -2.13236194e-02 -6.43342286e-02 -2.78246105e-02  1.78776942e-02
  -5.30762374e-02 -4.49729636e-02  1.65644027e-02  2.08238475e-02
  -3.58888544e-02 -6.70794910e-03  3.29871848e-02  1.09241558e-02
  -5.36242686e-02  2.93849222e-02  1.18139789e-01 -4.24778380e-04
  -6.05578162e-02 -3.47313024e-02  4.76963352e-03  1.62126854e-01
  -1.08187655e-02 -4.93663847e-02 -1.72198806e-02  1.53402323e-02
   9.46385041e-03  8.33476037e-02  1.17488187e-02  4.45393324e-02
   1.03933416e-01  1.54745681e-02 -8.61893147e-02  6.95238933e-02]
 [ 7.53716100e-03  3.28875929e-02  2.90534962e-02  1.88686281e-01
  -7.63112009e-02 -3.12970541e-02  1.65554974e-02 -3.94135267e-02
  -1.32254846e-02 -4.98085395e-02 -1.82680190e-02 -1.33197606e-01
   2.58626435e-02  7.30323978e-03 -4.45282459e-02  2.87172124e-02
   1.27705680e-02 -5.20506836e-02 -1.34262979e-01  1.45543814e-02
  -1.14710908e-02  1.47973327e-02  2.37453333e-03  4.03985083e-02
  -1.04916893e-01  2.11791154e-02 -8.32910240e-02 -4.24422994e-02
  -4.13957760e-02 -3.32248509e-02  7.33234361e-02 -5.05935326e-02
  -7.53332442e-03 -3.35340612e-02 -2.86636911e-02 -2.73291823e-02
   7.13383127e-03 -1.87204927e-02  4.55316938e-02 -4.10524346e-02
   3.68794007e-03  2.74482798e-02  1.11204143e-04 -9.90334898e-03
  -3.67906615e-02  6.28424808e-02 -4.96066734e-03 -3.98570187e-02
   1.63027450e-01 -1.56386375e-01 -5.20076789e-03  1.96477249e-02
  -3.25665250e-02 -3.44182365e-02  7.19429031e-02  1.01553611e-02
   1.05427317e-01 -4.01273835e-03  1.71320979e-02 -3.46612595e-02
  -5.35751693e-02  4.43743989e-02  4.30411398e-02  6.75178180e-03
  -3.58787030e-02 -2.98782159e-03  1.40371218e-01 -6.44192994e-02
  -1.85632687e-02  2.47212010e-04 -2.19188072e-03 -7.07365423e-02
  -5.67276515e-02  2.13483926e-02  2.58394405e-02  1.84911862e-02
   2.24525910e-02  1.32857049e-02 -6.48299381e-02 -5.50278723e-02
  -3.30671817e-02 -4.27182652e-02  2.24231239e-02 -4.61331084e-02
  -2.21600058e-03 -2.51639802e-02  4.13849205e-02  1.17254090e-02
  -3.53183933e-02 -3.79626304e-02 -3.82924005e-02  4.33789520e-03
   7.87181854e-02 -3.69492173e-02 -1.61620006e-01 -6.12515248e-02
   5.49295954e-02 -2.64689093e-03  2.30336897e-02 -6.75506750e-03
   1.47467433e-02 -2.48837650e-01  3.73372100e-02 -1.00945756e-02
  -4.04636115e-02 -2.61216424e-02 -6.18309435e-03 -7.50019625e-02
  -4.01315913e-02  2.56740339e-02  3.90837155e-02  1.54330255e-02
   1.40973087e-02 -9.08508375e-02 -7.74420500e-02  1.28492206e-01
   4.19652537e-02  1.37966254e-03 -2.13013627e-02  7.76888803e-04
   5.29753491e-02 -1.23345055e-01 -2.58061215e-02 -4.52345908e-02
   6.65095821e-02  3.68341394e-02  3.26540843e-02  1.22478075e-01]
 [ 5.46345897e-02 -3.76073569e-02 -8.02902877e-02 -1.68055087e-01
   6.11384585e-02 -2.54498199e-02 -2.97635999e-02  4.57638853e-05
   4.54126932e-02  7.48652071e-02  1.50184259e-02  1.49108887e-01
  -4.62328978e-02  4.19015065e-02 -4.43798453e-02 -5.43585084e-02
   4.86011943e-03 -2.96329670e-02 -4.03534248e-02 -3.70164067e-02
  -2.37406597e-01 -3.47535638e-03 -6.64356165e-03  3.32543179e-02
   7.48099312e-02  3.14554088e-02 -5.22539802e-02  5.07902205e-02
  -8.19585845e-02  8.57301429e-03 -5.80969313e-03 -3.49962190e-02
   4.89175990e-02 -1.20123476e-02  2.28007808e-02  1.08477203e-02
   3.42008099e-02  1.52126430e-02  4.99257632e-02 -5.32054603e-02
  -1.49784284e-02 -2.39804741e-02 -1.28234044e-01  1.89427342e-02
   1.39312595e-02  3.25276982e-03 -7.40649402e-02 -2.87111476e-02
   8.53032172e-02 -5.58865517e-02 -1.91925317e-02 -3.50580923e-02
  -4.58417200e-02 -8.13857280e-03 -2.27609947e-02 -5.65220006e-02
  -5.98721032e-04 -8.33205692e-03 -1.90430805e-02  2.64621954e-02
  -2.91461311e-03 -6.09659776e-03  7.04159290e-02  3.49540301e-02
   3.09562385e-02 -5.23358732e-02 -1.00741215e-01  5.90171851e-02
  -1.46756815e-02  4.33434546e-02  3.78081053e-02 -4.27426118e-03
   8.06309730e-02  3.83725055e-02 -4.78164144e-02 -1.81605127e-02
  -1.38827516e-02  1.29529927e-02 -1.09145986e-02  4.09459546e-02
  -7.09973201e-02 -1.87844876e-02  2.08433419e-02 -1.30283171e-02
  -1.62487314e-03 -4.57569957e-02 -9.26287472e-03 -1.90197378e-02
   3.18276919e-02 -1.74922738e-02 -5.64997829e-02 -3.27749737e-02
  -7.51333535e-02  7.49292737e-03 -1.95135310e-01  2.31551174e-02
   1.07272714e-02  3.03634033e-02 -1.51763409e-02 -1.09391287e-03
  -3.20447572e-02 -7.87347089e-03 -2.10082140e-02  9.63776335e-02
  -6.58761486e-02  3.82302999e-02 -6.57595024e-02 -5.81865385e-02
  -3.41645144e-02 -3.11727822e-02 -7.44548440e-02  7.58379605e-03
  -1.13520123e-01 -4.92623523e-02 -8.38134959e-02 -3.71027440e-02
  -3.11270524e-02  4.51989658e-02  5.62886335e-03 -3.80342752e-02
   3.49377282e-02 -8.44521001e-02  2.86431406e-02 -2.47334950e-02
   5.13419434e-02  5.62074408e-03 -5.22409491e-02  2.65359432e-02]
 [-1.59132089e-02  4.65801544e-02 -3.65061685e-02 -8.67846087e-02
   7.00595528e-02 -5.60307922e-03  1.44440336e-02 -4.24145311e-02
   6.68474892e-03 -6.98991260e-03  2.52526663e-02  2.01101638e-02
   2.97105149e-03  2.40866300e-02  4.48181927e-02 -6.84683993e-02
  -2.03807540e-02 -9.25430655e-03 -1.97080761e-01  4.34725396e-02
   1.00900820e-02  9.65455174e-03  2.67209206e-02  2.94601824e-02
  -1.48418084e-01  7.77557632e-03  2.10906961e-03  3.95079795e-03
   3.51081267e-02  3.00417375e-02 -3.42761874e-02  7.81495310e-03
   2.50104330e-02  4.17897142e-02 -6.15635216e-02  4.77581620e-02
   5.20194285e-02  3.22780125e-02 -1.35018602e-02 -4.08887677e-02
  -2.35422701e-03 -1.04502859e-02 -1.20585948e-01  1.09646603e-01
   6.11111373e-02  1.11757822e-01  3.34649608e-02 -1.25179887e-01
   4.31494089e-04 -4.69858199e-02  1.92920826e-02 -1.93195809e-02
  -5.08795716e-02 -1.37130944e-02 -5.30950762e-02 -3.46143395e-02
   7.20269186e-03  1.70561001e-02 -5.70268333e-02  1.57535337e-02
  -7.94921629e-03 -3.44166346e-02  2.50841472e-02 -1.27683533e-03
  -8.04307684e-02  5.39233759e-02 -1.32092535e-01  2.57182531e-02
   2.92402506e-02  5.64084575e-02  4.27641254e-03  4.66178358e-03
  -6.25042170e-02 -4.52852659e-02 -1.53311882e-02  7.56191695e-03
   4.42820415e-03 -3.12744118e-02 -3.56664620e-02 -4.96122986e-02
   2.54263207e-02 -6.26228144e-03 -6.20552637e-02 -1.75247975e-02
   4.89320904e-02 -1.07277194e-02 -5.81203820e-03  1.85398590e-02
  -2.77896523e-02 -2.82232203e-02 -5.07328846e-02 -4.14325111e-02
  -6.92423731e-02 -3.66423540e-02 -2.20524035e-02 -3.60358097e-02
  -1.78799983e-02 -5.11294976e-03 -7.12614208e-02  4.64396179e-02
  -9.84689686e-03 -1.32619366e-01 -1.24388300e-02 -9.29534435e-03
  -6.94832355e-02  7.16498047e-02 -1.03895910e-01  6.18639821e-03
  -5.62402643e-02  4.92967404e-02  4.94407937e-02  1.14727743e-01
  -1.21772215e-01  3.52913067e-02 -4.19461206e-02 -4.46021482e-02
  -4.66744415e-02  1.16127692e-02  2.67791729e-02  2.15120856e-02
  -8.04335549e-02 -1.47099853e-01 -4.42273580e-02  2.44635250e-02
  -4.67144605e-03  2.04737801e-02 -1.06467903e-01 -6.19953051e-02]
 [-2.87605524e-02  2.65108310e-02 -1.56630911e-02 -4.01821733e-02
  -2.69467314e-03  3.23645845e-02 -2.53641065e-02  2.27002967e-02
   1.45283602e-02 -2.75335684e-02  6.15922082e-03 -6.93508238e-02
   6.09849440e-03 -2.77453810e-02 -7.80339316e-02  2.16294508e-02
   1.99046489e-02  3.59555632e-02  2.17080992e-02 -7.37612024e-02
   6.45055324e-02 -6.96068257e-02  4.78034932e-03 -5.46118915e-02
  -2.49246284e-02  3.74223404e-02 -7.55467042e-02 -3.60278673e-02
  -3.96893471e-02 -2.49126684e-02 -3.58244628e-02 -3.70232090e-02
  -1.01969475e-02 -4.17973772e-02 -2.96200998e-02 -1.45031773e-02
  -1.93179697e-02  2.01726612e-02  2.02284157e-02 -1.96392596e-01
   2.08975244e-02  1.39577799e-02  2.49985270e-02  1.54606635e-02
  -5.14909513e-02 -1.31788075e-01  1.88043732e-02 -1.81057174e-02
  -9.27565619e-03 -6.73198551e-02 -6.49918094e-02  1.10302111e-02
  -3.82916518e-02 -5.54348230e-02 -1.30969950e-03 -1.82896722e-02
  -8.70520994e-03 -1.51006132e-02 -2.11099107e-02  2.20948718e-02
   2.62663569e-02 -1.63013823e-02 -1.43498629e-02  6.08833916e-02
  -1.37679093e-02 -2.72976998e-02 -8.35039653e-03 -8.49271119e-02
  -1.53655121e-02 -5.39215393e-02 -3.55871879e-02  1.76306423e-02
  -1.33827934e-02 -5.56708910e-02 -7.13018375e-03 -2.10547242e-02
   2.33293278e-03 -4.32038074e-03  1.70008838e-02 -7.89458863e-03
  -6.30236715e-02 -1.19368397e-01  1.97328627e-02 -3.38325575e-02
  -6.48809820e-02  4.32075374e-02 -8.85173157e-02 -5.64196100e-03
  -1.99916158e-02 -6.63734376e-02  9.29011125e-03 -1.75909500e-03
   9.29201916e-02 -3.55954506e-02  4.24524806e-02  2.80244183e-03
   9.09832306e-03 -3.72120249e-03 -5.03211422e-03  1.92207401e-03
   6.53340109e-03  6.34895414e-02 -6.53203297e-03  5.36974519e-02
   1.55681092e-02 -1.72831506e-01  2.48616133e-02 -3.23102102e-02
  -7.31441453e-02 -4.18978147e-02 -4.05597240e-02  1.28958588e-02
   4.45759967e-02 -5.97978309e-02 -4.06937413e-02  4.21063676e-02
   1.95312165e-02 -1.49499653e-02 -3.39622423e-02 -6.17109723e-02
  -1.50383012e-02  1.92625932e-02 -6.48505986e-02 -5.97180501e-02
   6.12468459e-02 -2.36808714e-02  3.95989791e-02  6.50011152e-02]
 [-3.83045450e-02  1.03432015e-01 -2.81897094e-02 -3.23127434e-02
  -1.06672151e-02 -2.67289560e-02 -2.51817182e-02 -9.96246096e-03
   1.85567769e-03 -5.49264997e-02  1.58034526e-02  2.11356822e-02
   5.52589409e-02  2.34195348e-02 -4.04575989e-02 -7.78863430e-02
   3.33609693e-02 -2.03690287e-02 -3.62972096e-02 -5.01168380e-03
   5.37113613e-03  6.28857175e-03 -2.97392141e-02  2.95767989e-02
   7.92484656e-02  4.75580320e-02 -2.13186862e-03 -1.31321698e-03
