dense/kernel:0
(784, 128)
[[ 8.52999091e-03 -4.93207462e-02  1.26419961e-03  5.05642220e-02
   3.30881998e-02  2.09326446e-02  4.48062941e-02 -4.15833406e-02
  -7.82585219e-02  1.67741552e-02 -2.36179233e-02 -3.32485698e-02
   7.05847517e-02  6.57204315e-02  6.04574457e-02  2.13336051e-02
   2.59513780e-02  1.75807178e-02 -4.23898064e-02 -8.03006887e-02
  -3.11792754e-02 -6.59331232e-02 -7.97145963e-02 -7.51806945e-02
  -7.57371932e-02 -3.95882837e-02 -7.54209906e-02  7.98271522e-02
   7.53763989e-02 -5.81472144e-02  8.63174349e-03  7.61624202e-02
   2.16975808e-04  7.30907694e-02 -3.15395296e-02 -6.23481497e-02
   6.64275065e-02  1.15293041e-02  1.93437114e-02  7.76274577e-02
  -2.40945928e-02  1.61920190e-02 -4.75127138e-02  9.42488760e-03
   6.64678589e-02 -1.44830495e-02 -7.94213712e-02  1.52833462e-02
   7.31410012e-02 -1.38346553e-02  4.15661186e-03 -2.43677087e-02
  -6.85828179e-02  1.19696558e-02 -1.82664767e-02 -1.05799437e-02
  -4.86279279e-03  5.45338467e-02 -4.49365638e-02  1.13145262e-02
   1.86437666e-02 -3.97350043e-02  2.63204873e-02 -5.22473305e-02
   7.87362456e-04 -1.26279891e-04 -1.38280541e-03 -4.33396436e-02
  -2.07748264e-02 -7.40121603e-02  4.90999892e-02  2.94910446e-02
  -7.71152005e-02  7.53751621e-02 -5.57227135e-02 -6.80224597e-03
   6.25690445e-02 -3.10395174e-02 -2.49453448e-02  4.59680483e-02
   3.03835645e-02 -7.62325525e-03 -1.05942935e-02 -7.73858652e-02
  -1.27302110e-02 -6.75129816e-02 -3.73666622e-02  1.29249841e-02
   1.70946494e-02  5.91980740e-02 -7.30869994e-02  7.62909651e-03
  -4.09018397e-02 -2.07273662e-03  4.98621687e-02 -4.11916040e-02
   4.69070449e-02  8.10403153e-02  4.41687778e-02 -7.90636539e-02
   3.88415903e-03  4.19072583e-02  7.56495520e-02  3.10080126e-02
  -5.96740283e-02  2.64755264e-02  3.34902406e-02 -7.83844367e-02
   4.77538183e-02 -3.76511291e-02  6.62029460e-02  9.76065546e-03
   7.38615319e-02 -3.34912091e-02 -7.75194690e-02  4.01782990e-02
  -5.97284287e-02  6.57695010e-02  3.08053493e-02 -7.91663378e-02
   3.23241204e-02  4.36446890e-02 -1.58419386e-02  7.43505433e-02
  -5.23269847e-02 -2.99662799e-02  1.23477206e-02 -5.06717600e-02]
 [-8.89231265e-03  1.38863847e-02  1.18975192e-02 -1.74792483e-02
   5.46397045e-02  7.85414353e-02 -7.56779239e-02 -2.85301991e-02
   3.45630497e-02  6.88980296e-02  7.14910105e-02  3.58449146e-02
  -5.03704324e-02  1.83907971e-02 -1.40518248e-02  8.52134079e-03
  -5.99086024e-02 -2.44032145e-02 -7.01174289e-02  3.10664177e-02
   1.18986219e-02  3.06198969e-02 -2.80362032e-02  2.28179172e-02
   5.20925000e-02 -6.00630790e-02  4.66655418e-02 -7.64558613e-02
   2.32346207e-02  2.86880583e-02  3.71055156e-02  3.49845141e-02
  -1.20748132e-02 -4.49184217e-02  3.38572636e-02  6.99071065e-02
   2.04855278e-02 -5.63701764e-02 -2.20448673e-02 -6.24559000e-02
  -6.75532967e-03  6.06055334e-02  7.64292404e-02 -3.05641443e-02
   7.28900358e-02  1.45152211e-04 -8.68624449e-03  1.21446624e-02
  -7.66301006e-02  5.78516796e-02 -2.91208886e-02  5.04273698e-02
  -1.24109760e-02 -3.81909385e-02 -7.23813623e-02 -7.49237090e-02
   7.43845776e-02 -3.77526730e-02 -3.74303237e-02  3.82942036e-02
   3.35719883e-02  4.62490395e-02  7.20964149e-02  2.31072977e-02
  -3.39474566e-02 -3.65761891e-02  1.53805017e-02 -1.82188600e-02
  -2.23964788e-02 -2.36739479e-02 -7.03950301e-02 -3.80304679e-02
   7.39936009e-02  1.00189447e-02 -5.50167263e-02  5.69029525e-02
   8.09716061e-02  2.54979581e-02 -1.95002370e-02  5.07894680e-02
   7.54682347e-02  1.80403516e-02 -3.36981080e-02  1.44550875e-02
  -2.14120038e-02 -6.31720573e-02  4.33705077e-02  1.84518099e-02
  -2.80158594e-02 -5.50228208e-02 -6.17338270e-02 -5.08703440e-02
  -7.70837069e-05  2.22202092e-02 -2.37511843e-02 -4.17666472e-02
  -4.67520431e-02 -8.02934170e-02  2.49254853e-02  4.35151011e-02
   3.89046967e-02 -1.06979162e-03  1.97892860e-02 -6.22385591e-02
  -5.14730625e-02  7.05870762e-02 -4.18650210e-02 -4.80189323e-02
  -5.63109443e-02  1.69980377e-02 -8.39088857e-03 -7.84219876e-02
  -5.87415546e-02 -4.18555662e-02  4.71637771e-02 -4.65952642e-02
   2.47449204e-02 -4.45535481e-02 -7.66955316e-04  4.75279465e-02
   2.81955153e-02  3.12822536e-02 -6.01437762e-02  7.53816441e-02
   2.10856125e-02  2.56015882e-02  7.03899935e-02  1.47567093e-02]
 [-8.14351439e-03  2.37355754e-02  8.70160013e-03 -3.21502127e-02
   1.84961781e-02 -5.67923486e-03 -5.20917699e-02 -3.53759564e-02
  -4.57695611e-02  7.18081370e-02 -7.75801316e-02  4.89502326e-02
   6.07662126e-02  7.67160207e-03  3.62971798e-02  5.66162989e-02
  -5.67261353e-02  2.77459919e-02 -2.22362988e-02  1.89131275e-02
   2.67504975e-02  8.07946846e-02  4.18355316e-03 -2.38594189e-02
  -2.61534639e-02 -2.67968886e-02  3.10162902e-02 -2.05899701e-02
   6.28688112e-02 -3.04465294e-02 -6.69437051e-02 -1.85661390e-02
   5.18170968e-02  6.00150749e-02 -2.45173685e-02  3.81073952e-02
  -2.35705264e-02 -3.68735939e-02 -4.56036367e-02 -4.78531048e-02
   5.20722568e-03  6.06728867e-02 -3.65041159e-02 -3.58056538e-02
  -2.65337527e-04 -1.26884803e-02 -7.15565681e-03  5.70229217e-02
  -5.73309436e-02  5.67427948e-02 -4.48589586e-02  2.94724181e-02
  -6.95165247e-02  5.44560179e-02  5.04165888e-04 -4.72202897e-04
  -3.81570384e-02  3.73578444e-02 -3.21083069e-02  6.13891110e-02
   6.51052669e-02 -5.61586544e-02 -7.18757808e-02  1.48020536e-02
   4.69835624e-02  1.26165599e-02 -7.42937252e-02 -3.97694632e-02
   2.33538970e-02  6.59416541e-02  7.35925809e-02 -3.79868597e-02
   1.94261223e-03  1.72765628e-02 -8.10162053e-02 -5.53834401e-02
   5.78145012e-02  5.66129759e-02  5.50160185e-02  8.48610699e-03
   3.53214145e-03 -5.19875772e-02  4.19721752e-02 -4.39554714e-02
   7.54293129e-02  2.86822766e-02 -6.78936541e-02 -7.87002295e-02
   8.03316310e-02  5.34235165e-02  1.40799806e-02  5.94658181e-02
   7.29676262e-02 -7.07704052e-02  6.81160912e-02 -1.78360268e-02
   4.11185026e-02  8.54338706e-03  1.04715377e-02 -3.30242850e-02
   5.10111079e-02  6.83872476e-02 -4.75859083e-02 -6.87357038e-02
   7.17242137e-02  7.49243051e-03 -7.75746405e-02  5.56700155e-02
  -1.89638510e-02 -5.52980043e-02  1.79151967e-02 -1.41053572e-02
   8.09284076e-02  2.94278562e-03 -2.41464600e-02 -6.83424622e-02
  -1.46914795e-02 -6.59300685e-02 -6.91108853e-02 -4.58385050e-03
   3.68614718e-02  2.46638805e-03  6.01648763e-02 -1.46839768e-02
   5.38192689e-03 -7.18845800e-02 -5.64549565e-02  4.08573598e-02]
 [-7.81192482e-02 -7.89836049e-03 -1.63877234e-02  7.04517141e-02
   5.26561365e-02  5.30742034e-02 -7.65533447e-02 -1.68052763e-02
   6.14493415e-02 -5.29094040e-03 -4.21067104e-02 -2.26415135e-02
   5.94784394e-02  6.68706745e-03 -1.59533024e-02 -6.20316789e-02
  -4.63228673e-02 -7.84519464e-02 -7.17088729e-02 -5.10140657e-02
  -3.13035846e-02 -3.30014080e-02 -9.06701386e-03  2.74774432e-02
   6.52053878e-02  2.51544863e-02 -5.31820431e-02  5.72809204e-02
  -4.01495211e-02 -2.32962705e-02 -4.63874750e-02 -1.26657560e-02
   4.85195443e-02 -5.17152734e-02  6.30422458e-02 -7.07084462e-02
   9.11595672e-03  7.36655816e-02  2.65855566e-02 -4.55757901e-02
   2.41669789e-02  6.70903102e-02 -3.84691581e-02 -1.98743194e-02
  -6.50766268e-02  1.50917843e-02  7.06648305e-02  6.19731918e-02
   3.16609144e-02 -3.96566242e-02  8.38617235e-03 -9.15452093e-03
  -6.03490509e-02  4.21899855e-02  5.22069559e-02  7.18275681e-02
  -6.09632581e-02 -6.73362911e-02  2.95634866e-02  1.74491405e-02
  -1.79642364e-02  5.44745550e-02  4.70261276e-03  4.82291654e-02
   7.02331141e-02 -2.40546204e-02 -6.14857376e-02  2.05478817e-03
   4.09449264e-02  9.94812697e-03  3.19517404e-03  5.37150353e-03
  -3.61289345e-02 -2.77623348e-02  3.63533124e-02  7.43247792e-02
  -3.96070816e-02  7.92638585e-02  1.10753700e-02  1.56009197e-02
  -5.06933220e-02  3.84750143e-02 -6.01394027e-02 -2.06950568e-02
   3.56003419e-02 -5.90335242e-02 -8.09595585e-02  6.74780980e-02
  -2.53358819e-02  9.47528332e-03 -7.56524131e-02  3.13045904e-02
  -1.29102096e-02  7.50995204e-02  6.69623241e-02  7.67726675e-02
   6.89334050e-02  7.55698457e-02 -1.68518424e-02 -5.38840666e-02
   2.82770842e-02  5.88866249e-02 -4.77199443e-02  1.25556067e-02
   2.01035962e-02 -5.13147786e-02  2.98112258e-02  5.58016673e-02
  -1.08352900e-02 -2.10802555e-02 -3.46248373e-02  2.30715424e-03
   4.15223688e-02 -2.05600150e-02 -7.98483640e-02  1.18710697e-02
  -4.52980325e-02 -9.91226733e-03  4.18704525e-02  6.24977425e-02
  -2.76633203e-02  3.51976603e-02  5.44657633e-02 -2.64249742e-02
  -6.83213621e-02  3.11026946e-02 -2.51596496e-02  6.24267235e-02]
 [ 2.14700028e-02  8.73420388e-03  6.30436093e-03 -3.70223038e-02
  -7.06418827e-02 -8.02080333e-02  7.22645447e-02  1.74870417e-02
   4.60173860e-02  2.35240385e-02  3.89668122e-02  2.04881355e-02
   5.56939617e-02  3.55686992e-02 -4.60357517e-02  2.71513611e-02
  -7.91690275e-02 -5.22679240e-02  7.91412368e-02  7.38109425e-02
  -6.93531930e-02  2.69092843e-02 -4.13905382e-02 -2.66530514e-02
  -1.64726749e-02  5.33510372e-02 -1.36661232e-02  2.58479193e-02
   2.40382031e-02  6.47945777e-02  1.36667863e-02  1.87126100e-02
  -3.06815095e-02 -4.89231907e-02  4.33705300e-02 -3.09123881e-02
  -5.18179610e-02 -6.14915416e-02  2.04579085e-02 -2.65168510e-02
   4.82927635e-02  6.73708394e-02 -1.33780986e-02 -3.00145112e-02
   7.40017965e-02  6.01337180e-02 -7.98505098e-02  9.26081836e-03
   5.25384471e-02  4.33104262e-02 -3.09578925e-02 -8.08155090e-02
   2.11244076e-02  6.51186630e-02 -7.88666755e-02 -7.28896111e-02
   3.11497077e-02 -5.74243069e-02  6.84987381e-02  7.41797611e-02
  -2.76564956e-02 -4.02708352e-03  5.61450794e-02  2.24197432e-02
   4.59578633e-03  5.01640961e-02 -1.46071613e-03 -7.04073459e-02
   1.90846026e-02  2.09598765e-02  5.03390208e-02  1.34810805e-03
   3.60321254e-02 -2.42012441e-02 -3.54502574e-02  2.36033052e-02
  -3.72572057e-02  3.18322703e-02  6.11114278e-02  3.01106051e-02
  -6.01128563e-02 -7.04392046e-03 -9.35331732e-03  1.73143297e-03
   3.14241797e-02 -1.98190100e-02  4.77214679e-02  7.35923424e-02
  -7.14545697e-02  4.98605743e-02 -8.31278414e-03 -3.43005173e-02
  -2.50332057e-04 -3.74281779e-02  3.45102996e-02 -6.47419989e-02
  -2.97145545e-02  4.14613336e-02 -6.36556149e-02  6.35605976e-02
  -3.16696763e-02  3.00860405e-02  1.48404017e-02 -3.04180235e-02
  -5.56370839e-02 -7.17853382e-02 -3.42733674e-02  1.61003545e-02
  -1.10651627e-02  5.20695969e-02 -8.07575732e-02  3.55051458e-03
   5.16489148e-04  1.30659416e-02  6.73243329e-02  8.06317404e-02
   1.80795491e-02  3.03885937e-02  5.28630540e-02  3.27997878e-02
  -6.55744895e-02 -5.27763478e-02  1.74076185e-02 -7.85074458e-02
   2.03260630e-02 -3.94279882e-02  4.12750468e-02  1.42614916e-02]
 [ 3.22492868e-02  4.53976467e-02  1.96850002e-02 -1.64358318e-02
  -1.44468546e-02  3.16465124e-02 -9.06214118e-05 -8.69131088e-03
  -1.88152194e-02 -7.45739043e-03  5.75279221e-02 -7.05479756e-02
   5.95481768e-02 -2.07563192e-02 -9.13860649e-03  6.44854382e-02
  -1.69143975e-02  2.07759663e-02  6.37431219e-02 -5.65849468e-02
  -8.28505307e-03  4.05025780e-02 -7.50246346e-02 -3.22053097e-02
   6.08516410e-02  6.70760497e-02 -7.28625357e-02 -7.59732947e-02
  -5.79056367e-02  5.17752245e-02  5.12478501e-03 -6.89874589e-03
  -1.37500316e-02 -1.36352777e-02  1.54435486e-02 -1.51606873e-02
  -2.37467363e-02 -1.66740268e-02 -8.09434727e-02  6.71021566e-02
   4.38739583e-02  2.94964164e-02  3.63527909e-02  2.60499492e-02
   4.68783155e-02  3.47035080e-02  2.95480937e-02  2.20433995e-02
   6.99663982e-02 -8.00899342e-02 -6.70999140e-02 -7.27837309e-02
  -5.56050017e-02  5.31673506e-02 -2.18498223e-02  8.05728659e-02
  -6.75145462e-02 -5.96989542e-02 -5.39059192e-02  3.63667384e-02
   6.68269023e-02 -1.17777810e-02  1.28806233e-02  4.35141549e-02
  -5.77391163e-02  4.32156697e-02 -1.53633505e-02 -5.71009330e-02
  -7.11860508e-03 -2.53577717e-02 -2.75439844e-02 -5.83042800e-02
  -5.79031631e-02 -3.20186466e-03  4.03125063e-02 -7.70655051e-02
  -1.88760944e-02  7.61758611e-02  1.41240358e-02  2.77695879e-02
  -4.32699695e-02  4.42285463e-02 -5.05520366e-02 -7.20259622e-02
  -2.10269019e-02  7.11020008e-02 -1.02046654e-02  2.73822248e-03
  -4.63240668e-02 -1.09944642e-02  3.64077911e-02  7.11680129e-02
   3.48021910e-02 -3.90036702e-02  1.50762722e-02 -1.69591084e-02
  -3.67371999e-02  3.62378880e-02  3.67067009e-02  5.46782538e-02
   7.23741725e-02  2.38540024e-02 -3.15409228e-02 -4.70161438e-02
  -3.07900943e-02  2.35274583e-02 -7.26732910e-02 -3.90314572e-02
   7.72743747e-02  5.30582443e-02  4.43961695e-02  5.48387840e-02
   2.45214701e-02  2.17296556e-02  4.48923185e-02  5.39087728e-02
  -7.83323944e-02  2.74576023e-02  7.78872892e-02  2.26673111e-02
  -2.15736516e-02 -3.61882262e-02  1.71001852e-02 -3.15668359e-02
  -7.15444535e-02  5.26368618e-04 -3.02452743e-02 -7.25561380e-02]
 [-1.44990087e-02  6.93638697e-02 -3.84095386e-02 -1.86907761e-02
   5.88393211e-03  3.77505869e-02 -6.53965175e-02 -5.39158955e-02
   4.81331274e-02  3.11077982e-02  4.31823432e-02 -9.88133252e-03
   7.45523050e-02 -7.25656375e-02 -5.60397804e-02  4.05413657e-03
   3.44824791e-03 -3.61306146e-02  7.71076232e-03 -4.69147749e-02
   2.72614509e-02 -2.40917131e-02  2.13415772e-02  2.57407501e-02
   2.00633481e-02 -6.68199584e-02 -2.55819783e-02  3.30312848e-02
  -1.38852447e-02  7.65098706e-02 -1.23661831e-02  6.41034022e-02
   2.99962163e-02  7.30626509e-02 -2.18497440e-02 -5.37690967e-02
   5.39547950e-03 -4.19063680e-02 -7.45003149e-02  3.32660973e-03
  -1.13064647e-02  3.67824733e-02  1.38538256e-02  2.14750469e-02
  -2.07038149e-02 -7.36050084e-02  4.68412042e-03  7.91276023e-02
  -7.98385367e-02  1.07744485e-02 -2.00027637e-02 -5.02159446e-03
  -4.78863306e-02 -3.01622152e-02 -5.71093261e-02  5.88176325e-02
   4.76343706e-02 -3.73918004e-02 -5.00483327e-02 -4.76320125e-02
   7.17456713e-02  2.93739513e-02 -5.16203046e-03  2.70309597e-02
  -3.04335319e-02 -6.69104382e-02  6.92020282e-02  1.08167231e-02
  -4.26868014e-02  1.22637525e-02 -7.18698055e-02 -6.51154593e-02
  -3.27549800e-02 -6.35502934e-02 -6.01206869e-02  2.69047022e-02
  -1.06145442e-02 -1.78899392e-02 -2.64612548e-02 -7.51284063e-02
  -4.76238690e-02  3.41516286e-02 -5.09239882e-02 -6.67698905e-02
  -5.32279536e-02  3.03514823e-02  1.89425424e-02  3.75700593e-02
   2.05506012e-02  5.48847392e-02  4.20543253e-02 -2.33395696e-02
  -5.24767414e-02  6.03313372e-02  6.02409169e-02  1.53702125e-02
  -7.43053481e-02  1.78728029e-02  6.95210919e-02  5.55805787e-02
   7.22986087e-02  2.85862982e-02 -7.94963837e-02 -1.29291043e-02
   2.67331898e-02  2.11456418e-03 -2.15054862e-02 -7.17613101e-03
   7.68169686e-02  7.60447904e-02 -5.09563237e-02 -5.78000098e-02
   4.02227044e-03 -2.67639570e-02  4.20067310e-02 -2.22035572e-02
  -1.54601038e-02  2.74857134e-03 -2.34328955e-02 -7.81065449e-02
   2.62317881e-02  6.98996708e-02  2.23665833e-02 -5.48123047e-02
   7.28457943e-02  4.63525876e-02 -2.90181227e-02 -7.98935741e-02]
 [-5.36770299e-02  4.01878282e-02 -5.33938408e-02 -7.18329847e-02
   1.62273124e-02 -3.70605960e-02 -6.29311055e-03 -2.05027945e-02
  -4.16115150e-02 -1.44030079e-02 -5.77626526e-02 -3.55761088e-02
  -7.39625022e-02  1.63849965e-02 -1.96667425e-02 -2.20630094e-02
   7.83715770e-02  1.63627714e-02 -1.46177262e-02  4.51987460e-02
   8.23668391e-03  9.40599293e-03  5.95588982e-03  4.45330814e-02
   5.13309613e-02  7.96918198e-02 -2.35805660e-03 -2.62851976e-02
   5.90820387e-02 -5.22890985e-02  9.05989856e-03 -7.76739866e-02
  -6.58380762e-02  6.40555844e-02  6.49906322e-02 -5.82564734e-02
  -4.20006588e-02  4.19556573e-02  5.80747649e-02  9.01859254e-03
   3.48950699e-02  7.71118701e-03  6.24281168e-03 -6.30833134e-02
  -3.73568200e-02  4.39263508e-02  6.37975410e-02  5.62989786e-02
   5.27354702e-02  3.51218358e-02  1.92553177e-02  1.83748454e-03
   6.71093389e-02  3.78303155e-02 -1.96540356e-02  6.95863739e-02
   2.10753605e-02  4.30053845e-02  6.41869530e-02 -4.00997065e-02
  -3.26406322e-02 -2.84132436e-02  4.27631885e-02  3.13747078e-02
   4.01209593e-02  6.44456595e-03  7.15752766e-02  5.02742603e-02
  -3.87349054e-02  2.76920199e-02 -6.10834211e-02 -4.12319638e-02
  -1.09494254e-02  1.25932172e-02  2.48477608e-03  3.77314016e-02
  -6.00902066e-02 -5.14820367e-02 -2.22027674e-02  5.99145219e-02
  -6.24059886e-02 -7.10097328e-02 -4.30120341e-02 -7.21735507e-02
   6.87774494e-02  1.06501654e-02 -1.00516006e-02 -4.22448665e-03
   2.72631645e-03  7.96843544e-02 -1.66496560e-02 -5.47094233e-02
  -4.24402207e-02  9.03274864e-03  4.83948663e-02 -6.03350103e-02
  -6.47367015e-02 -7.35766441e-03 -3.78934182e-02 -1.12923309e-02
  -3.62919942e-02  6.66919574e-02 -2.70180032e-02 -3.92677151e-02
   5.26957214e-03  5.76835200e-02 -6.47886842e-03 -5.10135666e-02
  -7.64465034e-02 -6.45496026e-02 -3.49986665e-02 -5.65484166e-02
   1.12798363e-02 -3.21749263e-02 -2.46411897e-02  5.85363582e-02
   5.38155809e-02  1.03899688e-02  5.34744635e-02  3.50978225e-03
   3.55811790e-02  7.49294683e-02  5.57891652e-02  1.68436617e-02
   5.09496778e-03 -5.68579473e-02 -5.27740270e-02 -4.22696956e-02]
 [-5.23373857e-02  1.51866153e-02  6.71881363e-02 -6.24810420e-02
  -5.76787032e-02  4.17394415e-02 -4.71694022e-03 -2.86001265e-02
   1.69837847e-02  6.93563297e-02 -6.66086674e-02  2.19694301e-02
  -7.61131495e-02  5.88676259e-02 -6.80976361e-02 -6.22573942e-02
  -4.83372025e-02 -2.98503861e-02  2.98664793e-02  5.66801652e-02
   6.63840100e-02 -6.17126748e-02 -4.46265489e-02  1.70480087e-02
   1.88508183e-02  1.43957809e-02  1.00958124e-02  1.15398392e-02
  -5.24395928e-02 -7.45671913e-02  1.42124891e-02  1.99118182e-02
  -6.24240711e-02 -3.69262323e-02 -9.90691781e-03 -9.02458280e-03
   4.00579572e-02  6.75320104e-02  6.52243868e-02  5.91293722e-03
  -4.30020355e-02  3.33748907e-02  3.53627652e-03 -4.19847071e-02
  -3.13299224e-02  5.98386303e-02 -6.87708631e-02  1.27059966e-02
  -7.53956959e-02  2.71458700e-02 -1.97211020e-02 -7.61057213e-02
   6.14990070e-02  4.47241738e-02 -2.38908269e-02  4.77460772e-03
  -3.97695601e-02  2.05115899e-02 -5.99940978e-02 -2.48897634e-02
   3.32361013e-02  5.61967492e-04  5.26022241e-02 -6.99255317e-02
   6.23244047e-03  6.66318014e-02  5.72668761e-03  4.08477709e-02
  -4.71336618e-02 -2.12566406e-02  7.56953880e-02  5.35131767e-02
   1.28197297e-02  4.78378460e-02  8.93148780e-03  4.33521941e-02
   7.19393715e-02 -3.46403085e-02  1.92783698e-02  1.82709992e-02
   2.21417323e-02 -5.40513620e-02 -5.08231595e-02  5.34831211e-02
   1.18127987e-02  5.38802519e-02  5.55707440e-02 -9.07764584e-03
   4.70305234e-03  2.61012316e-02 -8.60053301e-03  2.32977420e-02
  -4.74087894e-03  6.31396100e-02  7.72814229e-02  3.25262547e-03
   6.73921332e-02 -5.10096774e-02  3.18857804e-02  7.86896870e-02
  -4.93900478e-03  1.74793899e-02  6.50048032e-02  4.36846018e-02
   1.89045444e-02  9.52502340e-03 -6.63995817e-02 -4.84232754e-02
   2.77057290e-04 -5.37863486e-02  4.68411967e-02 -2.31241770e-02
   3.68684083e-02  6.51394799e-02 -5.41221350e-03  3.00954804e-02
  -5.69791012e-02 -6.42883629e-02 -3.72439623e-02 -4.35815863e-02
  -6.98464811e-02 -2.37525553e-02  2.47680917e-02 -5.22851571e-02
   5.48151806e-02 -1.70920044e-02 -6.89956918e-02 -4.67999801e-02]
 [ 6.56915084e-02  4.45325002e-02  2.83766314e-02  7.78815374e-02
   1.45212039e-02 -1.55072659e-02 -5.66053689e-02 -7.45798200e-02
  -6.44190311e-02 -7.24368021e-02 -7.21295550e-02 -6.33480549e-02
  -3.07188518e-02 -1.12773478e-03 -3.64772230e-03  1.05102658e-02
  -3.78976725e-02  4.16594520e-02 -3.72404009e-02  2.57458165e-02
   3.75547633e-02 -3.33185568e-02  8.06669965e-02  5.18958941e-02
   1.39524639e-02 -8.00131410e-02 -1.33979768e-02  4.15891036e-02
   1.78001076e-03 -2.31233463e-02 -7.09838569e-02  2.19469592e-02
   3.62293944e-02 -9.79632139e-03  6.74570724e-02  2.38747373e-02
   3.60523760e-02  4.20030355e-02  1.04069635e-02 -4.71262187e-02
  -5.07002063e-02 -3.94880921e-02  9.78651643e-03  1.88142508e-02
  -6.83020651e-02  5.20339683e-02 -3.92403305e-02 -6.93370253e-02
  -5.37405536e-02  5.18303365e-03  7.73222744e-03  1.46903992e-02
   6.17995858e-03 -2.27869563e-02 -6.20951653e-02  7.80477747e-02
  -4.84367348e-02 -5.03241569e-02  3.28691900e-02 -6.67881817e-02
  -2.32007951e-02 -8.65369290e-03 -6.97212815e-02 -3.53708714e-02
   6.54512420e-02  2.26605833e-02  5.04477099e-02  3.62967476e-02
   7.70852044e-02  2.31287628e-03 -4.85797226e-03  3.16474363e-02
  -3.71631272e-02  1.20935738e-02 -6.89827502e-02 -1.46389157e-02
  -5.17361797e-02  1.07273012e-02  2.53855810e-02  7.84520730e-02
  -2.14659981e-02 -5.42997047e-02 -5.37191853e-02 -4.70447838e-02
  -3.00489701e-02 -7.03566000e-02 -3.99794020e-02 -1.33798048e-02
   2.51851380e-02 -6.56988770e-02 -6.32271171e-03 -3.61534916e-02
  -2.84694768e-02 -3.27365138e-02  7.27141872e-02  4.14707884e-02
  -5.85252382e-02  1.60521045e-02 -4.71091829e-02 -6.82147518e-02
   5.77780381e-02 -7.54203200e-02  3.32662463e-02  6.92787021e-03
  -3.81409079e-02  7.91426674e-02 -1.61523148e-02 -1.22584701e-02
   4.36224863e-02  5.98070696e-02 -1.22759342e-02  6.98590279e-03
   3.89535427e-02  4.59084138e-02  6.04257807e-02 -5.39872535e-02
  -3.71100418e-02  3.79639044e-02  5.95468655e-02 -1.55737251e-03
   7.81699792e-02 -8.01266953e-02  1.05010718e-03  4.79079559e-02
  -4.98337746e-02 -2.85714306e-02 -7.41587281e-02  7.14915320e-02]
 [ 2.04837471e-02  6.34808466e-02  7.40680099e-03  2.55110636e-02
   7.11463019e-02  5.37338033e-02 -2.86547095e-03 -7.81725347e-03
   7.85462558e-04 -7.21383169e-02 -5.93832396e-02  5.98220453e-02
   7.70025626e-02  7.70295933e-02  4.15406600e-02 -5.66125438e-02
   3.02068144e-02 -7.53448233e-02  6.86356798e-02 -2.94916220e-02
   2.76508853e-02  4.43907604e-02 -5.16360477e-02  5.65891787e-02
   5.58413491e-02  5.37907705e-02  2.97466591e-02 -1.13430321e-02
   3.05581912e-02  7.29330704e-02  1.98844746e-02  6.00177795e-03
   5.29706851e-02  7.50522837e-02 -2.15818696e-02  4.64630947e-02
   2.49351934e-02  3.63790765e-02  7.56208375e-02  1.52654201e-02
  -3.51421535e-03 -6.73333481e-02  4.39574495e-02 -7.90584534e-02
   2.40365416e-02 -1.85051262e-02  2.42735893e-02 -3.21516432e-02
  -1.87099613e-02  3.32201794e-02 -2.21934840e-02 -6.74595684e-02
  -2.67992690e-02  6.38324767e-03 -3.46013047e-02  3.88922617e-02
   1.25287995e-02  1.36215538e-02  2.16138363e-02  1.01831257e-02
  -3.04447897e-02 -5.12818620e-02 -3.83003354e-02 -6.03323244e-02
   5.66210672e-02  4.01770771e-02  4.93630096e-02 -7.09294379e-02
  -7.43382648e-02 -1.77532360e-02  2.49799415e-02  5.73834106e-02
   4.08933908e-02  7.03596398e-02 -4.78015505e-02 -1.69641972e-02
   6.95089325e-02 -7.30942115e-02 -7.48525411e-02  1.29679367e-02
  -5.82172349e-02  7.26934299e-02  4.51497212e-02 -3.88478227e-02
   8.08430240e-02  2.53573656e-02  7.79080316e-02 -4.60482612e-02
   8.04086551e-02 -7.26558268e-02 -7.93635324e-02 -3.10501456e-03
   1.98227465e-02  5.89085296e-02 -1.78252161e-02  7.04170093e-02
  -1.91261992e-02  7.46671930e-02  1.31203979e-02 -3.61414850e-02
  -5.96074015e-03  1.25237331e-02 -4.03043255e-02  2.51618922e-02
  -2.55477317e-02 -1.81228518e-02 -3.88077907e-02  5.30687049e-02
   7.59519711e-02  2.16875002e-02  4.73477170e-02 -5.75211644e-03
  -3.40914503e-02 -8.27860832e-03  5.96270785e-02  6.18222430e-02
  -7.89241642e-02 -4.45895568e-02  4.83508334e-02  5.86871132e-02
  -5.89742512e-03  6.46623895e-02  5.68332300e-02  3.74824777e-02
  -8.06018785e-02 -1.48686767e-02 -1.07495263e-02  1.66962445e-02]
 [-1.66693255e-02 -4.18034680e-02 -6.82312995e-03  2.72545516e-02
  -5.04256636e-02 -1.01032332e-02  3.09083834e-02 -2.68291682e-03
  -1.08855888e-02 -6.82022572e-02  6.99676573e-04  9.32311267e-03
   7.32855573e-02 -5.30611612e-02  5.85631281e-03  2.81027481e-02
   8.09214637e-02 -6.54092655e-02 -7.96125159e-02  3.70405391e-02
   2.46433541e-02 -5.46224415e-02 -2.34719962e-02  3.93849239e-02
  -6.54508621e-02 -1.02470368e-02  7.84030557e-03 -7.60883093e-04
   1.36189237e-02  4.21321020e-02 -4.39250320e-02 -6.34007156e-02
   3.58429551e-02  3.44105065e-04 -6.93749636e-03 -2.80498937e-02
   4.12649736e-02 -2.08127871e-02 -1.26257017e-02 -3.09027582e-02
  -7.27688521e-03 -4.09891903e-02 -1.28653646e-02 -6.30170628e-02
  -2.41210274e-02  6.41861781e-02  8.47400725e-03  6.87014312e-03
   4.45264205e-02  3.91020253e-02 -5.91369271e-02  1.88483223e-02
   6.63191751e-02 -1.71538442e-02  6.97189942e-02  3.65406275e-02
   7.80835226e-02  6.51051104e-03 -1.64337084e-02 -5.40375710e-02
  -2.54011080e-02 -4.32753265e-02 -4.53534201e-02 -5.43996990e-02
  -4.61298302e-02 -1.89360455e-02 -6.09208867e-02 -7.09454566e-02
   6.58143833e-02 -2.93005221e-02  3.17090526e-02  8.01452622e-02
  -5.08677922e-02  2.52752900e-02  3.20435837e-02  4.11064774e-02
  -2.62389220e-02 -4.13091220e-02  2.57685184e-02 -7.00524300e-02
  -4.99243550e-02  3.95366102e-02 -6.59465417e-02 -7.10410401e-02
  -2.95524597e-02 -7.72317573e-02 -7.07575977e-02  3.85644361e-02
  -3.26167792e-03 -1.35073364e-02  2.79048160e-02  5.55455908e-02
   2.68842578e-02  2.78202146e-02 -7.70085156e-02 -4.98945154e-02
   1.13405287e-03  6.98970035e-02  7.66245350e-02  3.82186845e-02
   2.45349482e-02  9.08273458e-03 -2.32452154e-02  6.67600334e-03
  -3.37516554e-02  1.17207915e-02 -5.95689453e-02  8.27802718e-03
   3.38668153e-02 -7.39219636e-02  3.89283821e-02  5.47395274e-02
   6.16277978e-02 -6.45887405e-02 -2.26517431e-02  2.34181583e-02
   1.38666257e-02  7.24591389e-02  2.31970251e-02 -7.76717365e-02
  -4.05181944e-03  8.28443468e-03  6.97299466e-02 -6.67566210e-02
  -3.98683809e-02  8.58415663e-03 -3.48929465e-02 -6.78160116e-02]
 [ 1.10946536e-01  7.63265491e-02 -2.25037355e-02  7.08550736e-02
  -6.69828057e-02  1.05379619e-01  8.03953409e-02 -4.92451340e-02
   8.81107673e-02  2.11018454e-02 -9.86031722e-03 -2.29457896e-02
  -1.17923990e-01 -3.18734050e-02 -9.78980213e-03 -8.48696381e-02
   4.50663120e-02 -6.74535781e-02  1.68446940e-03  8.06564912e-02
  -4.97524664e-02  1.82611179e-02  9.54506248e-02  2.63780802e-02
   1.20717086e-01  2.04278249e-02  4.65498120e-02 -3.07438690e-02
  -4.37667742e-02  7.64044374e-02  6.50968179e-02 -5.79948463e-02
   2.66361516e-02 -1.01371780e-02  4.37871665e-02 -3.64155062e-02
   5.29929511e-02  9.89845395e-03  2.74881944e-02  5.29469624e-02
   5.35885543e-02  1.84338316e-02 -3.56632657e-02 -4.16400768e-02
  -6.79856166e-03  1.17871212e-02  2.45063975e-02 -5.99890947e-02
   7.61744902e-02  8.90275612e-02  5.06800301e-02  4.94600609e-02
   5.90690896e-02  6.20154850e-02 -7.23884404e-02  6.90074787e-02
  -1.02441097e-02 -2.25751828e-02  5.95573820e-02 -4.64377180e-02
  -6.77773878e-02 -7.45075569e-02  3.41901742e-02 -1.31708413e-01
   6.07469119e-02 -8.11866447e-02  4.30894233e-02  2.63130311e-02
  -2.40922766e-03  8.31136201e-03 -8.39710981e-02 -4.07882296e-02
  -4.61726524e-02 -1.89771671e-02  3.64785679e-02  1.08137496e-01
   1.84972142e-03  4.79657017e-02  6.03957213e-02 -6.92652464e-02
  -7.52700716e-02  1.26025006e-02 -1.43322535e-02 -1.49843842e-02
  -5.77125847e-02 -8.07057247e-02  4.81808186e-03 -5.97597137e-02
   1.99975986e-02  6.22533746e-02 -6.30434602e-02  9.07493383e-02
   7.83027783e-02  2.32476909e-02  1.93152018e-02 -9.72195566e-02
   3.78978290e-02 -1.11273294e-02 -2.90174354e-02  2.16406938e-02
   4.93652411e-02  1.24483436e-01  4.91759256e-02 -1.76821873e-02
  -1.21175069e-02  6.31008223e-02  7.52135143e-02  9.81230848e-03
   4.60286140e-02  6.43875590e-03 -1.11586794e-01 -7.06148669e-02
  -1.51562542e-02  6.12716340e-02  7.03302473e-02  1.11135699e-01
  -7.76022598e-02 -1.49982488e-02 -3.76292644e-03  7.59987533e-02
   5.29818013e-02  4.94612940e-02 -9.08932462e-02  1.41450539e-02
   2.73531564e-02  4.13914137e-02 -1.75685976e-02 -7.67084723e-03]
 [ 4.79701050e-02  2.12758984e-02 -9.81260929e-03  7.90171418e-03
  -7.95654655e-02  3.04682832e-02 -4.70310496e-03  7.12507889e-02
   5.46337515e-02 -8.11154842e-02  2.04930454e-02 -3.13997567e-02
  -1.11768236e-02 -4.19686362e-02 -9.08662975e-02 -8.70487988e-02
   2.57822201e-02  2.26999894e-02  6.63767681e-02  1.24540767e-02
  -1.93562862e-02 -6.06196560e-03  9.24093947e-02 -6.92839250e-02
   4.75411415e-02  6.08120337e-02  9.33172181e-03  1.18912660e-01
  -6.26736656e-02  9.47921500e-02  1.32079199e-02 -1.03658342e-04
   1.46299659e-04 -1.95657760e-02  6.36258125e-02 -3.70585658e-02
   8.61086175e-02 -4.14292067e-02  4.08706293e-02  4.80523258e-02
   1.45799899e-02  6.43062517e-02 -3.72959040e-02 -1.88339520e-02
  -1.07085228e-03  8.28733481e-03 -8.55413824e-02  4.20582779e-02
  -3.47216278e-02  1.02112584e-01 -3.97635624e-02  3.88742536e-02
   1.90019254e-02 -4.44701687e-02 -1.20761395e-01  4.40162309e-02
   9.95405614e-02 -1.11279811e-03  5.88758923e-02 -2.68006008e-02
  -7.66217783e-02 -1.33305881e-02 -2.63728630e-02 -7.02655409e-03
  -2.40205470e-02  2.39340141e-02  8.32164288e-02 -6.39448464e-02
  -6.55088872e-02 -5.24939410e-02 -8.60728770e-02  1.19399555e-01
  -7.60280639e-02 -8.07644520e-03  3.09439953e-02  1.00152552e-01
   5.16212583e-02  7.36416578e-02 -3.73307988e-02 -1.57818440e-02
   2.14929730e-02  5.75499162e-02  1.01400651e-01 -9.84140262e-02
  -1.56664625e-02 -5.19286171e-02 -3.84112000e-02  4.03319970e-02
   2.86928620e-02  7.69100487e-02  2.37549469e-02 -1.05103515e-02
   1.82799902e-02  9.38576739e-03  1.20251834e-01  4.62210999e-04
  -9.95572805e-02  2.33155843e-02 -6.75782040e-02 -6.35173246e-02
   7.20545352e-02  1.02876559e-01  4.29180861e-02  7.82877952e-03
   4.30484563e-02  1.00124493e-01 -9.53983236e-03  3.60069536e-02
   9.22110491e-03 -3.44025791e-02 -8.87045357e-03 -8.92238170e-02
   6.05181567e-02  1.14633597e-01  1.03731956e-02  8.55186805e-02
   3.77122774e-06  6.11290373e-02 -7.30317971e-03  2.65987520e-03
   6.89807758e-02 -7.13398028e-03 -1.62613988e-02  3.64720821e-04
   8.09586048e-02 -3.82569097e-02  8.69212225e-02  2.88326759e-02]
 [ 3.89759168e-02 -8.49467814e-02  8.05635676e-02 -2.36821156e-02
  -4.66794632e-02 -4.83032409e-03 -6.42927811e-02  7.87620768e-02
  -4.76661623e-02 -7.43924826e-02  7.93804228e-02  2.82733049e-02
  -3.62943672e-02 -2.77098268e-03 -1.05468363e-01  4.92070541e-02
   4.33202786e-03 -6.98001236e-02  1.06973290e-01 -2.07487885e-02
  -1.55182034e-02  2.12063435e-02  8.07818547e-02  1.56437755e-02
  -1.03624482e-02  1.90011635e-02 -3.03247813e-02  8.07008520e-02
   6.44072145e-02  9.50781330e-02 -7.82795250e-03  2.14828216e-02
  -7.64808729e-02 -1.11327469e-02 -1.02182031e-02 -5.31213209e-02
  -8.67072716e-02  6.07277043e-02 -3.82830948e-03  7.82260224e-02
  -6.17917441e-02 -4.62786593e-02 -2.97823548e-03 -1.20324939e-02
  -1.77548118e-02  2.23069340e-02 -4.30492014e-02  4.00762111e-02
  -2.65659317e-02  5.25751375e-02 -5.73727861e-02  4.60996889e-02
   1.04814336e-01  4.09089848e-02  1.02019161e-01 -2.26951577e-02
   3.66205908e-02  1.03451796e-01 -3.25218253e-02  7.49517679e-02
   3.81594039e-02  2.33965721e-02  5.38177863e-02  5.64240403e-02
   4.69628274e-02  3.54779251e-02 -7.33242407e-02 -2.54500993e-02
  -3.56989354e-02  5.07867858e-02 -3.65261398e-02  5.88774867e-02
  -9.08686817e-02 -3.63858677e-02  3.65983583e-02 -1.08411767e-01
   7.67411366e-02 -4.79157502e-03 -1.02211431e-01  7.24721178e-02
  -5.04556298e-02  3.65242884e-02 -4.65576947e-02  9.63208079e-02
  -5.14395088e-02 -5.98889589e-03  3.15454081e-02  8.88022706e-02
   6.53555319e-02  3.60970944e-02  4.11078483e-02 -2.83099078e-02
   3.95536125e-02 -1.80747770e-02  3.76583040e-02 -4.16641347e-02
  -2.75937151e-02  1.28769845e-01  1.73842628e-02 -4.50698212e-02
  -2.50963550e-02  1.56196849e-02 -4.80423905e-02 -3.48565690e-02
   5.34597114e-02 -2.22497042e-02 -5.89962602e-02 -6.35006130e-02
   3.61407660e-02  2.27504130e-02 -1.71356127e-02 -3.98284458e-02
   2.94822324e-02 -5.48450742e-03  8.77997130e-02 -3.05675752e-02
  -1.90183911e-02 -4.73561138e-02 -9.40884929e-03  6.44433200e-02
  -1.48069113e-02 -3.54282930e-02  2.20441148e-02 -2.32611708e-02
  -8.39608312e-02  6.17200732e-02  1.87768776e-03  7.92873949e-02]
 [-5.09221666e-03 -1.54425921e-02 -2.82888003e-02  2.75728703e-02
   5.20664230e-02 -5.25592603e-02  4.97101508e-02  1.60215497e-02
  -7.19009787e-02 -7.83634633e-02  3.61382589e-02  2.25584414e-02
  -6.09992966e-02 -5.57037964e-02 -8.27150233e-03 -2.27263570e-03
  -2.94453539e-02 -3.67197171e-02 -2.08138581e-02  6.69685602e-02
  -3.55870440e-03  2.90460046e-02 -6.15442917e-02  7.35362396e-02
  -4.70447540e-02  3.93608473e-02 -4.72863354e-02  2.84511037e-02
  -1.23792319e-02 -4.84800637e-02  7.63904974e-02 -1.87799875e-02
  -1.31019894e-02  8.15103203e-03 -6.82790950e-02 -4.52842638e-02
   7.68740848e-02  7.70528568e-04  8.05552676e-02  9.54582635e-03
  -6.76257983e-02 -1.13830045e-02  4.75501195e-02  3.58499028e-02
  -1.10412175e-02 -2.95696557e-02  6.41293749e-02 -4.54904474e-02
  -2.22719796e-02  1.78452916e-02 -7.40938485e-02 -3.31829153e-02
  -4.83094305e-02 -7.41440430e-02 -4.79847901e-02 -6.98143542e-02
   3.54167670e-02 -6.38501272e-02 -4.81192619e-02  6.86222166e-02
  -3.48868966e-02 -3.13001201e-02 -2.74610631e-02  3.90821695e-03
  -3.82614881e-02 -5.82413934e-03  5.95881417e-02 -2.88058370e-02
  -5.56737371e-02  9.25995409e-04  7.55928224e-03  8.85730758e-02
  -2.04502549e-02  1.01451948e-03 -3.55303995e-02  4.47279308e-03
   5.99099174e-02  1.09674241e-02  4.60117310e-02  5.35173938e-02
  -5.87387150e-03 -6.69252547e-03  4.92032580e-02  8.37043300e-02
   6.87161759e-02 -8.91786069e-03 -2.26353072e-02 -1.90486154e-03
   7.35023543e-02  4.78309803e-02 -3.59594077e-03  7.36793503e-02
   1.54673308e-03 -3.82541418e-02  4.75331442e-03 -2.11597532e-02
  -2.51551960e-02  7.56226704e-02  4.10550870e-02  5.81419393e-02
  -7.33688399e-02  3.39115039e-02 -5.43769374e-02  1.83792934e-02
  -1.94773600e-02 -2.21100654e-02  1.96752828e-02  4.86563072e-02
  -3.19209024e-02  8.91208556e-03 -2.24637762e-02 -4.53484803e-03
   7.35108107e-02  8.09787884e-02 -5.48433587e-02 -4.13075350e-02
  -4.81545292e-02 -6.17555082e-02 -7.78317750e-02 -5.38279265e-02
  -7.69217610e-02  2.29029432e-02  7.47697726e-02  3.24683860e-02
   6.39107972e-02  4.12661284e-02 -7.33098760e-02  3.52235697e-02]
 [ 7.82767683e-03  3.36030126e-03  3.65990251e-02  7.28663132e-02
   5.65147474e-02  5.78215793e-02 -7.93154761e-02 -3.31477039e-02
  -4.17777151e-03 -4.65171598e-02  6.46518990e-02  4.13001329e-02
   2.19141245e-02  5.34276739e-02  7.04711750e-02 -7.49338642e-02
  -2.54327841e-02  2.07482353e-02  4.71886471e-02 -2.26840004e-02
   7.56659284e-02  1.79879069e-02 -3.19528840e-02  7.44311512e-03
  -6.19386993e-02  2.21253932e-02 -2.34987587e-03 -2.74872258e-02
  -2.20948383e-02 -6.07470348e-02 -6.47215396e-02  6.93769678e-02
   3.94073352e-02 -1.66373774e-02 -8.80600512e-03 -6.12509325e-02
   6.97653219e-02  1.13443881e-02 -9.29705799e-03 -1.21612027e-02
   3.91193703e-02 -4.02748138e-02 -7.11457431e-02 -3.20843086e-02
  -7.04085082e-02  2.69631371e-02 -5.37604094e-04  7.35621154e-03
  -7.55538642e-02 -7.82234818e-02  3.83446217e-02 -2.60956436e-02
   7.78356940e-03  6.54261634e-02 -3.68746780e-02  2.67501175e-03
   1.22369826e-02 -9.13597643e-04  6.23413101e-02  7.54169300e-02
  -6.96833432e-02  6.09486178e-02  5.50422296e-02  1.63690746e-02
   6.45715818e-02 -7.46171176e-02 -5.34102321e-03  7.17726722e-02
   7.98253939e-02 -7.25470483e-02  1.59945562e-02 -4.25779074e-03
  -5.59871048e-02 -1.95340030e-02  7.57910684e-02  6.70368746e-02
  -9.19975340e-03  1.34748966e-03  2.86385342e-02  3.82544622e-02
  -5.84092066e-02 -5.98233938e-03  4.37505245e-02 -1.06465667e-02
  -2.17731483e-02 -3.63397598e-02 -4.88887727e-03  1.79133192e-02
   1.37139857e-02 -7.36325085e-02 -4.35425043e-02 -6.34090304e-02
   1.41534880e-02 -3.70978415e-02 -5.48641384e-03  7.59296492e-02
   7.55727217e-02  4.20415998e-02  3.51760760e-02 -6.60853833e-03
  -9.60938632e-04  2.16965452e-02 -5.19606471e-03  7.27169737e-02
  -5.95662370e-02  7.37188533e-02 -4.73472737e-02 -4.37754504e-02
   6.03913292e-02 -3.84439602e-02 -4.49486077e-03  1.98895186e-02
  -7.54250139e-02  4.93606180e-03  2.11422518e-02 -2.03009024e-02
  -3.68254222e-02 -2.66782865e-02  3.50547656e-02 -4.49431166e-02
  -7.89284185e-02 -6.61940128e-03  4.65235114e-03  1.29684806e-04
   6.74796104e-03  7.97450319e-02 -7.45244920e-02 -3.53939086e-03]
 [ 6.57148287e-02 -4.98693585e-02 -3.67628820e-02 -3.59130800e-02
  -6.52319491e-02  3.89048308e-02  2.78902799e-02 -8.79993290e-03
   2.57312879e-02  4.60774377e-02  3.35509256e-02 -2.71427557e-02
  -4.43330929e-02 -1.94258653e-02  5.26080802e-02 -4.80188727e-02
   4.22429666e-02  7.95049891e-02  3.60176042e-02  3.08611393e-02
  -2.64320336e-02  3.87642384e-02  7.36004338e-02 -2.24849880e-02
  -4.23883647e-03 -3.66946757e-02  3.84526849e-02  7.83185884e-02
   6.54467568e-02  5.50887659e-02 -8.09401646e-02 -5.07213250e-02
  -6.72027618e-02 -5.75030930e-02 -4.73033972e-02  1.93523169e-02
   3.26003134e-03 -2.33059973e-02 -5.97326830e-02  2.24874616e-02
   6.60834387e-02  7.00857863e-02 -2.54096761e-02  5.79973981e-02
  -2.23499686e-02 -4.57811058e-02 -3.11049595e-02 -2.71501802e-02
   7.88253471e-02  5.73190674e-02 -1.24562085e-02  1.18471459e-02
   1.58997774e-02  6.05181232e-02  6.90587386e-02  5.22889942e-03
   7.01252148e-02 -1.17309764e-02  6.98137358e-02  5.46108708e-02
   3.16425040e-02 -5.78875765e-02 -4.94077913e-02 -2.09973343e-02
   8.30877572e-03 -7.33919591e-02 -3.67798209e-02  1.53306499e-02
  -4.36625741e-02 -7.07570240e-02  3.11866403e-04  7.51304999e-02
  -2.21787393e-03  4.41346318e-03 -6.03123009e-03 -7.86567554e-02
   6.40657768e-02  3.98837924e-02 -6.90159202e-02 -3.27589251e-02
   2.66852081e-02  7.35694915e-03 -7.49626756e-02  2.93365717e-02
   6.25504777e-02 -7.99707770e-02  3.04779932e-02  3.68291736e-02
  -1.95340626e-02 -1.18321180e-03 -4.51759994e-03  1.53852776e-02
  -7.99105316e-02 -6.11011013e-02 -1.08772293e-02  2.73173228e-02
   4.80568409e-03  7.78689459e-02  5.54512814e-02 -5.42978048e-02
   4.14834768e-02  2.13398039e-03 -2.37533115e-02  2.86517814e-02
  -4.71402183e-02 -6.52518496e-02  4.65982482e-02  1.37493014e-03
  -1.80648938e-02  4.15284559e-02  3.25662419e-02 -7.17098936e-02
  -3.70649472e-02  6.62847683e-02 -6.18726015e-02  2.32264996e-02
  -2.90422589e-02 -2.34399326e-02 -6.93063214e-02 -6.30760789e-02
  -5.54752015e-02  5.22579774e-02  4.98144552e-02  6.84283748e-02
   1.02474242e-02  2.87430733e-03 -5.67262731e-02  3.08017507e-02]
 [ 5.95294759e-02  4.25400436e-02  7.88128898e-02 -4.49393280e-02
  -2.63731293e-02  7.97897577e-04 -7.27701932e-03  7.81980827e-02
  -2.79088393e-02  4.97968420e-02 -3.70315872e-02 -3.24438065e-02
  -2.74429247e-02 -6.44513071e-02  6.32524267e-02 -2.44550966e-02
  -3.30719352e-02  6.65905401e-02 -3.48889828e-02  5.19158170e-02
   7.77626112e-02 -5.48601449e-02  5.25128022e-02 -2.18064263e-02
   3.28432024e-02  2.82397419e-02  7.48624578e-02  6.47950098e-02
  -3.48694287e-02  7.09871873e-02 -1.86920539e-02  4.13474441e-03
  -5.23984954e-02 -6.05415851e-02 -7.54873455e-02 -4.90422174e-02
   6.00649789e-02  6.57791868e-02  4.55372557e-02 -4.91760187e-02
  -6.54926300e-02  8.13865662e-03 -4.65131551e-02  3.79759371e-02
   2.83147693e-02  7.29303136e-02  6.63649961e-02  1.98686495e-02
   7.35899433e-02 -3.19340676e-02 -6.29420429e-02 -6.04069307e-02
  -5.31122908e-02  1.25106052e-02 -2.67601646e-02 -4.25738469e-02
  -6.70069382e-02  3.25574428e-02  6.34920523e-02 -7.65121207e-02
   5.15666530e-02  2.87735909e-02  5.12492582e-02 -1.26721933e-02
  -7.95931965e-02 -4.39691432e-02 -3.64855118e-02  7.01930448e-02
   2.37137452e-02  4.12697122e-02  6.09008744e-02 -4.37867455e-02
   6.48321956e-03  3.90604436e-02  2.25834623e-02  2.96489000e-02
  -4.38334085e-02  7.92415068e-02  6.51828572e-02  4.43295464e-02
   1.54529288e-02  4.87040505e-02  1.23208165e-02 -9.93541628e-03
   7.23280683e-02 -2.19149366e-02 -7.60224164e-02  7.59813860e-02
  -6.52025789e-02  2.69090310e-02 -3.88595611e-02 -3.89214791e-02
  -2.02709287e-02 -6.19696602e-02  5.22698388e-02  3.22015211e-02
   3.22576389e-02 -1.22620091e-02 -2.91748419e-02 -7.04839081e-02
   4.23230678e-02  7.20054284e-02  6.44354895e-02  3.78424600e-02
  -3.46870720e-03 -7.54167587e-02 -3.20919864e-02  3.97370756e-03
   2.34228224e-02 -2.56634913e-02  2.64562443e-02 -1.79250985e-02
  -3.02116834e-02  7.53165409e-02  4.17462066e-02 -7.73808509e-02
   6.31660596e-02  1.18110180e-02 -1.97068863e-02  6.85650036e-02
  -2.62507573e-02  5.19554690e-02  5.10277078e-02 -2.13984288e-02
  -4.72756252e-02  2.49683559e-02  6.29323050e-02 -7.94685408e-02]
 [-5.83790392e-02  4.28109542e-02 -2.67130174e-02 -1.35948211e-02
  -1.71240047e-02  5.57420179e-02 -6.88442290e-02  2.66109481e-02
  -5.87925687e-02  3.56388986e-02 -2.70373039e-02 -4.25363705e-02
   4.38031852e-02  7.28152171e-02 -6.40952885e-02  3.03510949e-02
  -5.27265891e-02  1.42383873e-02  6.14073351e-02 -1.21380389e-03
   3.01197916e-02  6.51431903e-02  7.73678795e-02 -6.75080717e-02
  -5.93298674e-02 -6.27056360e-02  5.06470278e-02  2.93677002e-02
   1.70048624e-02 -3.77594046e-02 -2.68136375e-02 -3.52158174e-02
  -2.57336125e-02  3.91412005e-02 -4.09572832e-02 -2.51631886e-02
  -7.16416538e-02  2.14120448e-02 -7.02603161e-02  4.07709926e-02
   2.93050706e-03 -4.74141277e-02  1.24712661e-02 -6.18725047e-02
  -8.04244280e-02 -1.50247365e-02  2.02121958e-02  1.64505690e-02
   1.87300146e-02  3.25590223e-02 -3.38735059e-02  2.03051791e-02
  -6.96553215e-02  3.77762467e-02  3.68602276e-02 -2.91761383e-02
  -4.80122417e-02  1.55937076e-02 -8.63768160e-03 -7.16286600e-02
   2.34696344e-02 -4.17660475e-02  3.95636261e-03  7.14556500e-02
  -4.75562625e-02 -2.68047415e-02 -5.27560227e-02 -2.77133323e-02
   7.68309459e-02 -7.34480396e-02 -1.54138058e-02 -3.86323035e-03
   1.58640966e-02 -6.77596033e-02  2.71771401e-02  1.14092231e-03
  -7.23302886e-02 -2.92902738e-02 -5.67581430e-02  5.45755401e-02
   5.97584769e-02 -1.04801953e-02 -2.53892355e-02  1.68041289e-02
  -3.65026258e-02  3.32121775e-02  1.69128329e-02 -6.89807832e-02
  -6.31114319e-02 -2.30635330e-02 -6.81948289e-02 -7.40769804e-02
  -3.51964012e-02  5.88741973e-02  4.30394188e-02 -8.32947344e-03
   5.83878532e-02 -9.00694728e-03 -4.82116379e-02 -6.77153170e-02
   1.42682418e-02  7.42517784e-02 -6.55444190e-02  2.06512511e-02
   4.24378589e-02  9.99749452e-03  5.77068329e-03  5.04879281e-02
  -4.51758355e-02 -7.67347589e-02  4.87011448e-02 -4.98076864e-02
  -1.13185123e-02  3.37746888e-02 -7.15269968e-02 -6.46356344e-02
  -1.56655908e-04  3.77701521e-02 -2.80875079e-02 -7.17032999e-02
  -6.09129965e-02 -7.01034069e-02  2.55025402e-02 -6.20222986e-02
   1.52059793e-02  2.37204134e-02 -4.17785011e-02 -3.86298411e-02]
 [ 5.75951561e-02  5.82841262e-02 -4.97889519e-03  7.36348554e-02
   1.62828863e-02 -3.67120020e-02  5.94033375e-02 -2.43055746e-02
  -1.23591870e-02 -1.09392926e-02  6.58238605e-02 -2.10890919e-02
   6.48946688e-02  1.21875405e-02 -4.38327901e-02  1.83154941e-02
  -8.50823522e-03 -4.74531725e-02 -3.66911553e-02 -1.75020099e-02
   7.63861313e-02 -2.79419124e-03  4.39114049e-02  1.57203153e-02
  -2.74945758e-02  2.29670331e-02  3.76996100e-02 -6.86477348e-02
   5.94751015e-02 -3.91739234e-02 -4.45146002e-02 -3.59028317e-02
  -2.68842578e-02 -1.92046911e-03  6.52591065e-02 -5.72131351e-02
   7.46315047e-02  5.13901561e-03  8.05051252e-02 -5.86794391e-02
  -3.71848047e-02 -6.00627474e-02 -7.05439597e-03  3.87249812e-02
  -6.89292699e-03 -6.91375360e-02  7.99221173e-02 -5.03323339e-02
  -2.10709162e-02  2.33660042e-02  2.39198133e-02  3.11024487e-02
   6.96667060e-02  3.88704091e-02  2.16764957e-02  2.11117938e-02
   3.30342352e-03  3.03670093e-02 -5.31783924e-02 -1.80674866e-02
  -7.02255070e-02 -2.22817808e-03  5.43387011e-02 -2.80082226e-03
   4.36975583e-02  8.07520822e-02 -5.23269176e-03 -7.33104125e-02
   2.29519159e-02 -3.57914791e-02 -4.37440835e-02  4.79564145e-02
   1.70259774e-02  7.32351914e-02 -7.29787797e-02  7.81996325e-02
  -7.51757249e-02  7.20213428e-02  1.92194879e-02  6.88654408e-02
  -8.84402543e-03  5.94624504e-02 -7.62145966e-02 -4.94946204e-02
  -1.30230188e-03 -3.12334038e-02 -2.22897120e-02 -6.00950234e-02
  -4.55790013e-02 -1.50206760e-02  6.52883872e-02  3.64563614e-03
  -3.56582589e-02 -3.59813422e-02 -5.45894653e-02 -1.68415159e-02
   3.48985717e-02 -7.31555149e-02  5.00381961e-02  5.49635291e-03
   2.84968019e-02 -7.43765160e-02  2.10262984e-02  7.23033324e-02
  -1.29536241e-02  7.90163130e-03 -6.25772104e-02 -3.74811068e-02
   6.71342090e-02  4.88687083e-02  2.99015343e-02  2.14032456e-02
  -1.63027495e-02 -2.25595385e-02 -8.16559792e-03 -2.83737332e-02
   1.77347064e-02  2.58787647e-02 -2.92850696e-02  7.84719959e-02
  -3.96568179e-02 -2.93913744e-02  5.99955097e-02  4.62881476e-03
  -2.57034637e-02  7.24317953e-02 -7.89289176e-03  9.99863446e-03]
 [ 1.81676969e-02  5.41095063e-02  4.71729040e-03 -4.48260047e-02
  -8.05360153e-02 -7.65846744e-02 -5.78733236e-02 -6.82884082e-02
   4.40782830e-02  4.04395163e-02  7.40253106e-02 -5.82310036e-02
   2.36136466e-03 -7.64658228e-02  3.48923281e-02  8.79848003e-03
  -5.76795936e-02 -5.22629917e-02 -3.39735262e-02  5.96612617e-02
   2.77344137e-03 -5.98268956e-03 -4.57372628e-02 -5.63586131e-02
  -6.05883226e-02 -6.32677600e-02 -4.06016111e-02  6.51490465e-02
   5.16760349e-03  5.84249422e-02  7.94294700e-02 -2.11207680e-02
   1.01749822e-02 -4.97777909e-02  2.93547660e-03 -8.04925039e-02
   7.74822757e-02 -1.61891729e-02 -7.59619847e-02  1.53992251e-02
   2.34783590e-02  3.39832157e-02 -5.91525733e-02 -2.81570479e-02
   1.76719800e-02 -6.80987760e-02 -6.03009015e-03  7.97044113e-02
  -4.81406674e-02  7.16428384e-02  7.15161487e-02  6.01553991e-02
  -7.97993615e-02 -4.76770699e-02  5.71780726e-02 -5.49010076e-02
   2.39725709e-02 -5.68899326e-02 -6.54896721e-02 -4.45971936e-02
  -6.87610805e-02  5.47273085e-02 -4.85701896e-02  7.79075846e-02
   1.67508721e-02  5.72897866e-02 -8.38469714e-03  7.78077021e-02
   3.97601426e-02  1.92445070e-02  3.20822224e-02  1.98370367e-02
   3.11941877e-02 -2.16251500e-02 -4.45376895e-02 -6.96371198e-02
  -2.68327221e-02  4.78200838e-02  2.97397152e-02 -4.59205136e-02
   3.69341820e-02  4.96599600e-02 -7.07994848e-02 -6.42117411e-02
   2.71992832e-02  3.51461619e-02 -2.88727023e-02  1.52755007e-02
  -7.98933208e-03 -4.53699715e-02  1.15496442e-02 -4.83878478e-02
  -2.20658109e-02  2.96151191e-02 -3.23680192e-02  3.57363820e-02
  -1.07294321e-02 -6.81723803e-02  5.04648015e-02  4.62774411e-02
   8.45447183e-03 -8.56097043e-03 -5.22113405e-02 -6.89062849e-02
  -5.77863231e-02 -5.95953614e-02 -5.69996238e-03  4.18119133e-03
   6.76395074e-02  3.84385139e-03 -1.62838399e-03 -5.94005845e-02
   1.51004493e-02  4.69603390e-03  4.51078787e-02 -2.31983215e-02
   7.08202645e-02 -6.33046031e-02 -8.90202820e-04  5.22530898e-02
  -6.70977309e-02 -9.86069441e-03 -4.58514169e-02 -4.71542217e-02
   1.21065676e-02 -3.34058292e-02 -5.52258939e-02 -3.75748016e-02]
 [-3.57626081e-02 -6.77851140e-02  4.70516905e-02 -3.92990820e-02
  -7.15322793e-04 -6.43063039e-02  6.36362508e-02 -1.42281502e-03
  -7.87913501e-02  7.45745823e-02 -3.52132469e-02  2.23059356e-02
  -1.55799612e-02  3.34387794e-02 -5.94072789e-03  2.92660296e-03
   4.27090600e-02 -3.56463082e-02  1.15449429e-02 -3.43967639e-02
   2.22394615e-03  1.46100670e-03  7.61583373e-02  6.32019117e-02
  -8.98946822e-03 -6.97248578e-02  7.81309083e-02 -4.02960069e-02
   5.07061705e-02  7.43998587e-03  5.80613092e-02 -1.97789408e-02
  -7.49665275e-02  5.44675067e-02 -1.97235979e-02  1.82783678e-02
  -5.97447157e-03  7.66110793e-02 -1.04895160e-02  3.97295505e-02
  -3.22663225e-02 -5.15573174e-02 -3.65843512e-02 -6.15798011e-02
   3.63047421e-03 -1.30775645e-02  2.39937454e-02 -3.90695930e-02
  -5.27866930e-02 -7.69255161e-02  5.92847690e-02  8.79473239e-03
  -4.08784598e-02  2.49599665e-02  6.85977414e-02  4.72555980e-02
  -6.74910173e-02  3.27493697e-02  2.94451937e-02 -5.56831285e-02
  -2.24917382e-02  4.92381975e-02 -3.09244543e-02  3.51629108e-02
   4.30274308e-02 -2.85248421e-02  7.06766918e-02 -2.57434733e-02
   6.93040565e-02  8.47833604e-03  7.01782778e-02 -3.39663513e-02
  -1.82308331e-02 -4.17697020e-02 -5.39100543e-02  1.75516307e-03
   1.74991488e-02  4.02875245e-04 -6.11054301e-02  2.48197764e-02
  -1.96434557e-03 -2.47373804e-02 -6.20392561e-02 -4.86474447e-02
  -5.15541658e-02  1.05311945e-02 -4.93906736e-02 -4.63277586e-02
   1.01008937e-02  1.32635385e-02 -2.79397815e-02  4.01856825e-02
   5.60960993e-02  5.88759407e-02  5.88052794e-02 -5.30281700e-02
  -4.28841114e-02  8.62244517e-03 -2.42655426e-02  2.66734511e-02
  -3.38166133e-02 -6.45216405e-02 -6.17910512e-02  3.78948301e-02
  -2.69833282e-02 -4.28920984e-02  4.82790694e-02  6.84466287e-02
  -2.64435187e-02  5.80587015e-02 -3.81678343e-03  3.67869586e-02
  -3.30753401e-02 -5.03250435e-02  7.73089007e-02  3.30360979e-02
  -1.00120157e-02  7.02672452e-03 -7.49140009e-02  2.75809243e-02
   2.23291963e-02 -6.96834773e-02  2.88643092e-02  2.92209536e-03
   4.09879535e-02 -3.69090587e-02  7.44720474e-02 -1.38125569e-03]
 [ 2.54164636e-02 -6.85891211e-02  5.84283695e-02  6.49484172e-02
  -3.09555121e-02  1.63908526e-02 -1.88853592e-02 -5.57407551e-02
  -6.85365051e-02  6.18482605e-02 -3.18370499e-02 -9.82099771e-03
   7.21840337e-02  1.89691782e-04  2.62908861e-02  5.33629432e-02
  -4.62209545e-02 -7.78405443e-02 -2.95892023e-02  2.92081237e-02
  -5.08682430e-03 -7.24175274e-02  7.83315822e-02 -6.48332536e-02
  -2.94718780e-02  7.35888258e-02 -4.30027395e-03 -6.72855675e-02
   7.04358891e-02 -1.78657472e-02  1.57223642e-02 -3.39545719e-02
   2.00869665e-02  3.60641703e-02  7.55591914e-02  1.01935491e-02
   7.23938122e-02  4.17275056e-02 -6.09796569e-02 -5.53604886e-02
  -4.40454744e-02 -3.22524346e-02  1.71573833e-02  5.48564717e-02
   2.78134644e-02 -5.40070236e-03  4.41908613e-02  2.02572197e-02
   5.50331175e-03 -8.94208997e-03  2.16103569e-02  5.98562285e-02
  -3.63734365e-03  7.07202926e-02 -4.02318239e-02 -4.45435867e-02
   4.48539928e-02  1.23984441e-02 -7.32162744e-02 -1.39727518e-02
   5.62369078e-03 -2.90869884e-02  3.98653075e-02 -2.25983299e-02
  -4.11334522e-02 -2.12354660e-02 -3.54209580e-02 -1.10040903e-02
   5.69492653e-02 -4.02050987e-02  1.38037205e-02  1.23760104e-02
  -6.12522662e-02  6.95360452e-03  5.38123623e-02  7.90871754e-02
   6.07391968e-02  1.89742595e-02 -4.54014167e-02 -4.38365787e-02
  -1.55185983e-02 -3.64666954e-02 -5.09729758e-02  2.54232138e-02
   6.86972067e-02  6.87527433e-02  8.47050548e-03 -5.89976907e-02
  -7.67173767e-02 -9.75224376e-03 -4.79532033e-03  2.72391737e-03
   7.75468871e-02 -3.82107385e-02 -5.23930043e-02 -5.68863936e-02
   3.88756469e-02  7.57657215e-02  7.48380795e-02 -1.15561634e-02
  -6.25556111e-02 -4.09293175e-03  1.21120438e-02  4.90232483e-02
  -1.54605806e-02 -1.33763403e-02 -4.41255905e-02 -1.88208856e-02
   2.99804211e-02  7.67189637e-02 -3.76491956e-02  7.26939961e-02
  -3.05989347e-02 -1.77561939e-02  4.47703674e-02  1.26705915e-02
  -6.30410388e-02  7.70718604e-03 -2.54528560e-02 -7.74813518e-02
   7.42432699e-02 -5.47202155e-02  4.80551496e-02 -7.60263950e-02
  -2.94691510e-02  4.44517955e-02  3.78598049e-02  7.15496913e-02]
 [-3.48968692e-02 -2.33411342e-02  3.83304656e-02  2.55452543e-02
   7.92138949e-02 -8.05113763e-02 -6.98837191e-02 -5.02142161e-02
   4.28398475e-02  6.08206019e-02 -2.23039649e-02 -8.03504065e-02
   4.17361483e-02  1.08164102e-02 -2.24785693e-02  3.25716883e-02
  -3.79349366e-02  8.09196010e-02  3.71403620e-02  6.53100088e-02
   3.51885706e-02  3.93066034e-02 -1.19971111e-02 -4.73988689e-02
  -2.44725421e-02 -4.19225730e-02 -4.81355824e-02  2.17840374e-02
   4.99965027e-02 -7.39496797e-02  4.00712416e-02 -5.88642359e-02
   7.67511800e-02  4.80961725e-02  2.94913128e-02  1.61397457e-02
  -6.87653273e-02 -3.55601162e-02 -3.73213701e-02  5.76152280e-02
  -5.18611036e-02  6.31855950e-02  6.76332489e-02 -6.10201657e-02
  -5.71400747e-02 -5.64881600e-02 -2.01760232e-03  1.24280676e-02
  -7.66294226e-02  3.18826735e-03  3.94933522e-02 -1.84996352e-02
   6.73513338e-02  5.77634946e-02  1.79103762e-03 -7.54863769e-02
   5.86921796e-02 -7.28199184e-02  5.00171855e-02 -7.13248551e-03
  -1.03093088e-02 -6.14888892e-02 -3.69691253e-02  3.22896615e-02
  -1.93607919e-02 -2.14476064e-02 -6.54256269e-02 -3.80757377e-02
  -7.61204436e-02 -1.44391954e-02  1.95684433e-02 -3.73341143e-02
   1.02705508e-02  2.47676596e-02  5.66194281e-02 -1.81774050e-03
   7.08568916e-02 -5.95520213e-02 -1.35129243e-02  5.05938381e-03
  -7.81182200e-02  1.60664320e-03  2.93133631e-02  4.01435867e-02
   2.60131434e-02  3.95189151e-02  6.03660941e-04 -1.36778802e-02
  -6.20179847e-02 -8.08700398e-02 -2.49599814e-02  7.47093037e-02
   6.29052520e-04  4.11185622e-02  4.58566025e-02 -1.31358504e-02
   1.90385953e-02  5.99929765e-02  1.54206082e-02 -4.93459255e-02
   1.40532553e-02  1.03301555e-02  3.63788456e-02 -6.28805906e-02
   7.55369440e-02  5.22043779e-02 -7.79680982e-02 -7.28048384e-04
  -7.82517940e-02 -7.39462003e-02  1.38177723e-03  5.60562536e-02
   3.21072862e-02  1.38415024e-02  7.70423338e-02  1.66898593e-02
   5.68466634e-03  8.17142427e-04  5.84685802e-03  1.91655904e-02
  -2.31602825e-02  5.88623658e-02 -4.58021462e-03 -7.58986101e-02
  -5.37601635e-02  6.10217452e-04  5.90607747e-02  1.30028203e-02]
 [ 7.36980811e-02  7.52870217e-02  1.24791041e-02  7.05457255e-02
   5.36640361e-02 -4.59058546e-02  4.44273129e-02  5.25098816e-02
   3.46936435e-02 -4.40719463e-02 -5.58958501e-02  5.96826747e-02
  -2.57600471e-02  6.24334812e-03 -7.98882991e-02 -5.47664128e-02
  -2.63677910e-02 -3.92837450e-02 -2.50284374e-03  5.81125394e-02
   3.11413333e-02  5.55227771e-02  7.37463608e-02  1.65330470e-02
   7.85231814e-02 -3.16873118e-02 -2.62402557e-02  7.61434510e-02
  -5.12320884e-02  4.19040099e-02  5.97839281e-02 -7.82437101e-02
   4.21401113e-02 -1.78618431e-02  6.84367493e-02 -2.00728066e-02
   4.36530635e-02 -3.39096114e-02  1.33991987e-02  2.65829265e-02
  -2.02868134e-03  1.47469640e-02 -3.54368351e-02 -5.88908866e-02
  -3.55367362e-02  4.17177603e-02  2.88511589e-02 -6.25794753e-02
  -3.22839767e-02 -3.35387811e-02 -7.02133626e-02 -7.65883923e-03
  -5.72055578e-03  5.94874695e-02 -4.65749018e-02 -6.62345439e-02
   1.53550133e-02 -7.47048408e-02  6.07669130e-02 -6.41986728e-03
   3.62998098e-02 -5.75105548e-02  5.47211990e-02  8.09042975e-02
   3.88467610e-02  4.81320247e-02 -2.85937265e-02  1.13234669e-02
   1.56027004e-02 -5.74346557e-02  6.43344596e-02 -5.26641831e-02
  -5.28535247e-02  6.65534213e-02  3.81845385e-02 -5.14139235e-02
  -5.03858440e-02 -5.92082292e-02 -5.04901744e-02 -6.71534240e-02
  -6.51901439e-02  3.69512364e-02 -3.23748477e-02 -3.08813900e-02
   1.62206739e-02  4.62587923e-03  2.66346335e-03 -9.94487852e-03
  -6.20205961e-02 -2.33910456e-02 -4.81169671e-03  2.63518542e-02
   5.50366715e-02 -1.73341557e-02 -1.81704611e-02 -2.35047564e-02
   6.39384761e-02 -7.74795189e-02 -1.35536343e-02 -5.47760651e-02
  -7.12886453e-04  2.56908312e-02  2.50035152e-02 -3.17842364e-02
  -6.20130748e-02  3.48764658e-02  8.55077803e-03  4.49592695e-02
   7.49245360e-02  5.88439181e-02  3.26314867e-02 -4.11589220e-02
   3.70593742e-02  7.79200569e-02  6.95785508e-02 -3.95963490e-02
   8.02568868e-02 -2.18277201e-02 -1.59295574e-02 -1.03547871e-02
   9.73780453e-03  7.15303198e-02  9.17180628e-03 -2.47992612e-02
  -3.09997015e-02 -6.47050813e-02 -6.73258454e-02 -2.39673853e-02]
 [-4.15121764e-02 -5.54939583e-02 -7.30364844e-02  2.54253596e-02
   6.08326271e-02  6.50818273e-02  1.87677443e-02  1.50851309e-02
   3.45918462e-02 -2.22841986e-02  4.60664257e-02  3.24263647e-02
  -5.96304610e-02  3.65541801e-02 -1.99349821e-02  1.41485035e-03
   7.44477138e-02 -1.29820332e-02  7.72229955e-02 -6.82865754e-02
   7.42070302e-02  4.13182676e-02  5.44041917e-02 -2.22278684e-02
  -7.02159554e-02  1.46938190e-02  4.35039029e-02  9.10735130e-03
  -5.66631518e-02  4.66625765e-02  7.30542764e-02  1.23391151e-02
  -3.64760570e-02  3.89169976e-02 -2.32081264e-02 -3.42900157e-02
  -3.37759852e-02 -5.10680601e-02  7.53747299e-02  2.45569646e-03
  -2.95476653e-02  4.82716486e-02 -1.51651502e-02  7.31673315e-02
  -7.60115460e-02 -3.67217287e-02  6.34705052e-02  7.68795535e-02
  -3.07437591e-02 -1.54455975e-02 -5.05840033e-02 -1.14867389e-02
  -1.36112794e-02 -1.55296400e-02 -4.56341133e-02 -5.20930067e-02
   7.34289214e-02 -5.92096969e-02 -5.45513928e-02  8.93472135e-03
  -2.02261209e-02 -5.27637005e-02 -2.27000564e-03  2.91052461e-02
  -2.40843073e-02  1.76107883e-02  1.76052004e-02  1.44002289e-02
   6.86118379e-02 -6.65652528e-02  5.92991188e-02  7.35358372e-02
  -3.57473493e-02 -1.09060109e-03  3.95058244e-02  5.22501543e-02
   7.75288269e-02  4.51865420e-02  1.52716115e-02  9.19586420e-03
  -6.53991550e-02 -3.57240103e-02  4.74547967e-02 -3.19683962e-02
  -4.66469973e-02  1.87050104e-02  4.98534963e-02  2.69705877e-02
  -1.37075782e-03  3.10615823e-02 -1.60249323e-02 -4.18940671e-02
  -3.28600854e-02 -6.92690909e-02 -5.33348322e-03 -5.70489541e-02
   3.92192677e-02  2.08079889e-02  3.25442329e-02 -6.56991452e-02
  -1.72664523e-02  1.82485878e-02 -2.06619874e-02 -1.23546273e-03
  -7.87041336e-02  6.85841516e-02 -4.21441346e-03 -5.91108203e-03
   5.11717275e-02 -7.60333240e-02 -1.70566291e-02 -4.52329405e-02
  -3.91938984e-02  1.91917270e-03  4.07710746e-02 -1.85076818e-02
   2.71608755e-02  2.10227445e-02 -4.95623015e-02  2.80108675e-02
  -4.70460430e-02  2.05194056e-02  3.04270908e-02  5.94294891e-02
   1.57168582e-02  2.05970481e-02 -3.85616124e-02  1.18200332e-02]
 [ 7.45266303e-02  6.93614706e-02  5.38112000e-02  4.80468348e-02
  -2.99541950e-02 -3.94539796e-02 -7.61790574e-02 -1.30604506e-02
  -4.12951410e-02 -5.46376780e-02  5.77401444e-02 -3.93153243e-02
  -7.20615610e-02 -5.60306348e-02  7.41328672e-02  2.71983296e-02
   3.12060192e-02 -2.64273733e-02 -1.70272216e-02 -4.52342555e-02
  -2.52060629e-02 -6.10107929e-03 -5.61923236e-02  7.27491081e-03
  -6.91350996e-02  5.44985160e-02  5.49671873e-02  3.08050811e-02
  -2.07259767e-02  8.03955570e-02  8.07508156e-02  1.12248808e-02
   7.91587010e-02  3.40590179e-02 -1.74661800e-02 -7.22334608e-02
   4.56910804e-02 -4.44574952e-02  7.42381290e-02  8.81292671e-03
  -4.98806089e-02 -5.44495173e-02  2.27772668e-02 -7.38364160e-02
  -6.26052916e-02  4.79522347e-03 -4.18681353e-02 -4.25820276e-02
  -5.17165884e-02 -3.12386453e-02 -7.62287527e-02  7.66225830e-02
   4.85983863e-02 -2.73143798e-02 -4.32486385e-02 -7.33999312e-02
  -3.75142507e-02 -6.30012602e-02 -4.28460538e-04  8.02523643e-03
  -6.52237162e-02  1.79215595e-02  9.05736536e-03  5.21359667e-02
  -3.08173150e-03 -3.74503396e-02  3.74748185e-02 -3.36045325e-02
  -2.91739404e-03  4.51058149e-03  1.36402920e-02  8.01628828e-03
  -6.53804839e-03 -2.33088583e-02 -6.88458160e-02  3.77292186e-02
   3.03739309e-02 -3.22480649e-02 -2.24403962e-02  5.42911217e-02
   4.83707413e-02 -3.01859528e-03 -5.36282770e-02  1.69741139e-02
  -5.84690422e-02  8.04154351e-02  5.95664307e-02 -2.37868614e-02
  -5.68369254e-02 -1.98983364e-02  5.79901785e-03  3.63380164e-02
   2.12650150e-02 -6.30962551e-02  3.60834673e-02 -5.75400069e-02
  -4.34127226e-02  5.42964116e-02  3.32804769e-03 -4.29310650e-02
   6.73374459e-02 -2.97557637e-02  6.04706928e-02  5.46886995e-02
   2.65107006e-02  4.67731580e-02 -3.63076590e-02  4.82722446e-02
   1.45844221e-02  5.34450486e-02  1.48798153e-02  2.35982239e-04
   3.21367532e-02  3.18233371e-02  5.12352213e-02  4.00039554e-03
  -7.00939670e-02  3.80920619e-02 -6.16110116e-02 -4.26387861e-02
   1.10045597e-02 -5.65336831e-02 -5.48749194e-02  8.83340836e-05
   1.01399794e-02  1.01922899e-02 -2.94969603e-02 -2.15509869e-02]
 [-5.21756038e-02 -2.15438902e-02 -7.24693090e-02 -7.40043893e-02
   2.49189883e-02  6.00598231e-02 -4.85538691e-02 -4.64435965e-02
  -3.48128453e-02  6.30763546e-02  4.97967377e-02 -5.92509434e-02
   1.05953589e-02 -4.38544303e-02 -3.30780447e-02  3.77100334e-02
   5.13701066e-02  2.42921710e-02  1.22043416e-02 -8.59043747e-03
  -6.48607910e-02  2.04152316e-02  5.32844290e-02 -7.12403059e-02
   6.12225756e-02  5.87210581e-02  4.75954264e-03 -3.01760249e-02
  -3.75009291e-02 -1.06548592e-02 -6.00592680e-02 -5.50075807e-02
   5.41650727e-02 -5.48088998e-02 -6.62877485e-02 -7.99165890e-02
   5.19461706e-02 -3.13587375e-02 -4.22627144e-02  3.63429710e-02
   3.90121788e-02  2.90444046e-02  2.90929452e-02  6.38138428e-02
   6.37794361e-02  4.62542102e-02  5.23062870e-02 -3.11645195e-02
  -2.10506693e-02 -7.16926828e-02  7.37831742e-03 -6.85766265e-02
  -2.45965756e-02  5.30136377e-03  7.05236271e-02  4.48382422e-02
   1.17201507e-02  2.11341679e-02 -2.85234302e-03  1.99350640e-02
   1.07734650e-02  7.65199736e-02 -4.18891162e-02  7.39074424e-02
   6.62443265e-02 -4.49860282e-02  4.69312742e-02  3.61001194e-02
  -3.70617360e-02 -4.30065207e-02 -3.49911451e-02  7.29809031e-02
   5.64520583e-02 -3.73842418e-02 -2.97021009e-02  5.56751415e-02
  -1.98789202e-02  6.37846440e-03 -4.24056798e-02 -4.75414693e-02
   7.54885748e-02 -2.05140673e-02 -1.13955140e-03 -2.86455154e-02
   4.46763411e-02 -6.16470389e-02  3.96681130e-02 -6.20174445e-02
   2.54732221e-02  4.74916771e-02  7.37329796e-02  5.72795346e-02
  -4.86515276e-02 -3.57965380e-03 -9.36799496e-03  7.29114190e-02
   7.96147957e-02 -3.79815809e-02  6.99876472e-02 -3.60392779e-03
   1.73709020e-02 -6.07479438e-02 -2.70964578e-02 -1.56543925e-02
  -1.85621753e-02  7.45010749e-02 -8.50353390e-03  6.29758164e-02
  -3.44306640e-02  1.84931755e-02  2.58592293e-02 -6.43752515e-02
   7.66284242e-02 -1.72016099e-02  6.20474890e-02  5.60253486e-02
  -3.31155807e-02 -6.29051477e-02  6.91148862e-02 -6.91567808e-02
  -7.75332749e-03  5.93519136e-02 -4.19785939e-02  3.68610024e-02
  -2.61461735e-03 -5.68877272e-02  8.53306055e-03  4.87760231e-02]
 [-3.23522426e-02  5.46646342e-02 -2.51432508e-02 -1.27934068e-02
  -4.84633446e-02 -7.84035176e-02 -6.19790182e-02  8.05946663e-02
  -6.23909235e-02  6.53918013e-02  3.55970934e-02 -5.58941439e-02
   5.09145781e-02  4.98330072e-02  5.59300557e-02  1.69506595e-02
  -4.42298241e-02  5.70047423e-02 -1.70113146e-03 -1.11633986e-02
   7.11255893e-02 -5.91624528e-03  4.26588580e-02 -6.70121238e-02
  -7.43271410e-02  7.03941211e-02 -2.68115103e-02 -7.10658357e-02
  -6.81143627e-02 -7.17962012e-02 -3.86508405e-02 -3.40113714e-02
   2.93582827e-02  8.09345320e-02  9.14425403e-03 -4.00908291e-02
   5.98397180e-02 -4.94567938e-02 -6.56788200e-02  7.80020431e-02
   4.70646694e-02  7.66839162e-02  3.86929438e-02  1.33400783e-02
   5.75648770e-02  7.81924203e-02 -5.36155701e-02  9.51307267e-03
  -2.57339962e-02 -1.16325691e-02 -4.64430526e-02 -8.05301517e-02
  -3.24627198e-02  6.71067461e-02  1.98440701e-02 -6.93672150e-02
   7.72671774e-02  4.03823555e-02  6.48961291e-02  2.77838781e-02
  -8.82108510e-03  5.13174906e-02  9.60113853e-03  5.29260188e-03
  -7.95036554e-04  1.41788423e-02  4.85666916e-02  3.90815213e-02
   4.16678637e-02  8.98902118e-03  9.23722982e-03  4.49760929e-02
   7.14634135e-02 -4.45712432e-02  1.86088979e-02  4.79110703e-02
  -7.64864013e-02 -6.90603405e-02 -7.41542354e-02  1.53580159e-02
   5.97480312e-02 -3.27584036e-02 -7.91750625e-02 -5.76493889e-02
  -5.95248491e-03  7.99797252e-02 -7.71818981e-02 -6.20912015e-03
  -6.60349950e-02  5.81802949e-02  1.56279728e-02  5.20846322e-02
   6.40533939e-02 -1.40783191e-02 -2.04795301e-02 -1.40769705e-02
   3.08049619e-02  6.39479831e-02 -7.82617480e-02  1.96496099e-02
  -6.97045922e-02  6.25126436e-02  5.62352911e-02  4.60889563e-02
  -2.65385285e-02  3.17063257e-02 -6.18460104e-02  6.07875809e-02
  -6.73376396e-02  4.16290015e-03  5.36822751e-02  6.68603703e-02
   2.06473470e-02 -3.56443748e-02  5.80229983e-02 -3.50141376e-02
   2.46475339e-02 -5.75926863e-02  4.59205881e-02  6.37530759e-02
  -5.09944186e-02 -3.76591533e-02 -2.07635015e-03 -6.84490800e-03
  -5.83530962e-03 -2.02290788e-02  7.95819387e-02 -6.89925775e-02]
 [-2.49332748e-02 -3.08011174e-02 -1.99800022e-02  3.39280218e-02
   3.97393927e-02 -6.40296713e-02 -7.86367953e-02  4.28202003e-03
  -5.24753854e-02  2.80600861e-02 -1.29530653e-02  5.84338382e-02
  -6.34392500e-02 -2.21404955e-02 -6.33049086e-02 -9.01597738e-03
   6.08909950e-02 -7.05924556e-02 -1.43870190e-02 -2.39599422e-02
   7.47366920e-02  1.70380101e-02 -5.04000187e-02  6.51507080e-03
   3.49870101e-02  2.66593769e-02 -1.57811567e-02  3.72977406e-02
  -6.86704591e-02 -4.62176874e-02  4.30241749e-02  3.93453166e-02
  -1.81176513e-03 -1.68059915e-02  3.94854844e-02  1.98357999e-02
   4.71079275e-02 -5.41198552e-02 -6.91186041e-02 -5.61863855e-02
   1.23717934e-02  3.85008901e-02  7.35828355e-02 -6.02031648e-02
  -4.94015962e-03 -6.59364685e-02  5.82557544e-02 -1.02269053e-02
   6.32364377e-02 -7.30848685e-02  4.14795876e-02 -7.41305873e-02
  -6.21928796e-02  9.76152718e-03  3.19072306e-02 -1.90478191e-02
  -1.23787150e-02 -4.79583256e-02  5.68166748e-02  7.16462955e-02
   7.90364221e-02  3.85555625e-03 -2.30617523e-02  6.42538443e-02
   3.02950740e-02  3.75906974e-02 -7.28367418e-02 -5.77584542e-02
   1.88761503e-02  4.20097262e-03 -6.00146726e-02  4.66250703e-02
   1.23942643e-02  8.02180097e-02  6.92476705e-02  2.39387453e-02
   2.05968395e-02  5.62049523e-02  4.66248393e-03 -1.70604959e-02
  -1.53249875e-02  6.23634979e-02  3.55742946e-02  5.97889721e-03
   7.97849372e-02 -3.87992635e-02 -4.90082428e-02 -4.05958891e-02
  -6.43102303e-02 -1.14134997e-02  4.50558960e-03  4.73339185e-02
   5.74344769e-02  3.63735408e-02  4.28682566e-02  1.50326267e-02
   5.49632981e-02 -8.08884725e-02 -4.67764065e-02  1.67654753e-02
  -4.66943160e-02  1.91425160e-02  5.07319197e-02 -3.36325914e-02
  -4.67292629e-02  1.48641542e-02 -1.84613466e-02 -2.47007348e-02
  -2.71856077e-02  7.59818181e-02 -6.83463290e-02  7.39844665e-02
  -4.96665947e-02 -1.72736049e-02  1.64134949e-02 -3.08902562e-03
  -1.88481323e-02 -8.01011920e-05  3.89733464e-02 -4.49281894e-02
  -3.44121195e-02 -7.41293505e-02  1.19175017e-02  7.11282566e-02
   4.87360284e-02 -5.73848188e-02 -5.94163649e-02  2.83452272e-02]
 [-6.42768294e-03  3.54526937e-02  7.04172999e-03 -1.65830180e-02
   3.06535438e-02  2.13567540e-02 -5.24550825e-02 -5.52550554e-02
   7.35394657e-03 -3.68905924e-02  6.47672191e-02 -3.14927846e-03
  -8.03299248e-03 -5.47188520e-03 -3.32941115e-02 -7.05115423e-02
   8.06088820e-02 -5.02831377e-02  4.53943387e-02 -5.88042885e-02
   1.91005170e-02 -5.47655597e-02  3.81185189e-02  3.45313549e-02
   3.35316658e-02  3.00400183e-02  1.79763809e-02 -6.62881359e-02
   1.55526176e-02  1.57883689e-02 -1.79046914e-02 -7.96777382e-02
   4.43591550e-02  6.08935952e-03  3.82506773e-02  6.15010783e-02
   2.65430138e-02 -5.85946999e-02  7.68390521e-02  4.35432568e-02
  -5.83264604e-02 -4.28814217e-02 -7.47011602e-03  2.06242949e-02
  -4.13933583e-02  2.63782516e-02  2.75302157e-02  1.81240886e-02
   4.97852489e-02 -7.20706880e-02  7.46695027e-02 -5.90172410e-02
   6.45165667e-02  6.77369907e-02 -3.07917558e-02 -3.51498947e-02
  -8.08577240e-02  6.12256154e-02 -1.23995617e-02  6.08574972e-02
  -7.96343088e-02 -4.98874784e-02 -4.43532206e-02  3.98674533e-02
  -4.50683124e-02  2.62096822e-02  3.62210199e-02  5.21787331e-02
   1.54791325e-02  1.73408091e-02  8.99642706e-03  7.78064057e-02
   7.27775693e-03 -5.54732308e-02  5.41491285e-02  2.77122259e-02
   3.19387689e-02  2.46961862e-02  2.27401555e-02  3.34977061e-02
   3.14297527e-03  4.04567495e-02 -5.86921275e-02 -2.61030346e-03
   8.03625360e-02 -1.48399919e-03  4.05458212e-02 -2.48775817e-02
  -2.77456269e-02  5.42303696e-02 -6.85193688e-02 -1.27731562e-02
   1.34411454e-02 -6.62234873e-02  5.01324162e-02  3.21713090e-02
  -5.82635701e-02  5.15737012e-02 -3.45491096e-02 -7.10555315e-02
  -7.45391101e-03  1.28435865e-02  5.49873784e-02 -7.14786127e-02
  -2.15013064e-02  6.96828216e-03  4.88767773e-03  1.38051659e-02
  -3.03683616e-02 -4.88989018e-02 -2.02388279e-02  3.97080854e-02
   7.49759749e-02 -6.02805354e-02 -5.08904569e-02  2.49877349e-02
  -1.24128684e-02 -5.29967658e-02 -3.29607725e-03 -7.62194693e-02
   1.25252455e-03 -6.15737848e-02  6.84724376e-02  9.31590050e-03
  -7.09054247e-02  3.68700325e-02  3.22958529e-02 -7.07758218e-02]
 [ 8.86578858e-02 -3.78677016e-03  1.01067200e-02  5.96300997e-02
  -9.07409191e-03  6.48600701e-03 -5.91674335e-02 -5.65481260e-02
   2.34296583e-02  3.53914872e-02 -1.33400112e-02 -5.68223484e-02
   3.22489403e-02  3.44326943e-02 -8.07675496e-02 -2.48341076e-02
  -2.89567187e-02  5.28583452e-02 -7.54314587e-02 -5.51932007e-02
  -3.49723101e-02 -6.03707507e-02 -4.92103025e-02 -2.97868401e-02
  -6.71860005e-04 -7.63270929e-02 -3.47907543e-02  1.65915135e-02
  -6.06796108e-02 -1.51110813e-02 -7.20313936e-02  7.34674260e-02
  -6.23625517e-02 -1.53129362e-02 -2.28133500e-02 -1.86528340e-02
  -6.30179867e-02 -2.97532529e-02  4.41919640e-02 -3.85373458e-02
   8.21469352e-02 -5.29042669e-02 -9.48625058e-03  2.60523017e-02
  -7.41997212e-02  7.41326511e-02  1.03728920e-02  7.96124786e-02
  -9.66282934e-03  6.87926561e-02  4.21396270e-02 -1.37733063e-03
  -2.20072158e-02  6.76424131e-02 -7.36129731e-02  7.15276748e-02
   4.82954737e-03 -4.27648611e-02  4.62693200e-02 -6.37755468e-02
  -2.25671530e-02  5.06215617e-02  5.95556237e-02 -6.57367185e-02
  -6.01272844e-02  4.82153408e-02  1.84665099e-02 -6.63724379e-04
  -5.29282950e-02 -3.37374844e-02 -8.93914625e-02 -6.59986958e-02
   2.68774736e-03 -5.98935708e-02 -1.67717673e-02  7.41441101e-02
   4.35279012e-02  2.14279313e-02  1.07270591e-02  5.10860011e-02
   1.73703209e-02  7.76745826e-02  4.92817955e-03  7.02305660e-02
  -4.33007926e-02 -8.46359655e-02  4.99747172e-02  5.25846258e-02
   1.24808494e-02  5.43860458e-02 -6.00671209e-02  2.55822334e-02
  -1.86020210e-02 -1.97947840e-03  4.95954677e-02 -7.39245415e-02
   5.98958954e-02 -1.32817449e-02 -3.42705995e-02 -9.16903839e-03
  -5.12789078e-02 -4.57408205e-02 -6.64145276e-02  5.88802472e-02
   6.38459697e-02  2.07039039e-03  2.18634680e-02 -2.55727135e-02
  -4.65123393e-02  5.36562726e-02 -4.35615368e-02 -3.77550535e-02
   2.34931074e-02  5.74817583e-02 -1.19470097e-02  3.39886770e-02
  -6.21690489e-02 -3.68675590e-02 -6.23199902e-02 -4.89764400e-02
  -7.96873495e-02 -6.17201366e-02  8.82686209e-03  4.35219854e-02
   5.25105111e-02 -6.56450018e-02 -6.85608387e-02  6.81066737e-02]
 [ 9.55643058e-02  8.31992999e-02 -8.96539316e-02  2.93393005e-02
  -7.82417953e-02  1.06906883e-01  5.70518859e-02  7.47834668e-02
   1.07547998e-01 -7.66504481e-02  5.03172055e-02 -5.79145811e-02
  -1.49277542e-02 -2.92461310e-02  7.84043968e-03  8.03117082e-02
   1.80146787e-02 -3.72379646e-02  5.47032580e-02 -6.75192429e-03
   2.03661192e-02 -9.53552946e-02  3.35197197e-03 -1.04575753e-02
  -3.74372713e-02  4.23075035e-02 -3.46780755e-03 -5.99929951e-02
  -1.07904568e-01  4.22590598e-02 -1.82494968e-02  7.46106729e-02
   3.04350331e-02  6.82201535e-02 -2.49891579e-02  3.68896052e-02
  -4.19034138e-02 -3.05949133e-02  5.15086427e-02 -6.54094517e-02
   8.60464796e-02  1.04589518e-02 -4.85078245e-03  1.60538889e-02
   4.29480746e-02 -6.02507778e-02  4.49031666e-02 -5.44419996e-02
  -3.61829847e-02 -3.17194499e-02  3.93514708e-02 -7.47436062e-02
   4.60977927e-02  8.74314532e-02  2.97282357e-02  5.18767312e-02
   7.63986167e-03  4.93756309e-02 -3.40242311e-02  6.45678118e-02
   1.10820495e-02  6.13776222e-02 -5.42303994e-02 -4.93250415e-02
  -1.13547064e-01 -8.85627121e-02 -7.06832483e-02 -2.29596496e-02
   5.93070351e-02  7.25883543e-02 -2.53849439e-02 -7.37343952e-02
   9.60821584e-02  2.93242559e-03  3.03696431e-02  4.37048823e-02
   2.08216738e-02  2.00050510e-02  6.67223036e-02  8.06410238e-02
  -5.55158816e-02  4.56515364e-02 -5.16006164e-02  1.33998543e-02
   3.02798748e-02  5.01367543e-03  1.13991648e-03  7.63952211e-02
   1.70122534e-02  5.79221398e-02 -2.00772714e-02 -5.51605783e-03
  -2.24497239e-03 -3.97219770e-02  1.14454550e-03 -4.20128256e-02
   2.78701913e-03 -3.24194995e-03  3.24431509e-02  2.20330376e-02
  -1.07549988e-02  1.06292263e-01  4.76138294e-03 -6.39351085e-03
   4.92027365e-02 -9.52479953e-04  1.03899568e-01  3.46655771e-02
   6.73355311e-02 -4.37439159e-02 -6.78036362e-02  3.50121409e-02
   1.07328892e-02  4.99620065e-02  2.22147591e-02 -3.58016267e-02
   3.21362237e-03  7.61099383e-02 -6.45162389e-02  6.92270622e-02
   1.80816930e-02  7.09874928e-02 -9.82061774e-02  2.06140429e-03
   6.75199330e-02 -1.00643048e-02  5.71322255e-02  5.04378378e-02]
 [ 1.05045207e-01  1.28715649e-01 -1.31614968e-01  1.26680627e-01
   4.18886862e-04  3.36003415e-02  1.05794512e-01  1.52247757e-01
   1.03848077e-01 -8.44895169e-02 -9.31993723e-02 -9.99408960e-02
  -3.41253774e-03 -6.43170029e-02  3.17421779e-02 -1.51224686e-02
  -1.64617635e-02 -5.12544438e-02 -3.84161919e-02  7.88773447e-02
  -1.68565214e-02 -1.45443022e-01  1.57946885e-01  8.09714124e-02
   1.51600980e-03 -2.76475307e-02  6.33294955e-02  5.74836209e-02
  -1.49242967e-01  6.58115372e-02  3.74747440e-02  3.49486060e-02
  -1.45935431e-01 -4.69172895e-02  2.02923641e-01 -2.63498649e-02
  -2.57914066e-02  4.42184694e-02  2.92260125e-02  1.26993150e-01
  -2.90525444e-02  5.01434729e-02  1.50616132e-02 -3.17054689e-02
  -1.22972012e-01 -6.26205876e-02 -3.57498378e-02  1.15317650e-01
  -4.03562486e-02  1.00304827e-01 -1.69627685e-02 -2.38388851e-02
   1.33203328e-01  1.98194975e-04 -6.32774830e-02  5.06981388e-02
   1.89966224e-02 -4.09543514e-04  1.65386572e-02 -2.12461203e-02
  -1.18923545e-01  1.49157703e-01 -6.93059936e-02 -4.60819826e-02
  -1.46327645e-01 -7.08346963e-02 -2.02297941e-02 -1.82087019e-01
  -1.15688751e-02  3.40039395e-02 -2.72320658e-02 -1.82490334e-01
   1.42907187e-01  1.08229049e-01 -3.30329500e-02 -8.19985867e-02
   2.35862471e-02  1.48532212e-01  1.37138262e-01  1.83456670e-02
  -4.73225564e-02  1.57031864e-01 -1.79729536e-02 -7.54554719e-02
  -9.26727504e-02  4.98254970e-02 -4.02214006e-02 -2.85370871e-02
   1.10971406e-01  1.89538464e-01 -5.01049906e-02  1.31987510e-02
  -6.53514341e-02  1.33102471e-02  1.16378158e-01 -3.75880226e-02
  -3.90986986e-02  1.82272308e-02  4.85360362e-02 -1.55707940e-01
   6.00133352e-02  1.02461606e-01 -2.16250867e-03 -1.52490065e-01
  -4.59282426e-03  1.77228242e-01 -4.01645079e-02 -2.85513941e-02
   1.26426488e-01  5.95340133e-02 -5.53340763e-02 -6.47393987e-02
   7.90128782e-02 -2.47402973e-02  1.62476197e-01  1.12400904e-01
  -1.01773441e-02  3.17329615e-02 -4.64076549e-02  7.64131695e-02
   9.23209339e-02  1.18878581e-01 -3.42263374e-03 -1.11848861e-02
  -3.74419466e-02  7.65568316e-02 -7.16070309e-02 -4.45951000e-02]
 [ 8.39133710e-02  1.00961201e-01 -8.99771824e-02  9.51929241e-02
   7.63272215e-03  7.39620104e-02  3.58082093e-02  1.22258559e-01
   2.84925532e-02 -1.07624434e-01 -1.30183935e-01 -3.30137764e-03
  -6.47423714e-02 -4.35688309e-02 -1.22464076e-02  6.76531792e-02
  -2.96412501e-02 -3.93740162e-02 -7.97686204e-02 -1.49173848e-02
  -3.42941377e-04 -4.93417121e-02  1.07337885e-01 -1.15214624e-02
   9.90419462e-02 -1.06262721e-01  1.91307560e-01  3.42819244e-02
  -1.96059700e-02 -6.70294985e-02 -2.03758851e-02  9.63567868e-02
  -1.45780563e-01  4.38673832e-02  4.73245122e-02 -1.42536941e-03
  -4.03757095e-02  3.53631526e-02 -5.40744886e-02  6.91472143e-02
   8.23442712e-02  9.83922705e-02  4.58463989e-02  3.56452242e-02
  -1.14634410e-01 -9.30370092e-02  5.85114099e-02  8.97946209e-02
  -2.48025358e-03  9.15045217e-02 -3.31117883e-02 -1.15581956e-02
   8.21935758e-02  2.99385060e-02 -1.85402066e-01  1.90629605e-02
   1.25965714e-01 -3.45272943e-02 -6.01458549e-03  7.90895894e-02
  -2.75426935e-02  4.18560281e-02 -5.09817787e-02  4.97843213e-02
  -7.33520985e-02 -1.31465137e-01  6.26292527e-02 -1.93393499e-01
  -5.53718209e-02 -2.77558193e-02 -9.41495523e-02 -7.64389038e-02
   2.02350780e-01 -2.78726704e-02 -3.24310027e-02 -1.00545026e-01
  -1.32380999e-04  1.23256691e-01  6.22755140e-02 -3.85830924e-02
  -7.09308460e-02  2.30698902e-02  1.72153506e-02 -1.04317777e-01
   4.41300906e-02 -1.70705542e-02  9.09217075e-03 -3.46327759e-02
   4.02410254e-02  8.09956193e-02  1.38260410e-04  8.93346742e-02
  -2.91258302e-02 -1.45100042e-01  2.04986036e-02 -1.27169162e-01
  -6.22102283e-02  7.38898525e-03  3.62464003e-02 -1.18089706e-01
   4.24358100e-02  1.71429113e-01  9.18648019e-03 -4.41768467e-02
   9.44278836e-02  1.05006084e-01 -1.21982722e-02 -7.32311755e-02
   1.56902298e-01  7.69905522e-02  1.09902974e-02 -8.04643333e-02
   2.40963437e-02 -8.45194329e-03  5.06600514e-02  1.04499884e-01
  -6.80762455e-02  1.31455258e-01 -3.13767083e-02  1.15306638e-02
   4.51484509e-02  1.18764296e-01 -1.08782120e-01  4.53751832e-02
   3.72394547e-02  4.88074794e-02 -3.66476290e-02 -2.00532600e-02]
 [ 9.62161086e-03  1.18667275e-01 -1.16041481e-01 -3.98046821e-02
  -1.58321448e-02  6.41699284e-02 -2.20332090e-02  1.69753686e-01
   6.46065176e-02  1.93831660e-02 -2.07966603e-02 -1.07670017e-01
  -2.85586603e-02  6.58417540e-03  5.55527620e-02 -1.79925933e-02
   2.63724346e-02 -3.04703340e-02 -7.41163120e-02  1.05312370e-01
   1.14547014e-02 -4.49415781e-02  2.29529887e-02 -2.36261841e-02
  -9.67698637e-03 -8.94566551e-02  2.90929265e-02 -5.51056452e-02
  -8.82541016e-02 -8.41232687e-02  2.30936781e-02 -1.61939617e-02
  -1.04452826e-01 -8.48841891e-02  1.24271892e-01 -4.16128859e-02
   1.12436898e-02  2.06322558e-02  3.94472294e-02  3.84877585e-02
   3.38841379e-02  8.38179588e-02 -2.41059847e-02  7.63708651e-02
  -6.55436292e-02  1.32345734e-02 -5.01945354e-02 -7.88836330e-02
  -7.41528869e-02  4.52488512e-02  5.36624119e-02  3.70715708e-02
   1.25161901e-01  5.85810281e-02 -1.83761101e-02  8.11560303e-02
   6.96439669e-02  6.47874027e-02 -8.48973840e-02  3.61785963e-02
  -2.99507491e-02  7.91760907e-02 -5.06117940e-02 -2.24896632e-02
  -8.35085213e-02 -5.12534790e-02  7.65534714e-02 -1.61014855e-01
   9.44227166e-03  9.65678948e-04 -3.09575330e-02 -1.13793105e-01
   9.66260955e-02  9.16530341e-02 -7.77225643e-02 -7.49066323e-02
  -2.85130106e-02  1.21401936e-01  4.18580286e-02  8.27346668e-02
  -1.06769964e-01  6.21714070e-02  1.36560211e-02 -6.08347123e-03
  -4.41868939e-02  1.41559336e-02  5.57378605e-02  1.44277159e-02
   2.90557705e-02  1.56267792e-01 -6.69271648e-02  9.94620845e-02
  -4.35192371e-03 -4.07762602e-02  6.31274581e-02 -1.12484485e-01
  -6.70208037e-02  5.79356402e-02  1.20367222e-02 -1.90766472e-02
   1.31422848e-01  9.04028863e-02  2.24843100e-02  1.83524378e-03
   1.39957026e-01  1.16243064e-01 -2.24342979e-02  9.56416246e-04
   4.81483936e-02  7.86564201e-02 -4.87530604e-02 -1.65964887e-01
   1.11324608e-01 -5.78499958e-02  3.62935476e-02  5.57044856e-02
  -8.46817419e-02  1.04362875e-01  2.19910033e-02  2.06148569e-02
   2.99748145e-02  1.07253110e-02 -1.78259332e-02 -2.55976580e-02
   2.14233790e-02  4.50587608e-02  1.25110392e-02 -2.03110911e-02]
 [ 1.05489288e-02  7.62156770e-02 -1.17437564e-01  5.39377965e-02
   4.41735312e-02  8.04473162e-02  1.16696626e-01  1.12030834e-01
   9.67492685e-02 -8.13837051e-02 -7.22561181e-02 -8.51198062e-02
  -5.21093532e-02 -1.22381859e-02  6.78749904e-02 -5.71549200e-02
  -1.93815026e-02  5.62810190e-02 -2.03618384e-03 -2.73535419e-02
   1.93512309e-02 -9.36659053e-02  1.26396567e-01 -1.15934182e-02
   3.38028185e-02 -4.74709924e-03 -2.63427813e-02 -7.76745426e-03
   9.91351064e-03  2.05996297e-02 -5.87220676e-02  8.89104418e-03
   4.51821871e-02 -1.87564511e-02  2.16043312e-02 -1.97963733e-02
  -9.91891045e-03  6.18125238e-02 -7.67867714e-02 -2.53694318e-02
   5.33320159e-02  6.01982102e-02 -3.24752182e-02 -1.09406626e-02
  -9.92798656e-02 -6.91171959e-02 -3.57388295e-02 -7.63063431e-02
   4.37548663e-03  3.42213511e-02 -4.08424959e-02 -3.56003046e-02
   8.54231566e-02  9.43683088e-02 -9.35522020e-02 -4.37203199e-02
   4.05138880e-02 -7.23277926e-02  5.03810346e-02 -6.92198351e-02
  -8.02992284e-02 -2.38971747e-02 -7.49368686e-03 -1.08039297e-01
  -1.84752755e-02 -3.98349836e-02  3.98887731e-02 -8.56607035e-02
  -2.36818362e-02  1.63706377e-01 -1.07756093e-01 -1.22835681e-01
   6.46241680e-02  5.40352687e-02 -1.07507251e-01 -2.51574926e-02
  -2.47607753e-02  1.07909910e-01 -1.34638671e-04  3.98497395e-02
  -3.08488752e-03  1.52035192e-01  3.85540677e-03 -7.73566961e-02
  -8.01201016e-02  2.72789076e-02  5.83637245e-02  3.66301388e-02
   2.03713328e-02  6.98227286e-02 -3.45010683e-02  2.96628643e-02
   1.07635044e-01  1.72081366e-02  5.08163981e-02 -1.46359712e-01
  -1.22063048e-01 -8.84557217e-02 -6.36005327e-02  5.70213757e-02
   6.57905042e-02  1.24822393e-01 -6.91511258e-02 -6.49462789e-02
   3.87715474e-02  8.93924460e-02 -2.89608985e-02 -8.29732865e-02
   6.59756809e-02 -6.76641008e-03  3.16493399e-02 -1.35538146e-01
   6.34080246e-02 -8.17076564e-02  5.77177331e-02  7.48240277e-02
  -9.20784380e-03  7.51001090e-02 -6.29919320e-02  4.18933928e-02
  -5.68914935e-02  6.67040870e-02  2.14463472e-02  7.10601732e-02
   1.05600074e-01  2.38400954e-03  1.18710682e-01 -6.86359173e-03]
 [ 6.82557970e-02  2.22162664e-01 -3.46614011e-02  2.08839774e-01
  -5.29542156e-02  2.17834443e-01  5.33454344e-02  2.43517563e-01
   6.68612346e-02 -1.02545604e-01 -3.34784649e-02 -2.02180091e-02
  -1.72570631e-01 -8.29907060e-02 -9.65745226e-02  9.48069058e-03
  -2.00269088e-01 -4.62914482e-02  8.18021521e-02  4.45174463e-02
  -2.08567247e-01 -6.70302957e-02  1.61252636e-02 -6.99621215e-02
   1.70328483e-01 -2.85404976e-02  1.65507406e-01  5.19033596e-02
  -7.34277815e-02 -4.80672754e-02 -3.20255309e-02 -2.95983776e-02
   1.03686385e-01  5.03728092e-02  2.67246068e-01  1.56242121e-02
  -7.68382475e-02 -1.57874316e-01  1.58974975e-02 -1.20634124e-01
  -4.25991789e-02  6.71746060e-02  5.63607737e-02  1.67074520e-02
  -1.44660532e-01 -1.08065739e-01  7.48719871e-02 -1.43408582e-01
  -3.64382192e-02  9.22731757e-02 -1.39201969e-01  3.32402080e-01
   1.73755690e-01  1.29193395e-01 -1.66500002e-01  6.18057624e-02
   1.16388850e-01 -1.36147380e-01 -6.90357247e-03 -1.58553287e-01
  -9.49972570e-02 -3.52974981e-02 -2.45294292e-02 -9.12475660e-02
  -9.44966823e-02 -9.43849683e-02  1.60974652e-01 -2.75367558e-01
  -1.48777934e-02  5.06047904e-02 -1.00140154e-01 -3.57271358e-02
   3.11717242e-02  8.20251554e-02 -5.07247150e-02 -9.63323489e-02
   5.50431758e-03  2.06385672e-01  2.21128926e-01 -5.76312002e-03
   6.91996962e-02  1.06473550e-01  1.68604273e-02 -1.67110711e-01
   2.78248712e-02 -8.66403580e-02  4.77939360e-02  9.54463780e-02
   1.77755598e-02  2.75748521e-01 -7.58680478e-02  9.69916135e-02
   1.28930639e-02 -1.33429512e-01  1.03938513e-01 -1.91456035e-01
  -1.23254940e-01 -5.05954921e-02 -5.48085235e-02 -6.82848413e-03
   1.46003157e-01  1.29892781e-01  2.15096623e-02 -7.08710775e-02
   8.29503015e-02  4.57921848e-02  5.56868538e-02  4.44954671e-02
   1.87269002e-01 -1.57778207e-02 -8.44963640e-03 -2.07980752e-01
   4.38074470e-02  2.12915037e-02  8.74242336e-02  8.82292911e-02
  -3.38591859e-02  3.49437445e-02 -1.42498523e-01  1.11277029e-01
   9.52724963e-02  2.84972250e-01 -1.80679604e-01  5.67173734e-02
   2.49544177e-02  1.68703534e-02  9.56356078e-02 -2.99115479e-02]
 [ 1.14762776e-01  5.74243255e-02 -1.62658870e-01  1.56713352e-02
  -2.16009608e-03  1.87991768e-01  1.32932931e-01  1.81446761e-01
   1.06791824e-01 -1.21705949e-01 -2.14299727e-02  1.13492385e-01
  -1.62657071e-02  2.59238780e-02 -9.87899750e-02  6.65008202e-02
  -1.52848616e-01 -6.31506518e-02  6.98348731e-02  3.71518508e-02
  -8.95881802e-02 -1.03699621e-02  1.33230552e-01 -1.08975567e-01
  -2.53663193e-02 -4.71327417e-02 -2.84347367e-02  7.45620951e-02
  -1.00213505e-01  1.09339543e-02 -1.26947001e-01  1.47072658e-01
   7.38800764e-02  1.09524289e-02  3.16733360e-01  1.53987641e-02
  -1.33383483e-01 -1.20868742e-01  1.40061364e-01 -3.00059244e-02
  -7.68483384e-03  1.21218801e-01 -2.71313731e-02 -5.12726977e-02
   1.12632550e-02  3.81418578e-02 -7.46879727e-03  3.58820818e-02
  -1.46532189e-02  6.87010121e-04 -1.19941868e-01  8.18274617e-02
   1.93899106e-02  5.34640774e-02 -4.58450243e-02  1.41125396e-01
   2.95978654e-02 -1.06410682e-01  5.15549332e-02 -1.06250182e-01
  -8.98633450e-02  1.18014783e-01  4.71895048e-03 -1.37451235e-02
  -1.98368765e-02 -5.22353330e-05  1.73098147e-01 -1.65196329e-01
  -2.81800702e-02  4.74663563e-02 -5.13179451e-02 -2.18560919e-01
   1.26820877e-01  1.18140556e-01  3.45990919e-02 -4.40567769e-02
  -9.52472836e-02  1.63071722e-01  2.30245993e-01  1.57423336e-02
  -5.40876798e-02  1.89638242e-01 -1.19249187e-01 -5.20830490e-02
   6.87049255e-02 -9.26218852e-02  9.41917151e-02  1.40485287e-01
   1.11738726e-01  2.16153428e-01  6.50494499e-03 -3.73682603e-02
  -7.89006893e-03 -7.08916634e-02  4.49860804e-02 -1.59644797e-01
  -8.67387578e-02 -5.55192158e-02 -2.08156034e-02 -3.89369950e-02
   1.41235054e-01  2.62623668e-01  1.66533202e-01 -2.92385127e-02
   2.13868394e-01  2.63246484e-02 -9.85832885e-03 -2.42202617e-02
   6.43555373e-02  1.32426620e-01 -1.06176082e-02 -2.60479808e-01
   9.13422257e-02 -1.28425453e-02  2.90980786e-02  6.36444688e-02
  -2.49438044e-02 -3.64832319e-02 -1.51533008e-01  1.68288767e-01
  -8.81475657e-02  1.78485245e-01 -1.13375947e-01  8.48836452e-02
  -2.91787013e-02  2.11419761e-01  6.93666339e-02  1.40376007e-02]
 [ 1.75147235e-01  1.60259262e-01 -1.38250619e-01 -1.52036874e-02
  -4.89010215e-02  1.08517461e-01  1.25406340e-01  2.52217740e-01
   2.64548417e-02  1.92350354e-02 -6.29281253e-02 -4.88565490e-02
  -1.38191255e-02 -3.68836820e-02 -4.99413610e-02  4.78324387e-03
  -5.31945601e-02  7.40786120e-02  1.58282109e-02  8.35440159e-02
   7.23041371e-02 -1.48265779e-01  6.37985617e-02  1.17207095e-01
   9.89591628e-02 -9.58134606e-02  9.61435363e-02  7.51134232e-02
  -6.35085478e-02 -4.14924733e-02 -2.99235210e-02  1.16730459e-01
  -1.84565112e-02 -3.38193076e-03  1.38337478e-01  6.07647859e-02
  -1.38219461e-01 -1.76463589e-01  1.75250918e-02 -1.36909157e-01
  -3.30606773e-02  8.42590779e-02  5.72025441e-02 -1.62152071e-02
  -8.46356079e-02  9.93596986e-02  1.36359455e-02  4.45366241e-02
  -8.67910832e-02  9.01102200e-02 -4.88999076e-02  4.10002060e-02
   6.96227476e-02  4.61159199e-02 -9.31510776e-02  6.31796643e-02
   1.95461303e-01 -7.08258525e-02  1.42713618e-02 -5.03041483e-02
  -6.00659987e-03  8.43330398e-02 -2.47462559e-02 -4.50353250e-02
  -1.80530343e-02  8.86629708e-03  1.29135191e-01 -1.42437667e-01
  -7.13961245e-03  1.09842710e-01 -1.12773851e-01 -1.34897083e-01
   1.99580535e-01  1.78456783e-01 -1.20860666e-01 -1.06886299e-02
  -1.29477322e-01  8.14960003e-02  1.40808031e-01 -5.66828549e-02
  -4.93766889e-02  8.48808214e-02  1.03622070e-02 -7.97935352e-02
  -3.43509689e-02 -4.04116921e-02  3.17214243e-02  2.71411892e-03
  -4.03322317e-02  2.30291635e-01  3.85387652e-02  1.97435096e-02
  -1.12748623e-01 -1.63823768e-01  7.59372264e-02 -1.70422345e-01
  -1.78784654e-01 -1.10876031e-01  3.92093956e-02 -7.35878572e-02
   1.32809073e-01  2.31801674e-01  1.33025452e-01 -1.37966499e-01
   1.91442713e-01  1.67534575e-01 -4.12433892e-02  9.63430554e-02
   1.74555928e-01  1.20168872e-01 -2.61687636e-02 -1.23686511e-02
   3.40682529e-02 -1.37823513e-02  1.21753581e-01  1.89396814e-01
  -8.28733221e-02  1.92316864e-02 -1.14411972e-01  1.10612996e-01
   3.30342539e-02  2.18238503e-01 -2.07198597e-02  1.20512322e-01
  -1.39485866e-01  1.11189857e-01  2.82241753e-03 -1.80715054e-01]
 [ 8.63312185e-02  1.60316810e-01 -1.51291609e-01  3.62266973e-02
  -5.81864454e-02  1.26047298e-01  8.81443843e-02  1.11432448e-01
   6.42776340e-02  5.70551902e-02 -2.53226489e-01  1.75748374e-02
   3.49439383e-02 -8.48335996e-02 -2.77718026e-02 -8.26320350e-02
  -1.09975442e-01 -1.39825856e-02  9.64011475e-02  2.34666299e-02
  -3.78186591e-02 -4.20129076e-02  9.43189114e-02 -2.28395499e-02
   1.27099186e-01 -1.25090271e-01 -3.94502608e-03  4.01324257e-02
  -1.05029047e-01 -5.40524647e-02 -5.97999245e-02 -1.71622206e-02
  -8.13369080e-02 -3.19534242e-02  2.46810660e-01 -9.38594639e-02
  -1.24013320e-01 -1.78239554e-01  3.93369123e-02 -3.53693077e-03
  -1.04199111e-01  1.58763260e-01 -4.93672490e-02  3.58847938e-02
  -1.22966595e-01  1.27921939e-01  9.53777358e-02  1.19942553e-01
   2.79623754e-02  1.45859256e-01 -1.01131313e-01  7.63904080e-02
   6.48675114e-02  1.33641614e-02 -1.77078813e-01  1.70476541e-01
   2.14118317e-01 -6.61265925e-02  1.01892473e-02 -1.71252096e-03
  -8.60946774e-02  1.02089904e-01 -1.51690617e-01 -1.52051938e-03
   6.02533482e-02 -7.65905082e-02  2.30988696e-01 -6.56387061e-02
   2.24058125e-02  1.36055723e-01 -2.06518382e-01 -6.22358955e-02
   1.38301373e-01  1.80682257e-01 -1.49692163e-01 -1.10478483e-01
  -1.26205489e-01  1.00141570e-01  2.73949385e-01 -2.33591124e-01
  -2.00918261e-02  1.80719420e-02 -9.58285853e-03 -1.87732339e-01
  -3.57729383e-02 -3.92024443e-02  1.21318899e-01 -4.79504652e-02
  -8.03631172e-03  1.19208425e-01  4.65417914e-02  1.14663634e-02
  -4.26531434e-02 -9.76417214e-02  1.27358139e-01  9.48934536e-03
  -2.09570467e-01 -6.09452883e-03  4.04004194e-02 -6.43038303e-02
   1.42900944e-01  1.41658306e-01  1.98025964e-02 -1.17733382e-01
   1.02270603e-01  2.02771634e-01  9.19508711e-02  7.23956749e-02
   7.81933069e-02  1.46903455e-01 -4.28467952e-02 -1.73757851e-01
   1.59780473e-01 -7.97761828e-02 -2.36309934e-02  1.76114202e-01
  -2.01392248e-01 -3.43544967e-02 -1.86076134e-01  1.74640734e-02
  -1.00894161e-01  1.60571709e-01 -1.57913119e-01  1.02062046e-03
  -3.71271037e-02  8.35967734e-02  1.22809462e-01 -1.23903848e-01]
 [ 8.14180374e-02  3.96708623e-02 -2.16883048e-02  1.06567226e-01
   2.58482564e-02  4.13830243e-02  2.48848670e-03  2.98691928e-01
  -9.51817259e-02  1.36811420e-01 -5.59702888e-02  5.84992170e-02
  -2.29825620e-02  4.61174846e-02  3.70375775e-02  1.88603215e-02
  -7.00258017e-02  1.02517240e-01 -5.16281044e-03 -1.92317981e-02
  -6.35505319e-02  7.89507255e-02 -1.27876438e-02  8.06197077e-02
  -2.17576325e-03  6.57215044e-02  6.68110549e-02  1.11552104e-01
  -7.02863112e-02  1.41628414e-01 -1.45821899e-01 -3.54451835e-02
   4.48364317e-02 -8.39413479e-02  1.55219525e-01  4.93474938e-02
  -1.89568195e-02 -8.15719664e-02 -9.73223243e-03  6.14935979e-02
  -3.53065394e-02  2.71479875e-01  1.77803352e-01 -5.90920970e-02
  -7.85095915e-02 -2.93249823e-02  1.65086519e-02  1.64118424e-01
   4.93206957e-04 -1.11444546e-02 -7.89736435e-02  3.10713619e-01
   6.64644092e-02  6.66953847e-02 -8.67037699e-02  1.38927266e-01
  -9.19739455e-02  1.17849439e-01  5.12070954e-02  2.68718839e-01
  -1.05238102e-01  6.00112565e-02 -1.71254054e-02 -4.56740446e-02
  -4.42680670e-03  4.56789928e-03  2.24966072e-02 -5.89576736e-02
   2.51402967e-02  1.95910454e-01  2.65256912e-02  7.90547207e-03
   2.93564349e-01  3.73213924e-02 -5.34134358e-02  7.46861249e-02
  -1.22805424e-01  5.25030829e-02 -4.10126410e-02 -1.01858497e-01
  -2.28921287e-02  6.47540437e-03  1.43388599e-01  4.60689478e-02
  -1.38417944e-01  9.58294421e-02  3.49016756e-01 -1.50460795e-01
   4.10617255e-02  1.34431571e-02 -6.62949309e-02  1.29007250e-01
   6.55638799e-02 -1.79334134e-02 -9.34344833e-04 -9.13065076e-02
  -2.38243844e-02 -7.67379850e-02 -1.22199990e-01 -3.66787501e-02
   4.19263951e-02 -5.90837910e-04  1.03987835e-01 -1.17442578e-01
   1.99069846e-02  1.87390402e-01 -3.91118377e-02  2.46298403e-01
  -6.33431450e-02 -1.62953034e-01 -1.79402288e-02 -6.53413832e-02
   8.63258094e-02  2.70484854e-03 -1.00385904e-01 -4.75954898e-02
   1.69622116e-02 -6.80756802e-03 -1.54296920e-01 -1.62702218e-01
  -8.70220363e-02  5.32615557e-02 -7.37306252e-02  2.15434089e-01
  -7.73690417e-02 -1.19262040e-01  1.06882922e-01  2.36390587e-02]
 [ 1.62679553e-01  4.87322472e-02  8.39748420e-03 -2.50058025e-02
   4.16369960e-02  3.70723456e-02  3.11218277e-02  7.82752261e-02
  -1.44406566e-02  9.60407481e-02 -1.45468220e-01 -4.64433655e-02
  -7.03541795e-03  6.43002391e-02  9.94661152e-02  8.21132734e-02
  -3.22753787e-02 -1.02186212e-02 -1.77622475e-02  1.76609501e-01
   6.85997307e-04 -1.54185649e-02  2.20283270e-01  1.52337968e-01
  -1.76129825e-02 -5.80043439e-03  7.19210505e-02 -7.70730805e-03
  -1.10196173e-02  2.39401720e-02 -2.14491934e-02  1.16056412e-01
  -2.07523890e-02  3.16773541e-02  2.25833684e-01 -4.78137657e-02
  -1.03783906e-01 -1.93893299e-01  2.52785683e-02  6.65226057e-02
   1.84083939e-01  2.80885845e-01  1.34032860e-01 -7.02735558e-02
  -1.58067465e-01  1.06935076e-01 -9.65790823e-02  1.71396181e-01
  -4.47559394e-02  1.38424918e-01 -1.00328512e-01  1.83051899e-01
   1.10395402e-02  3.86506468e-02 -1.48602515e-01  1.20779179e-01
  -3.55726555e-02  1.39003992e-01 -2.46040318e-02  1.12238958e-01
  -5.57174720e-03  7.38705099e-02 -1.19215123e-01 -8.20028260e-02
   6.20397963e-02 -1.02508537e-01 -5.28211556e-02 -5.39425254e-01
   1.69157639e-01  2.71039307e-01 -8.95208940e-02  6.13701623e-03
   2.44645432e-01 -8.15595035e-04 -6.94602430e-02  1.23642674e-02
  -1.05313249e-01  9.44391731e-03 -5.59317768e-02 -3.72110344e-02
  -1.30926803e-01 -6.96171746e-02  2.81142164e-02 -9.86316726e-02
  -8.93680751e-02  1.46498233e-01  5.74396253e-02 -5.01620071e-03
  -6.23478442e-02  7.20287636e-02  6.50524646e-02  2.11553574e-02
  -1.26998112e-01 -3.95460129e-02 -1.79463968e-01  2.62813699e-02
  -2.86445260e-01 -6.08192682e-02  4.31318022e-02  1.65403879e-03
   5.94506189e-02  1.67258441e-01  7.56063983e-02 -8.88210163e-02
   1.51536584e-01  1.37301788e-01  6.91651031e-02  9.28389803e-02
   2.56321222e-01  1.27562797e-02 -3.59000154e-02  3.98462005e-02
  -1.73341542e-01  1.01497576e-01 -3.62501293e-02  6.47769570e-02
  -1.23243399e-01  1.26312375e-01 -1.66945323e-01  8.36844891e-02
  -1.33338213e-01 -3.01695038e-02 -1.13935396e-01  1.92788526e-01
  -4.82023396e-02  7.43671693e-03  5.96697861e-03 -5.55967391e-02]
 [ 1.36270732e-01 -5.53745739e-02  9.93248168e-03 -1.32234350e-01
  -2.05075145e-02  3.05605114e-01  2.63064355e-01  5.52268587e-02
   8.46858472e-02  7.60554001e-02 -9.30250734e-02 -1.86169595e-02
   2.06813380e-01  7.04844892e-02  4.47181985e-02 -7.34830126e-02
   1.24821372e-01 -1.95402458e-01  2.53630392e-02  1.40029162e-01
   8.76498520e-02  2.87248194e-02  1.94405854e-01  3.47601920e-02
  -2.36476641e-02 -6.91575482e-02 -9.33432728e-02  4.11636755e-02
   1.88061688e-02 -1.74401522e-01  3.04901171e-02  8.31397325e-02
   3.37565988e-02  1.44195169e-01  6.50658607e-02 -3.50608081e-02
  -1.42533675e-01 -6.13847710e-02 -2.22593229e-02  9.08940136e-02
   1.26431072e-02  3.93285215e-01  1.58876717e-01  3.26946042e-02
  -4.28607352e-02  9.01040733e-02 -9.01946649e-02  1.91037297e-01
   6.65290132e-02  1.57130927e-01 -2.19388962e-01 -4.83830832e-02
   1.20894663e-01  4.46354151e-02 -3.33324522e-02  1.16840295e-01
   9.32701528e-02  5.66042541e-03 -4.36151251e-02 -7.12419674e-02
   1.35994870e-02  2.21429646e-01 -1.05561703e-01 -2.43240908e-01
   1.76705733e-01  4.01064232e-02 -1.00573316e-01 -4.88783062e-01
   7.39881471e-02  3.73365730e-01  1.80867203e-02  2.30642017e-02
  -3.13950628e-02  9.97182131e-02 -5.97721115e-02 -1.11114681e-01
  -3.64351571e-02  4.71789762e-02  1.33224413e-01 -4.64840233e-02
  -1.27870813e-01  1.71048522e-01 -6.70128837e-02  7.94925261e-03
   1.68834515e-02 -5.87881170e-02  1.26091586e-02  1.95745245e-01
   6.56549707e-02  6.14514165e-02 -1.89293697e-02 -1.56209111e-01
  -1.10648058e-01 -1.02442525e-01 -4.46515754e-02  7.34947100e-02
  -1.79127216e-01  2.08552375e-01  2.28157882e-02 -5.14240488e-02
  -7.57269785e-02  4.18077409e-01  1.50221838e-02 -3.16478819e-01
   1.24170661e-01  2.26952076e-01  1.44111976e-01  2.17369255e-02
   1.74477190e-01  1.07194059e-01  5.72934188e-02 -1.41594917e-01
  -1.30759120e-01  1.40399531e-01  2.75984764e-01  3.00408248e-02
  -2.18900386e-02 -3.25518171e-03 -2.46285070e-02  2.73483396e-01
  -1.10326022e-01  3.38888802e-02 -2.27194548e-01  1.10527739e-01
  -1.75633524e-02  2.38091603e-01 -2.06069332e-02 -7.81137049e-02]
 [ 1.05859436e-01 -2.80056745e-02 -5.07045239e-02  1.92365199e-02
  -6.26774207e-02  1.49493128e-01  1.91496700e-01  3.95519882e-02
   1.65069714e-01  7.27679431e-02 -1.34204999e-01 -1.35004550e-01
   1.58279743e-02 -1.74618419e-02 -5.43516576e-02 -2.29254067e-02
   3.39154676e-02 -2.19060734e-01  2.45127846e-02  1.50622517e-01
  -3.45753188e-06 -7.43811354e-02  1.65016055e-01  2.36909259e-02
   9.77101326e-02 -1.71820819e-02 -5.02203181e-02  1.50924344e-02
  -7.51603022e-02 -1.62608564e-01  5.63332327e-02  4.21320572e-02
  -3.48918028e-02  9.34865400e-02  6.51156604e-02 -4.16934080e-02
  -1.94932923e-01  1.94151867e-02  1.51506346e-02  1.24438100e-01
   8.07732195e-02  1.39926255e-01 -4.09555547e-02  2.73566116e-02
  -4.31779400e-02  1.34848610e-01 -8.33732113e-02  1.58105001e-01
   4.03079018e-02  9.38791484e-02 -6.94833919e-02  4.91653234e-02
   1.28518403e-01 -1.71538331e-02 -1.57097027e-01  6.18692078e-02
   2.54591107e-01 -1.58462092e-01 -4.92032021e-02 -2.84361571e-01
  -6.65158182e-02  1.12945423e-01  5.53399976e-03 -1.44476011e-01
  -8.64947811e-02  2.55479123e-02 -9.85328704e-02 -2.16984838e-01
  -9.13122371e-02  1.22740395e-01 -1.04684114e-01 -4.09065373e-02
   1.25220582e-01  8.40785354e-02 -1.14072561e-01 -1.39780015e-01
  -1.70762077e-01  4.60178293e-02  1.89041749e-01  2.12125126e-02
  -2.52658334e-02  1.63798109e-01 -9.57036987e-02 -1.06010893e-02
  -7.18043000e-02 -8.40562880e-02 -4.48662266e-02  1.44820437e-01
   4.06866595e-02  1.52757689e-01  8.77351984e-02  2.29032128e-03
  -9.87863168e-02 -1.91960886e-01  8.49299505e-03 -1.14647478e-01
  -1.67367935e-01  4.34338674e-02 -5.41242175e-02 -1.74177382e-02
   3.00515331e-02  4.07305002e-01  1.35721862e-01 -1.07496537e-01
   1.55554846e-01  1.69828102e-01  2.20824584e-01  6.93755597e-03
   2.11141855e-01  1.75848261e-01 -5.30868098e-02 -4.29127738e-02
  -6.81122914e-02  1.35895446e-01  2.28359640e-01  5.93415052e-02
  -6.46023974e-02  2.05258615e-02 -1.20706677e-01  1.30958512e-01
  -8.39493573e-02  4.48561534e-02 -2.41159722e-01  5.89205213e-02
  -1.47635013e-01  1.39144063e-01  1.54944137e-03 -7.71269202e-02]
 [ 3.55572663e-02  1.57869384e-01 -1.77904237e-02  8.28789994e-02
  -6.79714158e-02  1.33551896e-01  4.54957746e-02  3.65906060e-02
   1.91502631e-01  2.05463588e-01 -1.55536449e-02 -6.90401718e-02
   1.91697162e-02 -8.03223997e-02  5.33669256e-02  3.80448885e-02
  -8.40102881e-02  8.39943215e-02  4.47739847e-02  7.05120713e-02
  -4.93840389e-02 -1.05375070e-02  1.80789798e-01  8.72442350e-02
   3.45793106e-02 -1.13003947e-01  1.90427378e-01 -1.70972757e-02
  -1.22155674e-01 -1.06760323e-01  2.57654507e-02 -8.45746510e-03
   9.64179263e-02  3.18331793e-02  1.91450730e-01  6.10851832e-02
  -1.32809088e-01 -1.63099587e-01  2.86923703e-02 -9.84324422e-03
   1.54278688e-02  1.72147110e-01 -3.60579155e-02  1.90615013e-01
  -9.54039693e-02 -2.24104732e-01 -3.66404951e-02  9.98660251e-02
  -6.36986969e-03  1.71909869e-01 -1.21138297e-01  7.87498429e-02
   1.44138113e-01  6.07016422e-02 -2.05686957e-01 -3.16124782e-02
   7.90664703e-02  1.45558789e-02 -6.81729615e-02 -1.26933753e-01
  -7.47362748e-02  1.72977410e-02 -5.26867136e-02 -4.19867449e-02
  -2.14643389e-01 -1.11554950e-01  9.02249813e-02 -1.73634917e-01
  -6.53966963e-02  1.37955651e-01 -3.56907584e-02 -1.45692796e-01
   2.21293315e-01  3.15479785e-02 -5.40669635e-02 -1.57476202e-01
  -5.71510755e-02  1.87424466e-01  1.97690055e-01 -1.46007270e-01
  -7.24676671e-03  1.24774287e-02  2.59495166e-04 -1.55014750e-02
   2.28002239e-02 -1.50290594e-01  2.00586274e-01  5.29790707e-02
   9.92565230e-02  2.31675640e-01  3.61648342e-03  1.18520424e-01
   3.07889539e-03 -8.93887281e-02  1.03203692e-01 -1.98350042e-01
  -1.11306205e-01  2.15750132e-02 -6.43635122e-03  4.95790392e-02
   8.44099820e-02  2.77227044e-01  1.65462226e-01 -1.95331201e-02
   4.73124310e-02  9.96301472e-02  2.77245522e-01  9.23104212e-02
   1.76094934e-01  1.24731354e-01  3.58424196e-03 -1.10146128e-01
   3.52689065e-02 -1.34615032e-02  3.33517790e-02  6.26407787e-02
  -4.61438391e-03  5.05008735e-03 -1.31209850e-01  3.99235711e-02
   7.03676268e-02  1.05371960e-01 -1.39976799e-01  4.13488746e-02
   9.69599113e-02  2.89244857e-02  3.27620916e-02  1.39122549e-03]
 [ 9.58340839e-02  1.60082892e-01 -5.16189560e-02  1.49789914e-01
   2.47106701e-02  2.12046906e-01  1.79120362e-01  1.21028051e-01
   1.40831277e-01 -1.45210582e-03  1.64653882e-02 -1.42364413e-01
   2.81656850e-02 -9.82934535e-02  6.95407689e-02  1.82930995e-02
  -1.96920067e-01  9.90941599e-02  1.01045873e-02  9.84177738e-02
  -1.13578968e-01 -1.83746982e-02  8.74670520e-02  1.65623695e-01
   1.91544339e-01 -1.05741858e-01  1.34160697e-01 -6.83876947e-02
  -2.22167298e-01 -1.47303194e-01 -8.39612484e-02 -1.28477653e-02
  -1.47586524e-01 -1.17863864e-02  1.94413051e-01  4.44965065e-02
  -8.14412683e-02 -1.00415818e-01 -3.62228751e-02 -7.21367598e-02
