le_net5/conv2d/kernel:0
(5, 5, 3, 6)
[[[[-0.20563486  0.33824614 -0.12169127 -0.00942792 -0.10636555
    -0.06519447]
   [ 0.1565256   0.3085345  -0.05563051  0.23083015 -0.12434241
     0.14456731]
   [ 0.56917834  0.43801373  0.42137602  0.40305746  0.20353873
     0.49487305]]

  [[-0.16928914  0.23556389 -0.02759766 -0.23541318 -0.16149585
    -0.24908458]
   [ 0.00775613  0.29198405  0.01555534  0.31658855  0.07298639
     0.25357804]
   [ 0.45380807  0.4303612   0.5106064   0.30106196  0.23967338
     0.4245533 ]]

  [[ 0.039351    0.17198665 -0.17728318 -0.15419106 -0.1363465
    -0.02638534]
   [-0.01026434  0.29163858  0.00662817  0.08234481 -0.10642183
     0.13123323]
   [ 0.32028553  0.60121673  0.50562257  0.14088237  0.22298343
     0.47999373]]

  [[-0.11337732  0.19393812 -0.20249161 -0.36265382 -0.15964839
    -0.23290646]
   [ 0.08717151  0.3507746   0.1502945   0.10016747 -0.00625398
     0.16097578]
   [ 0.4371607   0.3000002   0.29635152  0.15062544  0.13504493
     0.47230855]]

  [[-0.19530629  0.2810195  -0.28633147 -0.34585252 -0.11757324
    -0.32556945]
   [ 0.05394194  0.2114065   0.03101025 -0.10728464 -0.07287359
     0.1720044 ]
   [ 0.47859973  0.4802378   0.36512116 -0.03762283  0.1399455
     0.49307066]]]


 [[[-0.22467755  0.20696539 -0.30875298 -0.20518681 -0.22395109
    -0.15896232]
   [-0.04588759  0.07231341  0.11540427  0.19509941 -0.01991615
    -0.04935135]
   [ 0.29867274  0.53638446  0.31913465  0.1711881   0.42588365
     0.35780886]]

  [[-0.10803653  0.21276405 -0.1749534  -0.00633843 -0.3036612
    -0.35213035]
   [-0.07427186  0.14170206 -0.05742432  0.09932764  0.01772375
     0.12988313]
   [ 0.3510345   0.38264197  0.37760776  0.14366812  0.30057922
     0.29747057]]

  [[-0.05091043  0.06370384 -0.046236    0.02719296 -0.26973015
    -0.34231192]
   [ 0.05455173  0.09081327  0.00549083  0.23236017  0.01167437
     0.10697754]
   [ 0.49318594  0.49684173  0.34787804  0.19713344  0.25144604
     0.337372  ]]

  [[-0.23266613  0.13077225 -0.15554792 -0.33868712 -0.28195602
    -0.3341173 ]
   [-0.09656426  0.15778522 -0.10604558  0.12187367 -0.15703624
     0.03163213]
   [ 0.3501335   0.45867935  0.2632232   0.00614097  0.13508108
     0.364403  ]]

  [[-0.07972243  0.24534768 -0.35930097 -0.49078846 -0.24999428
    -0.3050684 ]
   [-0.04610689  0.0982826   0.04234824 -0.02072605 -0.04053853
    -0.10370634]
   [ 0.2742935   0.2956385   0.18174265 -0.18293104  0.28423607
     0.42794225]]]


 [[[-0.22495873  0.00078635  0.02198146 -0.06039189 -0.10545836
    -0.29586193]
   [-0.1949712  -0.2119714  -0.0837339   0.02723314 -0.10363208
    -0.02751375]
   [ 0.4633838   0.18018225  0.31291354  0.0945166   0.23494583
     0.3260061 ]]

  [[-0.24012503  0.03705854 -0.1056345   0.05523055 -0.26344287
    -0.27675113]
   [-0.15960018 -0.20349276 -0.08881073  0.28365052 -0.22472955
     0.15730701]
   [ 0.3590759   0.25879788  0.56051517  0.17370367  0.4335301
     0.38225654]]

  [[-0.33313859 -0.18401875 -0.10189834 -0.21042861 -0.2402843
    -0.3438152 ]
   [-0.21604976 -0.02559625 -0.02631836  0.16181271 -0.08797865
     0.15350829]
   [ 0.29063484  0.29086298  0.27634048  0.03799194  0.19283642
     0.2348112 ]]

  [[-0.3878685  -0.16126652 -0.08204296 -0.11588259 -0.2638662
    -0.25549638]
   [-0.00487007 -0.07571805 -0.0871144   0.17878261 -0.07104155
     0.1410557 ]
   [ 0.3326968   0.12777649  0.45829448 -0.02742659  0.12955844
     0.22112662]]

  [[-0.2857518  -0.11170403 -0.11356559 -0.48215187 -0.07904255
    -0.37930712]
   [-0.19626576 -0.20309907 -0.10864238 -0.06163686 -0.22598441
    -0.13026032]
   [ 0.26053387 -0.11980235  0.19055207 -0.14372991  0.17648509
     0.40237832]]]


 [[[-0.325815   -0.354709   -0.2097395  -0.14421819 -0.04767886
    -0.4072396 ]
   [-0.27422744 -0.37205923  0.08651883  0.05585631 -0.24934876
    -0.16962947]
   [ 0.35930622 -0.11173041  0.22480763  0.01832228  0.39347196
     0.41512895]]

  [[-0.35271248 -0.24772888 -0.19249006 -0.26661038 -0.29520988
    -0.3430695 ]
   [-0.23527813 -0.3939513  -0.03900098  0.16583294 -0.05610549
    -0.18167369]
   [ 0.4014767  -0.18435238  0.5077593   0.20992135  0.17532744
     0.40287304]]

  [[-0.17009687 -0.41740233 -0.03759388 -0.02280567 -0.18885499
    -0.40917623]
   [-0.25811386 -0.67791104  0.03836084  0.1955743  -0.1003359
    -0.0098905 ]
   [ 0.27132118 -0.29572332  0.3202623   0.22018297  0.10958381
     0.21205603]]

  [[-0.33762044 -0.4084035  -0.06098971 -0.12343218 -0.31082663
    -0.3465586 ]
   [-0.20417778 -0.55451554 -0.18371837 -0.13228005 -0.115692
     0.03322192]
   [ 0.37097797 -0.11464685  0.32346177 -0.12896454  0.24590112
     0.1427339 ]]

  [[-0.37383068 -0.472331   -0.18227914 -0.3237855  -0.23419218
    -0.43909597]
   [-0.1728534  -0.4498711  -0.17886734 -0.00086101 -0.14466201
    -0.0198554 ]
   [ 0.37403628 -0.22467385  0.27111453 -0.1732756   0.31712812
     0.17898059]]]


 [[[-0.23646727 -0.43610457 -0.05366099 -0.2718476  -0.37394884
    -0.4154069 ]
   [-0.0145993  -0.45902348 -0.16040203  0.09256659 -0.23106782
    -0.04034375]
   [ 0.29382756 -0.17128697  0.38130963  0.12610584  0.30591753
     0.3221718 ]]

  [[-0.14314117 -0.27587068 -0.19554487 -0.10470531 -0.31782216
    -0.32484767]
   [-0.04430084 -0.49002528 -0.17568241  0.19505712 -0.30215636
    -0.04804583]
   [ 0.2897876  -0.23062506  0.40045387  0.06892417  0.23566438
     0.22919363]]

  [[-0.25020278 -0.51189727 -0.17033596 -0.05997958 -0.16549495
    -0.19223551]
   [-0.0337209  -0.5913259  -0.24801266  0.08449089 -0.34396905
    -0.27136114]
   [ 0.26873624 -0.20596918  0.38390246  0.06090456  0.28634012
     0.14697129]]

  [[-0.09381755 -0.5782719  -0.06823794 -0.39254874 -0.21256036
    -0.21302737]
   [-0.3095522  -0.42778647 -0.31815514 -0.03940131 -0.31746265
    -0.32709315]
   [ 0.43762022 -0.06590267  0.3660023  -0.13583596  0.2543299
     0.3720706 ]]

  [[-0.2202007  -0.6143113  -0.12442759 -0.15452957 -0.41256014
    -0.26447102]
   [-0.2287899  -0.69439137 -0.19010934  0.17847666 -0.23553136
    -0.10603587]
   [ 0.34667683 -0.1586145   0.24206676 -0.08630572  0.29099128
     0.06392071]]]]
le_net5/conv2d/bias:0
(6,)
[-0.72710264 -0.41887236 -0.89274496  0.05001405 -0.30771318 -0.7117024 ]
le_net5/conv2d_1/kernel:0
(5, 5, 6, 16)
[[[[-1.01198688e-01 -1.11221917e-01 -2.08283573e-01 -6.36415407e-02
    -2.27333277e-01 -1.60398021e-01 -1.80509657e-01 -8.07710364e-02
    -1.22014388e-01 -7.91670382e-02 -1.82186574e-01 -3.81816268e-01
    -2.57998317e-01 -4.28969264e-02 -2.98629463e-01 -1.37385502e-01]
   [ 3.91811281e-01 -1.01049468e-01 -1.91965103e-01 -1.95028841e-01
     5.37783094e-02 -1.58860952e-01  1.36762023e-01  4.55101937e-01
     7.15783536e-02  1.93798214e-01 -5.35872102e-01 -6.01642728e-01
     3.46327901e-01  1.64831668e-01  1.98666438e-01 -1.24492966e-01]
   [-4.06249091e-02 -1.12615943e-01 -1.75273880e-01  3.75788808e-02
    -1.21155500e-01 -1.08312227e-01 -7.01761395e-02 -9.61899012e-02
    -1.34311870e-01 -1.46398619e-01 -8.38131085e-02 -2.21892327e-01
    -2.19136536e-01 -1.07386641e-01 -3.42528850e-01 -1.46588221e-01]
   [-2.30062917e-01 -8.94071609e-02  4.00338545e-02  9.29365009e-02
    -2.94906050e-01 -1.65678099e-01  1.13709159e-01  1.67318463e-01
     1.59989983e-01 -2.29859337e-01 -3.18454832e-01  1.04426302e-01
    -4.30961370e-01 -5.03107123e-02 -5.15008032e-01  1.11678533e-01]
   [-1.24953978e-01 -7.13664591e-02 -7.93849677e-02  1.53463194e-02
    -3.41981590e-01 -1.98799565e-01 -7.54612684e-02  3.17878813e-01
     2.45568186e-01 -7.54729733e-02 -4.14129525e-01 -3.70463610e-01
    -2.53438383e-01  5.90183027e-02 -4.60573345e-01 -2.75246710e-01]
   [-6.05455376e-02 -3.05018216e-01 -1.11769304e-01 -1.62381455e-01
    -2.93305337e-01 -2.23172352e-01 -6.96394891e-02 -2.75187735e-02
    -6.87183719e-03 -1.38309553e-01 -2.76449263e-01 -2.78762549e-01
    -4.12006378e-01 -2.45913804e-01 -4.86421853e-01 -2.29418173e-01]]

  [[-7.93279409e-02 -7.63982907e-02 -2.30830193e-01 -1.92407474e-01
    -1.06534831e-01 -1.75186649e-01 -1.29504442e-01 -1.40510038e-01
    -1.15341179e-01 -5.81684895e-02 -1.23944215e-01 -2.23619282e-01
    -2.69968361e-01 -2.17780441e-01 -4.28595066e-01 -1.34643018e-01]
   [ 1.41232640e-01  6.55980632e-02 -3.29444617e-01 -1.21224709e-01
     9.22401324e-02 -1.29144713e-01  1.59028955e-02  5.12978971e-01
     2.08654553e-01 -3.16210538e-01 -4.37866956e-01 -6.48434401e-01
     2.11313516e-01  1.83512315e-01  2.28043675e-01 -7.43892044e-02]
   [-5.82415462e-02 -6.42679408e-02 -1.28237441e-01  3.00123263e-02
    -1.86984852e-01 -1.63678825e-01 -1.48361504e-01 -3.16653639e-01
    -1.02852948e-01 -1.79793574e-02  2.98045259e-02 -5.41890562e-02
    -2.94216245e-01 -1.48414314e-01 -2.48356149e-01  4.44465652e-02]
   [-2.86750823e-01 -1.83993757e-01 -4.13576216e-02 -2.43639410e-03
    -2.27650672e-01 -5.80626167e-02  4.41165268e-03  4.74061742e-02
     1.58768490e-01 -2.94087768e-01 -6.46521598e-02  9.96559262e-02
    -4.02045697e-01 -9.06480849e-02 -4.01068836e-01 -1.18881039e-01]
   [-1.20130815e-01 -1.28422484e-01 -8.18446651e-02 -1.39549762e-01
    -2.69239455e-01 -4.08873335e-02 -1.28366560e-01  1.90418392e-01
     1.35612383e-01 -3.05679500e-01 -4.39272910e-01 -3.12362820e-01
    -1.39618099e-01  2.19836980e-02 -4.64504361e-01 -1.23885162e-01]
   [-2.54921943e-01 -2.47687370e-01 -2.75931433e-02 -3.01716160e-02
    -3.11693430e-01 -3.28517050e-01  3.72699499e-02 -1.53701231e-01
    -9.88536552e-02 -3.15377951e-01 -5.95971309e-02 -6.72415644e-02
    -4.93750751e-01 -1.38475209e-01 -5.31648159e-01 -8.21779668e-02]]

  [[-1.78589612e-01 -4.40211557e-02 -1.87209651e-01 -1.44061148e-01
    -1.20831214e-01 -1.87213957e-01 -1.43944636e-01 -3.84142458e-01
    -6.22554235e-02 -2.15373620e-01 -1.05780818e-01 -3.36871743e-01
    -1.84495255e-01 -1.12378947e-01 -4.27572280e-01 -1.44499410e-02]
   [ 6.23843307e-03  2.64169186e-01 -3.46725434e-01 -6.06077388e-02
     1.29012510e-01  1.16702035e-01  4.88640293e-02  5.82648754e-01
     1.84307650e-01 -6.83678687e-01 -4.17414159e-01 -6.56796098e-01
     2.17207909e-01 -1.50696740e-01  2.91932732e-01 -2.05645949e-01]
   [-7.21232891e-02 -4.32451218e-02 -8.99589509e-02 -7.50813186e-02
    -2.77712524e-01 -2.57788748e-02  3.84280714e-03 -5.08197546e-01
    -2.34524816e-01  1.14620484e-01  1.44501209e-01  2.09840611e-02
    -1.58222884e-01 -6.54087812e-02 -2.28235900e-01 -1.12585440e-01]
   [-3.36857706e-01 -2.28975743e-01  5.24746254e-02 -2.15916298e-02
    -2.93600708e-01 -3.94310318e-02  6.17669411e-02 -6.22614995e-02
    -1.35807015e-04 -1.97262093e-01 -4.86177914e-02  1.48530692e-01
    -3.97345185e-01 -1.08669601e-01 -5.54896057e-01  3.93798649e-02]
   [-2.48295039e-01 -1.33455798e-01 -4.76721525e-02 -1.62555769e-01
    -1.14625096e-01 -1.51794359e-01 -1.84447289e-01  3.82390395e-02
     2.04007640e-01 -4.36671913e-01 -4.53625679e-01 -3.80939215e-01
    -2.14695424e-01 -1.72408670e-01 -4.16576624e-01 -2.69595403e-02]
   [-2.87907571e-01 -2.55920023e-01 -1.76731616e-01 -1.26170948e-01
    -2.52297699e-01 -2.34256372e-01 -9.50038433e-02 -3.70249391e-01
    -2.01928005e-01 -3.05303365e-01 -1.34202065e-02 -7.76469707e-02
    -4.09890413e-01 -2.32715368e-01 -3.53428662e-01 -7.92175829e-02]]

  [[-1.28465220e-01 -7.83241168e-02 -5.69551662e-02 -2.14009032e-01
    -9.38664451e-02 -1.21161513e-01 -7.11180419e-02 -4.71620053e-01
    -1.64415866e-01 -1.22130208e-01  2.90973228e-03 -3.19672436e-01
    -2.34534755e-01 -2.57194769e-02 -3.38521332e-01 -2.56897230e-02]
   [-2.67466400e-02  1.05339326e-01 -1.42867178e-01 -2.20250729e-02
     2.66366750e-01  3.15112531e-01 -1.05315074e-01  5.02212882e-01
     2.04291701e-01 -5.88252366e-01 -4.32722002e-01 -8.16019893e-01
     3.77194703e-01 -2.46281102e-01  3.47837746e-01 -1.32968679e-01]
   [ 4.08708453e-02 -1.46736845e-01  1.50847957e-02 -6.57085553e-02
    -2.77191669e-01  2.71987589e-03 -9.31102857e-02 -4.91177171e-01
    -1.66128814e-01  1.18962251e-01  3.91549729e-02 -9.44342539e-02
    -1.44862339e-01 -1.42371804e-02 -3.38147670e-01  2.60134712e-02]
   [-2.65464276e-01 -4.51581962e-02 -2.78965570e-03  8.71742964e-02
    -2.11698174e-01 -1.00494713e-01  1.10662028e-01 -3.06998521e-01
    -1.68776616e-01 -7.93062896e-02 -9.11161583e-03  1.61633149e-01
    -3.81819367e-01 -5.34243286e-02 -4.40455824e-01  7.24106506e-02]
   [-3.65625978e-01  9.99915693e-03 -1.75013125e-01 -1.08274464e-02
    -1.41174287e-01  9.45840701e-02 -1.79904237e-01  9.52024311e-02
     1.78916931e-01 -4.67479110e-01 -2.35093921e-01 -3.80593210e-01
    -1.61881149e-01 -1.42625377e-01 -3.54773402e-01  1.06680198e-02]
   [-1.82123661e-01 -1.33228153e-01 -1.60446197e-01 -8.37685913e-02
    -1.50919870e-01 -1.43071622e-01  4.47984561e-02 -3.81412685e-01
    -2.45036021e-01 -1.23169526e-01 -1.33789778e-01 -1.95790708e-01
    -2.91862875e-01 -1.26320124e-01 -3.19989949e-01  2.36336770e-03]]

  [[-1.51789635e-01 -7.70125585e-03 -1.09461173e-01 -1.89038381e-01
    -1.05484799e-01  1.23534584e-02 -2.53686666e-01 -3.81888866e-01
    -5.98202981e-02 -1.92212313e-01 -8.00793990e-02 -2.88753629e-01
    -2.10942045e-01  5.47863394e-02 -2.20845982e-01 -1.54561266e-01]
   [-3.22852358e-02  6.42302632e-02 -2.57901609e-01  3.35205370e-03
     2.71370590e-01  4.83841538e-01 -9.86793190e-02  9.90064591e-02
     1.43094555e-01 -1.80687994e-01 -3.11406195e-01 -7.21500933e-01
     2.09719852e-01 -3.85349207e-02  3.11440259e-01 -1.57494083e-01]
   [ 6.70480281e-02 -1.29845619e-01 -1.17471702e-01 -2.00347528e-01
    -2.24175319e-01  6.28697649e-02 -6.59389980e-03 -3.78645480e-01
    -4.16998081e-02  1.06800601e-01  1.36172310e-01 -7.95705765e-02
    -1.15321673e-01  1.37375206e-01 -2.01684907e-01  7.13985413e-02]
   [-3.43772948e-01  4.68237745e-03 -3.01226880e-02 -4.02963422e-02
    -2.53056586e-01 -2.15133771e-01  5.10799214e-02 -2.99692482e-01
    -1.07748561e-01  1.34315997e-01  7.50474855e-02  6.26930501e-03
    -2.69118249e-01  1.02623299e-01 -2.79947847e-01  1.03034548e-01]
   [-2.68489718e-01  3.35413851e-02 -6.03202507e-02 -3.42959240e-02
    -8.14122930e-02  2.13043392e-01 -2.39727393e-01 -7.85780624e-02
     5.85354902e-02 -2.06324980e-01 -1.37124509e-01 -5.23630202e-01
    -1.52942494e-01  4.13951874e-02 -2.60908902e-01 -7.33666345e-02]
   [-1.37210503e-01 -2.28585497e-01 -7.92746916e-02 -7.71447793e-02
    -1.14289030e-01  6.46902919e-02 -1.56051898e-02 -4.61147457e-01
    -1.12736180e-01 -2.00275242e-01 -1.44824535e-02 -2.59254217e-01
    -3.70883942e-01  5.78184277e-02 -4.42656398e-01 -5.98606393e-02]]]


 [[[-1.06419902e-02 -1.36114821e-01 -1.79067239e-01  4.82010394e-02
    -1.29378676e-01 -1.58043087e-01 -7.29696825e-02  1.65526643e-01
     6.22460386e-03 -8.45162943e-02 -1.06383286e-01 -2.14037061e-01
    -2.80944824e-01 -2.97776274e-02 -2.92501956e-01 -1.83858305e-01]
   [ 3.84674847e-01 -1.26521885e-01 -1.84505314e-01 -1.46221146e-01
     3.66851300e-01 -2.06867278e-01  5.88541180e-02  2.83333093e-01
     1.02246953e-02  1.46058068e-01 -3.92030865e-01  2.68695634e-02
     3.97911787e-01  7.24507421e-02  3.86304051e-01 -2.80273587e-01]
   [ 8.81159529e-02 -1.00181945e-01  6.69851229e-02 -1.31845688e-02
    -5.41477762e-02 -1.58617780e-01  4.24922490e-03  1.75400868e-01
     1.49905356e-02 -1.99503880e-02  2.09469278e-03  5.08570857e-02
    -3.11505497e-01 -1.52985767e-01 -1.80801317e-01 -7.75114894e-02]
   [-1.29693300e-01  2.18545675e-01  2.97353342e-02  2.10482672e-01
    -3.32171857e-01 -1.70949977e-02  3.68364304e-01  2.13217169e-01
     2.03883365e-01 -1.54556274e-01 -1.60128847e-01  7.65885934e-02
    -4.00010526e-01  5.87894693e-02 -2.17289552e-01  1.75848886e-01]
   [ 2.44061798e-02 -3.59167792e-02  4.67350259e-02  5.89356944e-02
    -2.73762822e-01 -1.20155446e-01  7.92772174e-02  1.76011622e-01
     2.68135816e-01  5.25475182e-02 -3.84576648e-01 -2.21661255e-01
    -3.78337689e-02  2.13343240e-02 -2.53919333e-01 -1.53350353e-01]
   [ 8.98123998e-03 -1.19663984e-01 -7.51886144e-02  1.49223909e-01
    -3.62970419e-02 -1.82789564e-01 -1.01066664e-01  1.73192676e-02
     4.88928370e-02 -1.08562395e-01 -1.58557728e-01 -5.22633903e-02
    -2.28146270e-01 -1.25430152e-01 -1.66050062e-01  1.53798293e-02]]

  [[ 5.53103648e-02 -1.54083446e-01  1.69068389e-02 -9.67051014e-02
    -1.99267134e-01 -1.78877905e-01 -1.07612964e-02 -1.39362320e-01
    -5.26657626e-02  4.86000180e-02  6.88313833e-03  7.07168947e-04
    -2.48529673e-01 -2.09597781e-01 -2.40989268e-01 -7.59139061e-02]
   [ 2.05761958e-02  6.20237142e-02 -1.15767851e-01 -9.16582346e-02
     3.12562943e-01 -1.39716983e-01 -3.49221304e-02  1.55910119e-01
     2.61391699e-02 -1.97668642e-01 -3.39704454e-01 -1.79299079e-02
     2.45718136e-01 -3.23830545e-02  2.72487879e-01 -2.00661540e-01]
   [-8.14341158e-02 -8.51905346e-02  9.96820331e-02  5.74692935e-02
    -1.98081717e-01 -2.08503809e-02 -1.26187995e-01 -1.21557496e-01
    -1.01645812e-01  6.65239021e-02  2.66650140e-01 -4.40664180e-02
    -1.33092299e-01 -1.45383388e-01 -3.19340169e-01  3.03836521e-02]
   [-2.72049159e-01  1.69592202e-01  1.80431325e-02  2.94127703e-01
    -2.20192790e-01  1.86073482e-02  2.90823162e-01 -6.11048676e-02
     3.43668789e-01 -4.11251247e-01  1.66881680e-02  1.42754465e-01
    -3.08769971e-01 -8.20056498e-02 -3.81761551e-01  9.63552371e-02]
   [-1.72811016e-01 -6.11638054e-02 -4.76891026e-02  8.23418945e-02
    -1.45065039e-01  4.22971435e-02  6.39576390e-02  1.91125106e-02
     1.78057432e-01 -2.34978080e-01 -2.81763881e-01 -9.87001657e-02
    -1.95034832e-01 -7.41685331e-02 -2.68268555e-01 -7.64969066e-02]
   [-1.99898094e-01 -1.96533129e-01 -1.19320089e-02 -7.00068995e-02
    -2.12956462e-02 -2.38964215e-01  3.30473781e-02 -1.79875419e-01
    -3.59388366e-02  6.25673085e-02  1.13482445e-01  1.36018589e-01
    -2.34528154e-01 -8.49379599e-02 -2.79795408e-01  2.53886264e-02]]

  [[-8.01169351e-02 -2.59523466e-02 -8.89720097e-02 -1.58910081e-01
    -1.49455905e-01 -1.37464002e-01 -7.11184368e-02 -2.34841138e-01
    -1.86210081e-01  1.51979685e-01  7.45568275e-02 -8.11622739e-02
    -2.04785645e-01 -1.81153640e-01 -2.48854876e-01 -9.50858220e-02]
   [ 1.27659868e-02  5.09139150e-02 -1.22401133e-01 -1.65024564e-01
     3.80349189e-01 -2.34190524e-02 -2.30848849e-01  1.65012050e-02
     1.86563835e-01 -5.45268476e-01 -2.04953089e-01 -2.07327217e-01
     2.32561544e-01 -3.00541192e-01  3.21110100e-01 -1.74081907e-01]
   [ 1.84163917e-02 -9.82937589e-02  6.11031707e-03  8.21097929e-04
    -1.13797337e-01  7.44698644e-02  5.06023653e-02 -1.67230278e-01
    -1.85158789e-01  2.31772497e-01  1.74792930e-01 -3.23202051e-02
    -1.16187230e-01 -5.93516156e-02 -4.38144028e-01 -6.47417158e-02]
   [-1.31115481e-01 -6.85667694e-02  2.46368110e-01  2.47077867e-01
    -1.62037119e-01  2.14596257e-01  2.83406585e-01 -1.51365548e-01
     1.07555084e-01 -6.50405884e-02  7.05068409e-02  2.30395749e-01
    -3.82987678e-01 -1.52636737e-01 -4.73556668e-01  2.00178817e-01]
   [-1.95562795e-01  3.67669649e-02  7.90751260e-03 -7.12027177e-02
    -1.89767137e-01  6.12083413e-02 -9.33409184e-02 -2.13701651e-02
     8.53343159e-02 -4.03205246e-01 -2.64685154e-01 -6.48963153e-02
    -8.42536688e-02 -1.21780202e-01 -3.06097180e-01 -1.07067421e-01]
   [-1.33470342e-01 -1.50295988e-01  7.68788233e-02 -1.44437343e-01
    -9.80724767e-02 -5.78596257e-02  6.45611212e-02 -3.25944930e-01
    -9.20869689e-03  1.00109100e-01 -6.67620683e-03  7.33239874e-02
    -2.68893927e-01 -1.06715858e-01 -3.08021009e-01 -1.99643709e-02]]

  [[-2.55648084e-02  1.88081563e-02 -1.35618374e-01 -2.41732165e-01
    -1.41100645e-01  4.01636846e-02 -1.45913765e-01 -3.49307954e-01
    -1.88937560e-01  8.64828378e-02 -6.67785183e-02 -3.31737623e-02
    -3.03323139e-02  8.19255114e-02 -3.68322551e-01 -1.79886967e-02]
   [-6.64230138e-02 -4.81229313e-02 -3.11733931e-01 -9.12665874e-02
     4.00343031e-01  1.89707875e-01 -1.08072773e-01 -5.74408472e-02
     1.96274534e-01 -4.34728831e-01 -4.01530027e-01 -2.04845533e-01
     2.18448102e-01 -1.31068751e-01  3.17203999e-01 -8.47397372e-02]
   [ 1.31772757e-01 -4.80298847e-02 -6.99949823e-03  1.49330916e-02
    -4.66984957e-02  2.19192682e-03  8.21221918e-02 -3.25605124e-01
    -9.03839394e-02  3.69670123e-01  1.67617798e-01  1.17736598e-02
    -8.50278884e-02  2.90378500e-02 -2.82003760e-01 -6.89359978e-02]
   [-1.76703468e-01 -9.16345492e-02  9.43774059e-02  2.13280976e-01
    -2.32812345e-01  3.74783613e-02  3.35437506e-01 -2.43526995e-01
     1.40037283e-01  3.07273835e-01  7.13180304e-02  2.86523491e-01
    -2.14012891e-01  5.21420948e-02 -3.48976433e-01  2.43206486e-01]
   [-2.88033783e-01 -1.02476217e-01 -8.40903595e-02  4.43948843e-02
    -2.99928640e-03  4.40528467e-02 -1.45609334e-01 -1.93564534e-01
     1.16144285e-01 -4.51292098e-01 -3.00742507e-01 -2.09233165e-01
    -9.22919661e-02 -8.29050317e-03 -2.61313856e-01  4.62266617e-03]
   [-2.33309671e-01 -3.38707156e-02  4.76808362e-02 -9.72634405e-02
    -3.42085660e-02 -6.71505183e-02  7.36211017e-02 -4.69360918e-01
    -1.43294111e-01  1.94780473e-02  1.32690981e-01  1.56313166e-01
    -3.15581769e-01  1.08376376e-01 -3.31166357e-01 -7.25678820e-03]]

  [[ 7.91171100e-03  3.99329141e-03 -4.30053957e-02 -1.12612620e-01
    -1.36696965e-01  5.73231727e-02 -7.20378458e-02 -3.78259301e-01
    -5.77085353e-02  6.68314323e-02 -2.46661790e-02 -2.53125936e-01
    -1.55657884e-02  1.41664818e-01 -2.20257580e-01  7.72504285e-02]
   [-3.72903123e-02  9.12674442e-02 -5.45051806e-02 -1.30102366e-01
     4.86288369e-01  4.68572050e-01 -9.20348912e-02 -1.93132371e-01
     2.97846328e-02 -1.76378474e-01 -2.43030131e-01 -3.60147953e-01
     3.38086009e-01  1.04989205e-02  3.96681398e-01 -1.50929913e-01]
   [ 1.03825755e-01  7.18200132e-02 -9.41183567e-02 -1.61193654e-01
    -5.57712372e-03  7.05805719e-02  8.89631454e-03 -3.32175553e-01
    -1.65472209e-01  2.07285017e-01  2.44850025e-01 -5.97538576e-02
    -9.77188796e-02  1.80005297e-01 -3.27998728e-01  1.29928708e-01]
   [-7.09808990e-02  9.29754376e-02  1.06240548e-01 -2.96930037e-02
    -1.67408139e-01 -8.82410035e-02  8.71849805e-02 -5.01784682e-01
    -5.60228974e-02  1.48700416e-01  2.27525592e-01  2.42359549e-01
    -6.29605949e-02  2.88830310e-01 -3.58534217e-01  1.89406946e-01]
   [-2.07838133e-01 -3.93810980e-02  2.39663781e-03  3.66361788e-03
     8.36054422e-03  1.88158706e-01 -1.61423743e-01 -2.22470790e-01
     4.07833792e-02 -3.84619355e-01 -8.02897960e-02 -3.09742987e-01
    -1.07725926e-01  4.87961471e-02 -1.34182259e-01  1.39350131e-01]
   [-9.41924751e-02 -1.00502454e-01 -5.35595044e-02 -1.44997120e-01
    -3.53584774e-02  3.54987904e-02 -1.17843822e-01 -3.95906538e-01
    -1.63166434e-01 -5.08654043e-02  1.05399095e-01 -1.05136767e-01
    -1.49717629e-01  2.00802371e-01 -2.43646562e-01 -2.66325288e-02]]]


 [[[-1.76391289e-01 -1.85083658e-01 -9.55730081e-02  6.00605737e-03
    -5.16438708e-02 -2.50711232e-01 -1.66366145e-01  2.24006027e-01
    -2.20809951e-02 -6.71702623e-02 -1.06998071e-01 -1.05909258e-01
    -1.18688434e-01 -2.54098505e-01 -1.01007804e-01 -2.24953353e-01]
   [ 1.10422455e-01 -8.13862607e-02 -1.46758795e-01 -5.88034652e-02
     4.48128849e-01 -1.68508068e-01  4.55323011e-02  1.98210943e-02
     5.36121018e-02 -9.97584164e-02 -5.31986594e-01  5.65520525e-02
     1.93334982e-01 -4.31482755e-02  2.48802304e-01 -4.52093184e-01]
   [ 5.77149242e-02 -1.10562563e-01 -2.26591509e-02  6.21414967e-02
    -9.13342088e-02 -3.99439670e-02 -1.05114684e-01  2.66785949e-01
     1.06893657e-02  9.10556037e-03 -3.98397110e-02 -1.37578472e-01
    -2.26344988e-01 -6.25272989e-02 -1.82028294e-01 -1.09920055e-01]
   [ 1.76557183e-01  2.37829685e-01  2.08640039e-01  1.26737908e-01
    -1.05943076e-01  2.18732208e-02  4.07618046e-01  8.45786259e-02
     4.09243256e-01 -2.81799257e-01 -1.48581520e-01  2.27802485e-01
    -2.98426244e-02  1.99503675e-01 -2.15257369e-02  2.48008803e-01]
   [-5.41522633e-03 -1.02004953e-01  1.27675831e-01  1.15338542e-01
    -2.09695622e-01  4.84991483e-02  7.52062127e-02 -9.63995699e-03
     1.89424381e-01 -1.21927030e-01 -2.18959883e-01 -1.39436930e-01
    -1.31369665e-01  6.73129037e-02 -6.34552538e-02 -6.46013021e-02]
   [-1.93460971e-01  3.82303521e-02 -9.95028391e-02  1.38867438e-01
    -1.43489884e-02 -2.03525975e-01  2.55679078e-02  1.58240438e-01
     5.80409095e-02 -2.02345401e-01 -1.37449026e-01 -1.56936646e-02
    -2.89922714e-01 -1.39998689e-01 -9.96826068e-02 -3.00748297e-03]]

  [[-1.77871808e-01 -1.36254668e-01 -1.00112669e-01 -9.04014334e-02
     1.46953031e-01 -1.83907747e-01 -3.98502462e-02  9.86837074e-02
    -8.44294876e-02 -8.66344720e-02 -1.18778765e-01 -1.77861787e-02
    -1.28284484e-01 -2.22825736e-01 -4.17632908e-02 -8.45911354e-02]
   [-1.47359997e-01 -9.53653753e-02 -2.72023708e-01 -7.33190998e-02
     7.41332173e-01 -1.96168512e-01 -1.34927109e-01  1.63296927e-02
     5.15893325e-02 -4.13305402e-01 -2.36383975e-01 -1.93131790e-01
     8.25612471e-02 -1.96211696e-01  7.08437487e-02 -3.88716131e-01]
   [-2.13622712e-02 -9.20503065e-02 -1.07367747e-01  6.54088659e-03
     2.72583999e-02 -1.02193788e-01 -1.14691658e-02  1.96774036e-01
    -1.97233050e-03  1.60725325e-01  1.48716614e-01  3.71699892e-02
    -2.46796727e-01 -1.75122246e-01 -1.42948911e-01 -3.42598483e-02]
   [-1.04244135e-01  1.71847761e-01  1.19534463e-01  2.91916490e-01
    -1.30842924e-01  6.97700167e-03  3.58048558e-01 -5.77605069e-02
     3.32217842e-01 -2.82672197e-01  1.75598919e-01  3.40087414e-01
    -1.21418096e-01 -2.15677768e-02 -4.17388678e-02  1.46347493e-01]
   [-4.78078276e-02  6.15416765e-02  2.28182375e-02  1.21867489e-02
     7.02000931e-02 -4.18247804e-02  7.68077299e-02 -1.31490573e-01
     9.33505967e-02 -3.26236635e-01 -1.89967975e-01  6.33011833e-02
     2.29354035e-02 -1.05756387e-01  2.70336438e-02 -2.80310642e-02]
   [-5.82187586e-02 -1.24738365e-01  4.49047936e-03 -9.70946774e-02
     5.30890487e-02 -1.90347880e-01  9.76275429e-02  3.12972330e-02
    -5.47172390e-02 -9.83469188e-02 -2.96138879e-02  1.38414562e-01
    -3.12779903e-01 -2.47205049e-01 -1.45817712e-01  1.60966925e-02]]

  [[-1.40635654e-01 -1.44974038e-01 -1.65197030e-01 -2.36880258e-01
    -2.32768729e-02 -1.34890854e-01 -7.82508701e-02 -8.71375948e-02
    -1.84347257e-01  1.53285459e-01 -6.04984984e-02  3.41073945e-02
    -5.03722988e-02 -2.60211099e-02 -5.51803671e-02 -1.13416567e-01]
   [-1.56242982e-01 -1.51275784e-01 -1.95615843e-01 -1.71433792e-01
     7.52527177e-01  7.71389750e-04 -5.11322692e-02  6.48246631e-02
     1.15082040e-01 -4.98844564e-01 -3.06575418e-01 -1.90331325e-01
     1.30403191e-01 -2.35826448e-01  2.08818316e-01 -3.45676392e-01]
   [ 3.85540426e-02 -1.18878379e-01  6.99377283e-02 -1.39036983e-01
    -2.84090377e-02  8.55206978e-03  4.81004901e-02  1.32583827e-01
    -1.47084877e-01  2.72414654e-01  1.22224160e-01 -6.13604598e-02
    -9.22028720e-02 -7.30987415e-02 -2.21325651e-01 -4.38095331e-02]
   [ 4.69596498e-02  7.03762919e-02  1.00675389e-01  3.44977289e-01
    -1.20755874e-01  1.91049278e-01  2.29617983e-01 -1.84197947e-02
     2.99650580e-01 -1.25709297e-02  8.52368549e-02  2.99127966e-01
    -9.44597796e-02 -4.01659347e-02 -1.80633336e-01  2.64962196e-01]
   [-5.06674796e-02 -3.12704444e-02 -4.70373668e-02  9.17711630e-02
     7.61222690e-02 -1.36015508e-02  2.27937564e-01 -6.42729253e-02
     1.29345641e-01 -4.90648150e-01 -1.42111108e-01  1.40563473e-01
     5.48438169e-02 -1.48063868e-01  3.36947478e-02  9.37510878e-02]
   [-1.86846241e-01 -1.90642402e-01 -2.08956692e-02 -6.88198358e-02
     1.01704583e-01 -8.55957493e-02  1.71867430e-01 -1.03564471e-01
    -1.73506290e-01  1.44314319e-01 -7.91589171e-02  5.08132465e-02
    -2.85880446e-01 -1.42154664e-01 -1.19246148e-01  8.66949931e-03]]

  [[-4.12493572e-02 -1.22950738e-02 -9.51292887e-02 -1.74675569e-01
     1.10523082e-01  2.29008291e-02 -1.44287115e-02 -1.48388296e-01
    -6.72081336e-02  7.83335492e-02 -1.04109142e-02 -1.57296583e-01
    -1.41076520e-02  3.74689251e-02 -2.28532091e-01 -1.34362355e-01]
   [-1.92789137e-01  5.50595432e-05 -1.23718485e-01 -1.89787745e-01
     7.70157218e-01  2.74507217e-02 -1.44703269e-01 -5.70405833e-02
     2.08161578e-01 -4.22547698e-01 -3.97385180e-01 -1.58367902e-01
     1.00651003e-01 -1.50178775e-01  1.29365295e-01 -2.03948289e-01]
   [ 7.02557266e-02 -6.29464462e-02 -5.12411259e-02 -1.94160581e-01
    -5.61076924e-02 -6.52353372e-03 -3.13986614e-02 -1.05125597e-02
    -1.48620874e-01  2.52366483e-01  9.62282941e-02  1.18448203e-02
    -6.54547615e-03  1.28186256e-01 -2.57380992e-01 -3.64515446e-02]
   [-2.62262654e-02  1.79287180e-01  8.60575140e-02  2.13613287e-01
    -1.28787220e-01  3.30064982e-01  4.79478985e-01 -1.00581884e-01
     4.41722423e-02  1.41670614e-01  2.33611301e-01  2.03469113e-01
    -1.34406865e-01  1.13062389e-01 -1.57207012e-01  2.44535640e-01]
   [-1.17669106e-01 -5.80750518e-02  8.25190023e-02  2.04717903e-03
    -2.13657878e-02  1.54741913e-01  4.84254286e-02 -2.37891197e-01
     8.96888003e-02 -5.00829816e-01 -2.68762767e-01 -1.15603313e-01
    -4.42023426e-02 -7.91450143e-02 -1.38990562e-02  9.24520716e-02]
   [-2.14031681e-01 -2.10199833e-01 -1.14657983e-01 -1.29737675e-01
     1.06987461e-01  1.63679440e-02  1.07216969e-01 -1.02790534e-01
    -7.85877183e-02  1.34387553e-01  1.60421450e-02  1.45039096e-01
    -2.37029344e-01  1.11353688e-01 -1.82042629e-01 -1.70875601e-02]]

  [[-8.62445459e-02 -1.01271421e-01 -1.96263403e-01 -1.51096836e-01
     1.47051796e-01  6.11172952e-02 -1.12072058e-01 -9.50167403e-02
    -5.80327399e-02 -8.41757432e-02  2.55758613e-02 -5.82375675e-02
    -1.26949519e-01  1.38985440e-01 -1.70055419e-01 -5.23501448e-02]
   [-1.89037934e-01 -5.25981039e-02 -5.89116588e-02 -1.57722235e-01
     6.09327555e-01  3.93660963e-01 -6.40959712e-03 -2.02842280e-01
     4.19985130e-02 -2.15319589e-01 -2.33219013e-01 -1.95623398e-01
     7.72521421e-02  6.70668855e-02  1.20903797e-01 -1.09315418e-01]
   [-5.89777306e-02  5.16621508e-02 -1.17522471e-01 -1.80715770e-01
    -3.00169848e-02  6.63936064e-02 -7.88038522e-02 -1.32195830e-01
     3.20548564e-02  9.22177956e-02  1.03815965e-01  5.31318597e-02
     8.53437232e-04  1.13138855e-01 -1.97673827e-01 -4.31956276e-02]
   [-1.32817954e-01  1.88386273e-02  1.23152703e-01  1.56520501e-01
    -6.40684888e-02 -6.00178214e-03  3.66946489e-01 -2.00362936e-01
     4.18468602e-02  3.28755766e-01  2.97613710e-01  1.72538221e-01
     3.03538386e-02  2.05603585e-01 -8.34217295e-02  1.84589073e-01]
   [-2.57358521e-01 -6.41929805e-02 -8.78705271e-03 -1.25496656e-01
    -5.19813299e-02  1.94737241e-01 -1.72130615e-02 -2.76135743e-01
     8.95062834e-02 -2.97426462e-01 -6.76989853e-02 -1.42424121e-01
     5.75836077e-02  2.30478123e-01  8.73762742e-03  8.79637226e-02]
   [-1.16934948e-01 -1.11905880e-01  2.96524800e-02 -2.16050491e-01
     1.69562310e-01 -9.02970284e-02  6.26180544e-02 -1.36953145e-01
    -1.68365136e-01 -1.82677843e-02  2.47708112e-02 -3.18972245e-02
    -6.01967499e-02  1.14127114e-01 -6.22013211e-02  3.04892082e-02]]]


 [[[-3.66160274e-02 -4.97629903e-02 -1.04863562e-01 -8.43348354e-02
    -6.60435185e-02 -1.81907058e-01 -2.70423591e-02  3.64646345e-01
    -2.57979464e-02 -8.74015987e-02 -2.10664809e-01 -1.51170537e-01
    -1.45234063e-01 -2.77165592e-01 -1.30077256e-02 -2.27489233e-01]
   [ 9.21710208e-03  4.33573835e-02 -6.06105514e-02  1.44737840e-01
     3.11347365e-01 -6.47243783e-02  6.30386770e-02 -1.23314574e-01
     3.34101170e-01 -2.40547135e-02 -2.15663686e-01 -2.55630892e-02
    -8.32329914e-02 -1.19206406e-01  1.48242444e-01 -3.53639036e-01]
   [ 2.49159690e-02  2.97091957e-02 -1.40936434e-01  3.21160629e-02
     6.46251589e-02 -2.00183988e-01 -1.26819581e-01  2.74962962e-01
     1.78207213e-03 -7.86781237e-02 -8.90384987e-02 -5.80929220e-02
    -1.62156355e-02 -9.83935744e-02 -2.15810798e-02 -4.78055608e-03]
   [ 2.14077666e-01  2.73543209e-01  1.05790570e-01  1.48753449e-01
    -5.93740046e-02  1.30870000e-01  2.42621318e-01  9.45628360e-02
     2.45770171e-01 -2.16188028e-01 -2.57229507e-02  2.94980675e-01
     9.08238664e-02  2.40036342e-02  1.95049584e-01  2.52112091e-01]
   [-1.68420598e-02  5.32193817e-02  5.06767109e-02  1.69158220e-01
    -2.59744972e-01  9.10404325e-02  6.09421954e-02  7.04938769e-02
     2.13225737e-01  5.74761331e-02 -2.21244901e-01 -3.54068466e-02
    -1.62025094e-02  1.15428995e-02  1.25807663e-02 -1.21129647e-01]
   [ 1.18464073e-02 -7.42700249e-02 -4.69642021e-02  8.02352428e-02
     7.35990629e-02 -2.09884286e-01  6.17926270e-02  3.98937017e-01
     1.34120518e-02 -1.63627744e-01 -4.69815247e-02  1.41206030e-02
    -7.70321488e-02 -6.51385188e-02  1.56883493e-01 -8.24115053e-02]]

  [[-7.82206431e-02 -6.07668646e-02 -6.27338421e-04 -8.70570987e-02
    -2.13538222e-02 -2.08952837e-02 -1.07156411e-01  1.73599169e-01
    -8.10039043e-02 -1.24795705e-01 -1.23170979e-01 -1.57643661e-01
     2.07019392e-02 -2.13822514e-01  1.32976964e-01 -1.43128544e-01]
   [-1.85313746e-01  6.00634664e-02 -1.65051609e-01  6.42339559e-03
     6.05075896e-01 -1.10118784e-01  7.55162686e-02 -1.36427388e-01
     2.59560764e-01 -1.61833450e-01 -1.80560857e-01 -7.00426176e-02
    -1.42223013e-04 -2.41291329e-01  1.45495366e-02 -2.03509882e-01]
   [ 3.40517499e-02 -1.23373047e-01 -1.45533949e-01 -3.78413685e-02
    -7.59304240e-02 -1.50889471e-01 -1.04117326e-01  1.56940237e-01
    -2.44230847e-03  1.33234620e-01  1.11299269e-01 -1.19802989e-02
     7.45857731e-02 -7.83007368e-02  8.12339410e-02 -1.00557720e-02]
   [-1.72046833e-02  2.22042799e-01  1.99709699e-01  2.84009159e-01
     6.00678287e-02  1.30619764e-01  3.67230773e-01  1.60527319e-01
     3.39369208e-01 -8.10888559e-02  4.88024764e-02  1.98101610e-01
     1.15713596e-01 -9.47533920e-02  1.38555869e-01  2.36730292e-01]
   [-1.11071810e-01  7.74365962e-02  4.03033979e-02  1.41497880e-01
    -4.38616760e-02  1.15433447e-02  1.67412326e-01 -1.25916963e-02
     8.65060315e-02 -1.47551313e-01 -2.48190034e-02  5.59248701e-02
     8.75352398e-02  5.94726913e-02  9.89782959e-02  6.01388849e-02]
   [-5.88000938e-03 -7.11619556e-02  6.98547512e-02  8.27158839e-02
     1.22180574e-01 -1.27523467e-02  4.38152254e-02  1.99614152e-01
    -9.77586359e-02 -6.77548125e-02 -1.00328885e-01  3.78522761e-02
    -6.04637563e-02 -2.02106953e-01  3.05775497e-02 -1.21028826e-01]]

  [[-1.89869538e-01 -1.99353874e-01  3.00042890e-03 -8.46728534e-02
     4.75906916e-02 -2.54639555e-02  1.17728941e-01  1.34973690e-01
    -1.23692267e-01  6.53410405e-02 -6.76498329e-03 -6.79013319e-04
    -7.93034956e-02 -1.19226068e-01  1.82790775e-02 -1.59915164e-01]
   [-1.91115394e-01 -1.59223616e-01 -5.55460006e-02 -1.53001890e-01
     7.19835579e-01  1.78502835e-02  1.89785182e-01 -7.73357674e-02
     4.73360792e-02 -3.09128731e-01 -1.93590164e-01 -3.09592541e-02
    -9.58394408e-02 -1.36239052e-01  1.19459458e-01 -3.33408147e-01]
   [ 2.31780205e-02 -1.18235439e-01 -1.12616114e-01  6.00607209e-02
     4.19583470e-02  2.77589485e-02  6.40682355e-02  1.81962654e-01
    -3.38780470e-02  2.42990896e-01  8.23941380e-02 -8.07247013e-02
     6.56343699e-02 -6.85764151e-03 -7.01013729e-02 -9.89969671e-02]
   [ 2.39388764e-01  1.54176295e-01  1.41412154e-01  3.15157443e-01
     9.44764763e-02  3.60853434e-01  2.89323062e-01 -1.89883690e-02
     2.81169176e-01 -6.32920712e-02  1.07912742e-01  3.98200989e-01
     7.65672475e-02 -5.83346002e-02  1.73718691e-01  1.77758530e-01]
   [-1.83635399e-01  9.43039060e-02  2.65042931e-02  9.47878286e-02
    -1.25465602e-01  1.07810192e-01  1.47599518e-01  5.49593493e-02
     2.17311978e-01 -3.02047789e-01 -1.41654117e-02  4.39928249e-02
    -1.75725687e-02 -3.94965522e-02 -1.72853246e-02 -2.06786059e-02]
   [-5.19077070e-02 -1.91625878e-01  1.80806592e-02 -3.34260575e-02
     8.26254264e-02 -1.20900460e-01  1.28878057e-01  1.35626718e-01
    -1.78824559e-01  1.59858435e-01  3.74211036e-02  3.54972272e-03
    -1.46775581e-02 -8.16619843e-02 -6.74398839e-02  2.39735488e-02]]

  [[-1.62350178e-01 -2.29975656e-01 -1.68736324e-01 -2.11977378e-01
     7.76598528e-02 -2.50662006e-02  9.53856260e-02  1.48901373e-01
    -9.52666253e-02 -6.27032220e-02 -2.30648946e-02 -7.03836009e-02
    -4.86948267e-02  4.84812036e-02  4.87003773e-02 -7.40335956e-02]
   [-1.95840493e-01 -3.67404744e-02  5.25070773e-03 -1.01538822e-01
     5.08929253e-01  2.57352553e-02  2.76775453e-02 -6.10999651e-02
     9.49083716e-02 -1.13918528e-01 -1.09377533e-01 -1.47276387e-01
    -1.41650466e-02  1.08865596e-01  3.96826826e-02 -8.84066895e-02]
   [-7.33643258e-03 -1.19509041e-01  2.89248135e-02 -7.72916675e-02
     5.36041521e-03  4.71068397e-02 -7.92337116e-03  1.93270817e-01
    -1.15448602e-01  2.64859229e-01 -3.10404841e-02 -9.01245996e-02
     1.03278741e-01  1.53493270e-01  2.29398720e-03 -8.96539837e-02]
   [ 1.66446075e-01  2.05975443e-01  1.57796919e-01  1.16189085e-01
     5.55578992e-02  3.70609492e-01  3.88573110e-01 -1.30460292e-01
     1.54754400e-01  1.73736587e-01  7.65158162e-02  3.17233026e-01
     1.41688675e-01  2.28702828e-01  1.11156560e-01  2.05436110e-01]
   [-1.37711704e-01 -9.59358141e-02  5.17612100e-02  9.58170071e-02
    -6.87878653e-02  2.08469123e-01  3.53528857e-02 -1.93722054e-01
     9.43224505e-02 -3.45545858e-01 -1.57470256e-01  1.39248490e-01
    -5.56888767e-02  6.19330816e-02  2.42317785e-02  7.71868974e-02]
   [-1.13730349e-01 -1.28965914e-01 -5.95278367e-02 -1.59666047e-01
     1.71859056e-01 -1.16077527e-01  2.17499271e-01  9.01602730e-02
    -1.53830707e-01  1.26822190e-02 -5.65688089e-02  1.99652147e-02
    -9.39012971e-03  5.78773627e-03 -2.41766889e-02 -3.90871763e-02]]

  [[-9.00705978e-02 -1.62576735e-01 -1.52456045e-01 -2.99926460e-01
     9.77719575e-02 -3.98100391e-02 -1.67124957e-01 -3.12511362e-02
    -1.56987518e-01 -7.15822354e-02 -4.24897075e-02 -8.64239410e-02
    -6.49382919e-02  1.08565293e-01 -1.13308290e-02 -3.13110016e-02]
   [-2.91888118e-01 -3.24074924e-02  5.17989928e-03 -1.14377812e-01
     3.90268683e-01  1.57185942e-01 -1.94161400e-01 -2.34581143e-01
     2.26293169e-02 -1.10283479e-01 -1.53149180e-02 -1.73783246e-02
    -1.10196620e-01  5.60263246e-02  2.12480754e-01 -1.26098156e-01]
   [-1.14759296e-01 -1.50373966e-01 -8.51558149e-02 -1.28448859e-01
     5.59313893e-02 -1.14302963e-01 -9.73361507e-02  3.66149023e-02
    -8.91550928e-02  7.87792578e-02  1.14107601e-01 -8.99433866e-02
     1.62777156e-01  1.17286472e-02  1.04597129e-01 -5.67087382e-02]
   [ 1.71189710e-01  4.39566858e-02  2.01772541e-01  1.53589562e-01
    -5.28586246e-02  1.01612816e-02  1.87904045e-01 -1.79098770e-01
    -5.11478186e-02  2.71734416e-01  1.44598082e-01  3.37413877e-01
     2.30104730e-01  2.41237998e-01  1.22111058e-02  2.34104276e-01]
   [-1.40200526e-01  5.88270091e-02  1.22263603e-01 -3.49389091e-02
     2.96390820e-02  2.59986341e-01 -7.14434031e-03 -2.81614453e-01
     2.82144062e-02 -3.38088691e-01 -2.49950346e-02  1.83066241e-02
     8.70630494e-04  1.76180273e-01  1.17480347e-03  2.05339327e-01]
   [-9.93377715e-02 -3.80227715e-02  4.15984206e-02 -1.55842513e-01
     8.62311921e-04 -1.00421108e-01 -9.14513972e-03 -7.31514245e-02
    -1.01071402e-01  5.86633645e-02  6.22688867e-02  3.47220246e-03
    -1.16515495e-01  1.52781323e-01 -7.20567489e-03 -7.20016584e-02]]]


 [[[-1.28293067e-01 -2.01492995e-01 -1.27602205e-01 -4.89103273e-02
    -1.48824856e-01 -2.37508133e-01 -3.31215888e-01  3.35432291e-01
     4.51803440e-03 -6.95813522e-02 -2.56300449e-01 -1.16077721e-01
    -3.72804492e-03 -2.92676955e-01  4.72736433e-02 -2.34340847e-01]
   [ 1.30753100e-01  1.60161003e-01 -3.28771479e-04  5.13241924e-02
     9.89133343e-02 -6.01428263e-02 -5.84930360e-01 -7.72349387e-02
     1.06400713e-01 -7.73374289e-02 -1.34716451e-01  1.46003395e-01
    -1.52810305e-01 -1.66148812e-01 -5.41802682e-02 -2.42350057e-01]
   [ 5.78325242e-02 -1.46124721e-01 -2.24172160e-01 -1.28367290e-01
     6.71742857e-02 -2.56571829e-01 -1.59308553e-01  4.23181176e-01
    -1.22575000e-01 -1.47847682e-01 -1.66046798e-01 -1.02164589e-01
     1.70546144e-01 -2.59621114e-01  2.67491519e-01 -5.78504577e-02]
   [ 3.59535754e-01  2.40532398e-01  1.85954750e-01  9.13197473e-02
     9.77109298e-02  2.94271838e-02  1.03882022e-01  6.36709556e-02
     2.22288832e-01 -1.70151323e-01 -4.63448055e-02  2.05005467e-01
     1.15611210e-01  2.41785105e-02  2.57601351e-01  1.66982383e-01]
   [ 1.13078967e-01  1.51825503e-01  1.24655202e-01  2.77586460e-01
    -3.74951333e-01  2.86732428e-02 -2.46935457e-01  1.67135105e-01
     8.82198140e-02  1.18743688e-01 -7.89107606e-02  7.85665885e-02
    -1.14859082e-01  4.00523916e-02  1.32986233e-01 -1.22165397e-01]
   [-3.99094187e-02 -1.64810359e-01 -7.31705204e-02  1.11130454e-01
     1.14903087e-02 -1.04119174e-01 -3.10658395e-01  4.31254566e-01
    -4.75463234e-02 -1.69315979e-01 -2.53242403e-01 -8.32701623e-02
    -8.83352086e-02 -2.28069559e-01  1.63139075e-01 -1.88868031e-01]]

  [[-1.28087580e-01 -6.81920946e-02 -1.54978171e-01 -1.35501608e-01
     2.34179627e-02 -1.36624575e-01 -2.77252853e-01  2.84484655e-01
    -1.13308251e-01 -6.25765920e-02 -1.27228290e-01 -1.62051409e-01
    -1.33207534e-02 -1.10080004e-01  1.91737264e-01 -1.61248207e-01]
   [-7.55551234e-02  9.76211503e-02 -1.15922995e-01  1.14165120e-01
     1.70086220e-01  1.49083529e-02 -6.63521111e-01 -6.58544451e-02
    -6.33689836e-02 -1.54036045e-01 -2.09622964e-01  9.64912474e-02
    -2.09347568e-02 -1.44983828e-01  1.06363826e-01 -2.26879567e-01]
   [-7.31709376e-02 -1.83593072e-02 -1.18951298e-01 -1.95454317e-03
    -1.53895067e-02 -8.42404440e-02 -8.25902894e-02  3.73977304e-01
    -1.61147878e-01 -9.42799728e-03 -1.97986752e-01 -2.16245919e-01
     1.79786474e-01 -1.35796741e-01  2.63235509e-01 -1.60441503e-01]
   [ 7.03185424e-02  2.24502042e-01  1.02975085e-01  1.86928660e-01
    -4.91799451e-02  3.29599231e-02  2.66244560e-01  2.11190626e-01
     2.72977501e-01 -1.51907697e-01  1.17298633e-01  2.59137273e-01
     1.46955818e-01 -1.50343925e-02  2.61854857e-01  1.14374027e-01]
   [ 9.98236388e-02  3.94236390e-03  7.33495355e-02  1.49708003e-01
    -3.13534170e-01  8.08782205e-02 -2.96092838e-01  2.44210124e-01
     2.61938944e-02 -2.23484010e-01  5.01151197e-02  8.61710459e-02
     7.89724439e-02  2.13263873e-02  4.54809237e-03  5.70994951e-02]
   [-3.69830765e-02 -3.52921560e-02 -1.30067393e-01  2.32588723e-02
    -3.97799984e-02 -1.90107882e-01 -2.78904498e-01  3.38085324e-01
    -6.43960685e-02 -4.73404489e-02 -4.75103334e-02 -1.72822550e-02
     9.75500941e-02 -4.73092571e-02  1.12778738e-01 -2.01687030e-02]]

  [[-1.44188836e-01 -2.04247847e-01 -1.93694279e-01 -7.87468106e-02
    -9.27428436e-03 -1.43069908e-01 -1.63110003e-01  2.15183362e-01
    -2.04019591e-01  5.70970997e-02 -7.17588514e-02 -8.70613232e-02
     1.10100005e-02  1.66528933e-02  6.46415725e-02 -2.12320119e-01]
   [-2.66405016e-01 -5.88467866e-02 -1.00780919e-01  6.03259578e-02
     2.35217169e-01  1.53207943e-01 -6.36863828e-01 -1.38940528e-01
    -2.88314503e-02 -2.17620403e-01 -1.97696481e-02  7.54050398e-03
    -1.11184150e-01 -2.78736604e-03  4.88045327e-02 -2.04289719e-01]
   [-1.02445312e-01 -7.89076164e-02 -7.06334710e-02 -1.74411777e-02
     2.15291744e-03 -1.66370302e-01 -5.07948548e-02  1.31433979e-01
    -1.30561322e-01  1.53736606e-01 -4.06553447e-02 -9.73441526e-02
     2.52227217e-01 -6.73596412e-02  1.69626951e-01 -1.86759576e-01]
   [ 1.73667371e-01  1.81098908e-01  1.77131295e-01  2.75889575e-01
     3.14659923e-02  3.08642536e-01  7.87596479e-02  1.44551545e-01
     1.72647610e-01 -3.66674997e-02  5.48697338e-02  2.33556136e-01
     2.94716477e-01 -3.88463996e-02  3.34124714e-01  1.87654585e-01]
   [-1.04436971e-01 -3.33501250e-02  2.15808034e-01  6.96056634e-02
    -1.80272385e-01  6.43314272e-02 -2.10450873e-01  1.24598384e-01
    -2.66448427e-02 -2.98651814e-01 -5.33475354e-02  1.39331833e-01
     2.87588201e-02  1.59228384e-01  1.30725607e-01  5.68295177e-03]
   [-2.78949887e-02 -1.27799511e-01 -1.32549554e-01 -5.98441735e-02
    -7.16259405e-02 -1.40008882e-01 -2.26603046e-01  2.64620632e-01
    -1.17341265e-01  7.50323534e-02 -8.95646140e-02  7.32626617e-02
     1.30129278e-01 -3.08996141e-02  1.76799148e-01 -1.11973755e-01]]

  [[-3.62765417e-02 -2.01754302e-01 -4.17003185e-02 -2.06404805e-01
     2.59502046e-02 -1.18040346e-01 -2.75750935e-01  1.16925009e-01
    -1.27872005e-01  1.42582254e-02 -1.40396088e-01 -1.19009376e-01
     1.27452367e-03  4.22060825e-02  1.51629895e-01 -9.71020162e-02]
   [-3.13034087e-01 -9.21528786e-02  9.11274999e-02 -4.51791137e-02
     1.98654667e-01  1.24472082e-01 -7.05430090e-01 -1.17232084e-01
    -1.33029580e-01 -2.05736160e-01 -8.53902251e-02 -1.64340839e-01
    -1.14558391e-01  4.17892635e-02  1.00624219e-01 -1.43528953e-01]
   [-3.93671170e-02 -1.78019702e-02 -1.62423119e-01 -1.65493205e-01
    -2.86406279e-02 -1.43748922e-02 -2.01790094e-01  2.03173116e-01
    -1.82585213e-02  1.51311800e-01 -2.10306589e-02 -1.93740994e-01
     9.85000879e-02  2.88045499e-02  1.81071818e-01 -2.53414288e-02]
   [ 2.29747653e-01  1.84285119e-01  2.09937140e-01  1.26740575e-01
     5.03590256e-02  3.45288873e-01  1.56271994e-01 -5.37688322e-02
    -2.01395191e-02  2.81664371e-01  1.75476834e-01  2.78627098e-01
     3.21156949e-01  2.42922917e-01  1.19721621e-01  7.24979863e-02]
   [-1.33140981e-01  2.80005336e-02  7.98927769e-02  4.29123007e-02
    -2.27395296e-01  1.74843132e-01 -3.61383200e-01  9.43496376e-02
    -9.34681147e-02 -2.08287776e-01  2.92511545e-02  1.87940493e-01
    -6.30833656e-02  1.46311373e-01 -3.88726108e-02  1.76783130e-01]
   [-6.70681000e-02 -1.23123452e-01 -1.56478718e-01 -2.26581737e-01
     1.33756585e-02 -1.11082993e-01 -2.47934371e-01  1.18996024e-01
    -2.26596698e-01 -3.27120721e-02 -9.82908979e-02  2.38450356e-02
     1.58715710e-01 -2.63879877e-02  2.28248298e-01  5.58174029e-03]]

  [[-1.10064097e-01 -9.98572186e-02 -1.89370379e-01 -3.14209372e-01
    -4.63024229e-02 -2.12723583e-01 -3.36517870e-01  1.57374814e-01
    -1.60750285e-01 -1.10671744e-01 -7.05107898e-02 -1.80993870e-01
     1.47932068e-01  7.59370402e-02  1.43642962e-01 -9.01921317e-02]
   [-2.83997655e-01 -9.47063491e-02  2.55763263e-01 -1.32191285e-01
     1.55625924e-01 -5.71400486e-02 -7.64900267e-01 -1.25746086e-01
    -7.90770724e-02  3.69091108e-02  2.10151434e-01 -7.32404366e-02
    -1.37637541e-01  9.27954540e-02  2.21638139e-02  9.29575115e-02]
   [ 6.25796765e-02 -5.51168099e-02 -2.08136335e-01 -2.99178481e-01
     6.29747286e-02 -1.90148443e-01 -5.83924651e-02  1.91965938e-01
    -1.24037035e-01  7.59168416e-02 -1.64448410e-01 -1.62658766e-01
     2.93942571e-01  1.77938165e-03  2.36640543e-01 -3.88835743e-02]
   [ 1.46746188e-01  1.74918875e-01  1.51940897e-01  1.61054656e-01
     3.45311612e-02 -2.70579173e-03  1.32758856e-01 -1.78074375e-01
     1.07008427e-01  1.92518175e-01  2.87762970e-01  2.64669001e-01
     1.80545568e-01  3.16252172e-01  6.90262243e-02  1.05558842e-01]
   [-1.68890581e-01 -9.56462547e-02  2.28138253e-01  1.09835275e-01
    -2.52459556e-01  2.33022884e-01 -3.76763433e-01 -1.05655767e-01
    -2.62870282e-01 -9.67889205e-02  1.16895244e-01  1.70943066e-02
    -7.01522678e-02  2.18374282e-01  1.06118627e-01  1.10508807e-01]
   [-1.00565434e-01 -2.16871679e-01 -3.18193920e-02 -1.49536103e-01
    -9.31382552e-02 -1.11148857e-01 -2.15927333e-01  1.64941773e-01
    -1.88152060e-01 -1.23070389e-01 -1.11287691e-01 -8.52817297e-02
     3.09942327e-02  1.95470769e-02  3.47667374e-02  5.28365560e-02]]]]
le_net5/conv2d_1/bias:0
(16,)
[0.39388645 0.28483728 0.31131962 0.3204386  0.21522588 0.28342265
 0.25763172 0.08581958 0.30480447 0.35017833 0.32125658 0.33050272
 0.36078858 0.3314723  0.3207048  0.2662028 ]
le_net5/dense/kernel:0
(400, 128)
[[-3.15047324e-01  1.33306593e-01  3.58162038e-02  2.50282317e-01
   9.25281420e-02 -5.53064495e-02 -1.16698496e-01 -1.39779672e-01
   9.37166139e-02 -4.12449203e-02 -6.22971822e-03 -3.82191926e-01
  -4.36458409e-01  8.46733153e-02 -2.47944742e-01  2.78505385e-01
   1.51594564e-01 -3.96745838e-02 -2.17012912e-01  9.21151564e-02
  -1.97934106e-01  9.32076946e-02 -3.89416695e-01 -7.37936283e-03
   2.61724263e-01  2.89035171e-01 -1.76218394e-02  1.09710336e-01
   3.50558519e-01  1.46547750e-01  2.97325343e-01  1.00576721e-01
  -2.04754606e-01 -7.77996182e-02  2.80284792e-01  1.72124766e-02
  -1.13305509e-01  2.16096967e-01 -2.10174769e-01 -3.72098833e-02
  -1.40749902e-01  1.51289646e-02  1.69015273e-01 -8.60304758e-02
  -1.43490076e-01  2.49429762e-01  1.40882775e-01 -3.65023673e-01
   3.10194194e-02  4.20958787e-01 -2.95145903e-02 -2.43912399e-01
   1.06541455e-01 -3.70164067e-02  2.51760259e-02  8.30853805e-02
  -7.95964822e-02  8.19935873e-02 -9.03378651e-02  5.06474040e-02
  -6.16106205e-02 -1.50756136e-01 -9.77994874e-02 -1.56378865e-01
   3.11583459e-01 -3.85530740e-02 -1.78828686e-01  3.93125057e-01
   1.14776582e-01 -4.75254238e-01 -7.05167428e-02 -1.83473259e-01
  -3.90840136e-02 -2.43625324e-02 -1.89887270e-01  1.70799688e-01
   1.63572505e-02  3.93208146e-01 -9.81881917e-02  8.90372097e-02
  -1.02149555e-02  9.87317786e-03 -1.39397785e-01 -1.68281928e-01
   1.93995729e-01 -4.03898358e-02  1.42080978e-01 -2.35374078e-01
  -2.27886617e-01 -1.42886534e-01  2.36548975e-01  1.35571659e-01
   2.00186446e-01  6.83432892e-02  2.00382620e-02  1.12166060e-02
  -1.30451620e-01 -4.91861664e-02  3.28774184e-01 -1.29232079e-01
   8.16502273e-02  4.39859070e-02  2.70719677e-01  2.23758854e-02
   3.74973640e-02  1.96802467e-01 -8.51596817e-02  1.17263786e-01
  -3.64117682e-01 -4.13296819e-02  1.16757721e-01  1.42053902e-01
   6.47479817e-02  8.55673663e-03  2.07101442e-02  2.42250249e-01
  -4.87498529e-02  1.40449300e-01  1.45521581e-01 -1.94643348e-01
  -1.42160714e-01  1.03593664e-02  1.01594981e-02  3.35517451e-02
   1.21225037e-01 -3.61655325e-01  9.96300429e-02  5.80059662e-02]
 [-2.69320399e-01  2.89689928e-01 -1.91131920e-01  2.10729651e-02
  -1.86126097e-03 -1.35108039e-01 -1.54633671e-01 -1.63246557e-01
   3.27068388e-01  1.09542519e-01  1.78788304e-01 -4.92842764e-01
  -3.63738537e-01  7.91616216e-02 -2.85402890e-02  2.50284255e-01
   3.68207872e-01 -1.79487374e-02 -5.68849593e-02  2.26187050e-01
  -1.02152236e-01  4.21976537e-01 -2.31299564e-01  5.70320301e-02
   1.63361013e-01  2.41990402e-01 -6.15465604e-02  3.50981563e-01
   3.14739466e-01 -8.30603540e-02  2.25677252e-01  2.85179138e-01
  -1.48676768e-01  1.14121422e-01  2.09353492e-01  1.60612807e-01
  -2.89393276e-01  1.75323412e-01 -3.13749075e-01 -2.06407756e-01
  -2.34526664e-01  2.32844189e-01 -5.16292825e-02 -8.48652795e-02
  -1.65224850e-01  3.70181561e-01  1.62996009e-01 -3.91284913e-01
   1.61926687e-01  4.16167259e-01 -2.76548713e-01 -1.35123149e-01
   2.47457251e-01  6.50467649e-02  1.74709320e-01 -5.95333800e-02
   2.47633919e-01  2.81627685e-01 -1.32173091e-01 -3.16560715e-02
  -1.65175945e-01 -6.65730983e-02 -7.27349594e-02 -1.04976363e-01
   2.81304806e-01 -2.39013031e-01 -1.45882204e-01  4.36758339e-01
   1.11667715e-01 -3.27310562e-01 -2.70739287e-01 -2.44910046e-01
  -2.29675829e-01 -3.12537849e-02 -1.95376828e-01 -4.53297980e-02
  -2.68209755e-01  3.49182427e-01  1.64423347e-01  2.88041413e-01
  -3.06368440e-01 -2.15556920e-02 -1.72435213e-02 -2.88144201e-01
  -9.90859419e-02 -3.98538142e-01  6.88005844e-03 -5.21645010e-01
  -3.63853097e-01 -2.65524238e-01  2.01102227e-01 -3.43480736e-01
   3.62359017e-01  1.26826003e-01  1.59843341e-02 -3.47926654e-02
  -2.71413028e-01 -1.36018321e-01  3.18424076e-01 -2.55772293e-01
   1.82812102e-02  2.88345009e-01  1.34846240e-01 -5.33400849e-02
  -1.19045138e-01  3.02557141e-01 -1.78484276e-01  1.45069331e-01
  -3.91105920e-01 -3.06721210e-01 -1.26453713e-01  8.00774321e-02
  -6.75785020e-02 -1.56935349e-01  9.02380720e-02  3.20405871e-01
   1.61291271e-01  4.22075510e-01  1.89355686e-01 -3.15008968e-01
  -2.50088930e-01 -2.30589703e-01  9.23948288e-02  2.23417133e-01
   1.33878171e-01 -2.32308626e-01 -4.48956303e-02 -2.25734234e-01]
 [-1.51897505e-01  1.55913055e-01 -1.03103817e-01  2.57758945e-01
   1.04981117e-01 -3.18861544e-01 -2.15726823e-01 -1.39825687e-01
   3.55995446e-01  1.40127344e-02  3.03476572e-01 -3.47251117e-01
  -5.48623621e-01  4.46163677e-02 -2.69946337e-01  4.26838994e-01
   3.17911804e-01 -6.67707324e-02  8.22406560e-02 -3.17179859e-02
  -4.75746356e-02  3.53262275e-01 -4.32851672e-01 -6.51101619e-02
   1.67268857e-01  2.39979073e-01 -2.62960255e-01  2.33069286e-01
   3.54636580e-01  1.55576929e-01  2.38719702e-01  8.98648500e-02
  -2.18064651e-01 -5.44708036e-02  3.33644718e-01  1.57450795e-01
  -2.72710115e-01  2.21554697e-01 -1.93264782e-01 -1.27098978e-01
  -7.83812627e-02 -2.43266970e-02  4.06668931e-02 -1.47486895e-01
  -1.18888289e-01  2.47561291e-01  2.28187278e-01 -2.54091680e-01
   9.23958942e-02  3.79864573e-01 -1.73525035e-01 -3.20121050e-01
   7.84848407e-02 -9.17599630e-03 -4.12973948e-02 -2.42505465e-02
   1.08583318e-02  2.83550918e-01 -9.07695666e-02 -7.99528230e-03
  -1.00610450e-01  1.95883904e-02 -1.14167340e-01 -2.17819571e-01
   1.64088696e-01 -3.05961162e-01 -3.36335637e-02  3.75609010e-01
   1.33165583e-01 -4.69024181e-01 -8.21398199e-02 -4.62232739e-01
  -3.61568600e-01 -8.97308514e-02 -2.03704283e-01 -8.46415758e-02
  -2.03583181e-01  3.62690687e-01  1.97346836e-01  2.70519555e-01
  -9.25831273e-02 -1.64390489e-01 -2.73267448e-01 -2.19009802e-01
   1.51392475e-01 -1.86256096e-01 -8.09088815e-05 -4.48664308e-01
  -2.86148190e-01 -1.26021355e-01  3.35360497e-01 -9.43586603e-02
   3.43937248e-01  4.57440242e-02 -3.93308252e-02  1.25045795e-02
  -2.02886924e-01 -1.92221597e-01  6.36927724e-01 -8.15896690e-02
   5.54374754e-02  2.85687625e-01  4.03188825e-01 -1.05718160e-02
  -2.58020079e-03  3.92847598e-01 -2.32574359e-01  6.17613122e-02
  -4.29158390e-01 -3.92889261e-01 -1.46533158e-02  1.23824991e-01
  -1.52780324e-01 -9.30748321e-03  2.67173558e-01  1.33532465e-01
   1.78106338e-01  3.35747421e-01  2.87382364e-01 -2.93862373e-01
  -2.96624541e-01 -1.95604503e-01  4.68784422e-02  1.17294356e-01
   3.00657172e-02 -4.24116939e-01  9.75055546e-02 -1.43622488e-01]
 [-4.69830371e-02  2.34025508e-01 -1.13061652e-01  1.06352583e-01
   6.35168701e-02 -5.60008660e-02 -6.16936684e-02 -1.04392424e-01
   2.41909876e-01  2.95368843e-02  2.15071306e-01 -2.56547123e-01
  -3.36417466e-01  7.58307874e-02  5.47679104e-02  7.24262893e-02
   2.74694473e-01 -1.35624558e-01  6.02152012e-03 -6.11269772e-02
   3.45144309e-02  2.22482771e-01 -2.32217446e-01  9.53475386e-03
   2.27762744e-01  1.99731842e-01 -1.65790796e-01  8.93964842e-02
   4.46469709e-02 -2.21909415e-02  1.91716120e-01  2.73481727e-01
  -4.78138402e-02  6.86344430e-02  1.25207916e-01  2.86625344e-02
  -1.05501458e-01 -2.07807589e-02 -1.12403326e-01 -4.72190827e-02
  -1.58978403e-01  8.86594690e-03 -1.02119081e-01 -1.67272091e-01
   6.06128722e-02  3.82286124e-02  1.26694918e-01 -5.22735193e-02
   2.36754641e-01  8.39413404e-02 -1.86745092e-01 -2.05429077e-01
   1.00561626e-01  3.46606299e-02  4.41163778e-02  4.11784723e-02
   1.10162437e-01  3.29348952e-01 -1.29238665e-01  3.50068696e-02
   3.10329217e-02 -1.31950602e-01 -1.43858761e-01 -4.21325937e-02
   1.45517334e-01 -3.46990526e-02 -2.06694394e-01  2.98208594e-01
   1.61581025e-01 -1.93380862e-01 -2.11002938e-02 -1.87431633e-01
  -2.37419531e-01 -1.36559099e-01 -4.23937514e-02  3.62988226e-02
  -4.96941321e-02  8.72547776e-02  2.26606220e-01  1.68117598e-01
  -8.76680464e-02  3.83337960e-02 -3.29663828e-02 -8.34459141e-02
  -3.70092429e-02 -2.95702487e-01  3.23031619e-02 -2.70537287e-01
  -2.24601269e-01 -7.79375359e-02  3.49994779e-01  2.84931306e-02
   2.46394113e-01 -1.05994772e-02  7.47098550e-02  8.37488621e-02
  -1.99582413e-01  2.50038821e-02  2.97231883e-01 -1.40729606e-01
   1.42804289e-03  9.87835228e-02  1.01418622e-01 -1.34786710e-01
  -3.64568233e-02  1.93845391e-01 -2.02095523e-01  1.97528318e-01
  -2.41596773e-01 -2.85038590e-01  5.39185591e-02  1.17045514e-01
  -1.44503281e-01 -1.15018398e-01 -3.79429432e-03  6.23782761e-02
   3.82910832e-04  3.27013135e-02  1.00873165e-01 -2.80614853e-01
  -2.11324334e-01 -1.29481956e-01 -7.74284303e-02  1.00686125e-01
   9.54681411e-02 -2.15661481e-01 -9.46180820e-02 -1.09858632e-01]
 [-3.20025504e-01  3.44310313e-01 -3.51090342e-01  7.46642724e-02
  -2.39943266e-02 -3.76062691e-01  3.40075284e-01  8.67789462e-02
  -1.78057626e-01  5.47690928e-01 -2.03678563e-01 -3.75534683e-01
  -3.46440732e-01 -3.04885060e-01 -9.50411707e-02  3.49153608e-01
   1.24439366e-01  1.33777469e-01 -1.49536058e-01  3.80131274e-01
   9.62049961e-02  2.56997287e-01 -3.44878078e-01  2.60937542e-01
  -1.03311487e-01 -4.69779298e-02 -2.67139494e-01  4.52663988e-01
   2.77602255e-01  2.16248065e-01  6.60533533e-02  3.43424052e-01
  -2.22215846e-01  1.02932803e-01  3.71032134e-02  3.51720721e-01
  -3.82227637e-02  2.95483798e-01 -4.23826575e-01  1.65405363e-01
  -4.59412605e-01  1.59481424e-03 -6.06663227e-01  1.48741797e-01
  -2.35764831e-01  4.70226765e-01  1.26449823e-01 -2.34049216e-01
  -7.94215826e-04  3.70386153e-01  4.36199270e-02  1.39913009e-03
   4.18875426e-01  5.64966977e-01  3.55485380e-01 -3.10160071e-01
   4.52161908e-01  4.22684312e-01 -5.18799312e-02 -2.38656789e-01
  -2.50231624e-01  2.16362402e-01 -7.56315887e-02 -8.03789794e-02
   4.43072706e-01 -3.81074160e-01 -2.27127150e-01  2.46082842e-01
   1.46605268e-01 -3.76198351e-01 -6.89242065e-01  1.45896420e-01
   4.17798497e-02 -1.26348495e-01 -9.83291045e-02  1.34365767e-01
  -5.53357244e-01  1.79023519e-01 -1.95796326e-01 -2.87330210e-01
  -4.72894341e-01  2.61901587e-01  3.01928908e-01  1.08745441e-01
  -7.88390279e-01 -4.34474528e-01  3.74239802e-01 -7.81265125e-02
  -2.91826785e-01 -1.99798241e-01  1.13413170e-01 -5.73559940e-01
   2.31606543e-01  3.91012989e-02  1.28280535e-01 -7.40653127e-02
  -1.14425950e-01 -4.18480217e-01 -8.80409628e-02 -1.31824717e-01
  -1.31201461e-01 -6.44842759e-02 -3.51046413e-01 -1.17602609e-01
  -4.60433245e-01 -2.13796973e-01  1.37662888e-01  1.86155066e-01
  -3.55902135e-01  1.63139664e-02 -3.08689058e-01  1.53345034e-01
   1.63340956e-01 -2.73446590e-01  1.18149064e-01  4.47669148e-01
   3.50308090e-01  1.61440045e-01  6.23155653e-01  1.57496274e-01
  -3.25545549e-01 -5.18015325e-01 -1.03622518e-01  4.18572932e-01
   5.20483702e-02 -2.24122733e-01 -1.20060511e-01 -7.15767264e-01]
 [-1.62600115e-01  1.34060860e-01 -3.32502693e-01 -7.46769160e-02
   1.03167556e-01 -1.52941525e-01 -1.12534175e-02 -1.50646299e-01
   2.44792566e-01  7.08348379e-02  1.47754699e-01 -4.91461933e-01
  -4.51104134e-01 -3.82683873e-02 -1.49750933e-01  3.21204066e-01
   2.52847224e-01  3.91014367e-02  1.57804176e-01  2.37901285e-01
  -1.92245498e-01  2.46698573e-01 -3.32244784e-01 -4.13764715e-02
   8.05244446e-02  3.88974428e-01 -2.91176945e-01  3.06264549e-01
   3.74744356e-01 -9.54253823e-02  4.65393484e-01  1.92204580e-01
  -1.91545784e-01  2.76129216e-01  9.70024019e-02  2.07082391e-01
  -3.53893369e-01  9.78654400e-02 -2.97247529e-01 -1.46265820e-01
  -3.31870049e-01  2.11284831e-01 -1.06357105e-01 -4.43237983e-02
  -1.66357160e-01  5.49574554e-01  2.45410264e-01 -3.39061439e-01
   3.06390300e-02  5.50983667e-01 -1.80578128e-01 -2.43332684e-01
   1.45048305e-01  1.65145248e-01  1.38744146e-01 -3.85847837e-01
   3.81788313e-01  3.82327944e-01 -3.06886971e-01 -1.03273220e-01
  -1.92310616e-01  6.67847842e-02 -2.06675515e-01 -1.89496815e-01
   2.28904665e-01 -4.82852846e-01 -1.86639249e-01  4.67248440e-01
   1.91009253e-01 -5.49171686e-01 -1.82796061e-01 -3.59365463e-01
  -4.23811615e-01 -1.16119504e-01 -2.16011882e-01  1.31124750e-01
  -2.72338033e-01  3.57525408e-01  3.20363790e-02  6.75628632e-02
  -4.99654382e-01  5.58801228e-03 -1.47750378e-02 -2.04709917e-01
  -8.96037221e-02 -3.11028183e-01  1.33906692e-01 -4.08605039e-01
  -2.47639984e-01 -1.80247501e-01  2.77996898e-01 -2.53233999e-01
   2.24497437e-01  3.38903964e-02  1.50284812e-01  1.65029429e-02
  -1.33915842e-01 -2.86875904e-01  4.96370405e-01 -3.33660811e-01
   4.73852530e-02  2.03353032e-01  1.13726854e-01  1.33689031e-01
  -1.58995628e-01  1.78515255e-01 -5.30105568e-02  1.12154558e-01
  -5.47079682e-01 -3.08410108e-01 -1.77258000e-01  1.31049380e-01
   1.16248786e-01 -3.16569537e-01  2.81494647e-01  5.38048506e-01
   2.64431119e-01  3.45310777e-01  5.65724850e-01 -4.62733805e-01
  -2.58912504e-01 -3.12712491e-01 -2.02249348e-01  1.18726932e-01
   9.38812345e-02 -4.90786433e-01  2.37746928e-02 -4.47481632e-01]
 [-4.93259057e-02  1.44304723e-01 -5.57738654e-02  1.06683798e-01
   1.94156189e-02 -2.50500962e-02 -7.62988776e-02 -5.48639819e-02
   2.53385216e-01 -1.15282694e-02  2.51486808e-01 -1.42792478e-01
  -1.84882611e-01 -1.44582599e-01 -7.34597594e-02  2.20811069e-01
   4.52950269e-01 -3.94175090e-02  1.87463433e-01  7.54726604e-02
  -3.89983132e-02  2.07296953e-01 -1.68965891e-01 -7.68541023e-02
  -3.20111848e-02  6.35910705e-02 -5.93584776e-02  1.53971031e-01
   1.73961908e-01 -3.88714708e-02 -2.56303307e-02  2.00297147e-01
  -2.02487230e-01  3.24246511e-02  7.57496282e-02 -2.73267902e-03
  -2.47872010e-01 -2.69924682e-02 -2.30843529e-01 -4.69045714e-02
  -1.04209550e-01  2.14391537e-02 -3.14554013e-02 -9.48905498e-02
  -8.56091157e-02  1.31563321e-01  3.46587449e-01 -2.13238765e-02
   2.28761181e-01  1.03092171e-01 -4.11307275e-01 -3.55624050e-01
   2.09390819e-01  5.10465801e-02 -8.06373805e-02 -6.85528219e-02
   8.29200074e-02  1.67393446e-01 -2.91775972e-01 -4.27081995e-02
   9.52714384e-02  7.67531665e-03  7.24776685e-02 -1.21992633e-01
  -1.27199665e-01 -2.93446392e-01 -1.55064493e-01  2.24741951e-01
   1.98466301e-01 -3.20395380e-01 -8.65002945e-02 -2.52404898e-01
  -9.57451761e-02 -1.63095802e-01 -9.44111904e-04  1.39929652e-01
   1.27915861e-02  1.01285860e-01  1.84087768e-01  1.04844838e-01
  -1.64081082e-01 -9.51765552e-02 -1.06429197e-01 -1.40656814e-01
   1.26520544e-01 -2.87512392e-01  2.89606676e-02 -1.70473278e-01
  -4.75792922e-02  1.02017755e-02  2.05091357e-01 -2.42231488e-01
   1.90690860e-01 -3.82424928e-02 -1.68269910e-02 -6.34737359e-03
  -8.36850926e-02  1.79553442e-02  3.59525889e-01 -4.39284602e-03
   1.58599541e-01  1.24667892e-02  1.69366062e-01 -1.85406432e-01
  -1.15873463e-01  1.09417818e-01 -2.57336766e-01  2.80225515e-01
  -2.38863438e-01 -1.96999818e-01 -3.13752890e-02  9.81098190e-02
  -1.93112612e-01 -6.54798895e-02  1.29289150e-01  6.45063370e-02
   1.13144144e-01  1.36203557e-01  4.26245369e-02 -4.43782836e-01
  -1.60908565e-01 -2.44519234e-01 -7.56624341e-03  1.22190639e-01
   9.56273079e-02 -1.97825477e-01  1.99889541e-01 -1.51079193e-01]
 [-1.86651245e-01  1.20349132e-01 -4.93976265e-01  2.97296848e-02
   2.01485246e-01 -3.42203110e-01 -4.53013442e-02 -3.30192186e-02
   2.28990510e-01  2.33011499e-01  4.13647220e-02 -2.97551692e-01
  -3.51548851e-01  1.92228585e-01  1.85337067e-01 -8.94641951e-02
  -1.46405995e-01  1.37580233e-02  5.69951199e-02  1.15545914e-01
  -9.98043418e-02  2.76835471e-01 -8.23755637e-02  1.92002818e-01
   5.03627121e-01  3.35231692e-01 -9.70358774e-02  1.89020991e-01
   1.02956191e-01  2.77524292e-02  3.43624532e-01  5.63619025e-02
   3.24196257e-02  4.11666393e-01  3.32261361e-02  2.53612082e-02
  -2.54545301e-01  4.90413513e-03 -1.87750652e-01 -1.18512586e-01
  -2.44859472e-01  4.26655322e-01 -3.32190990e-01  6.41004592e-02
  -1.73236445e-01  2.56109983e-01 -7.69264847e-02 -2.85185665e-01
   4.59176973e-02  3.07114422e-01  9.37010422e-02  2.07398951e-01
   1.05800986e-01  4.63745326e-01  6.00142069e-02 -4.87326354e-01
   4.59381253e-01  4.14431870e-01 -1.43607199e-01  6.07554168e-02
  -3.50968987e-01  8.68538097e-02 -1.00996874e-01  1.11654801e-02
   2.05522478e-01  3.04066576e-03 -1.08100094e-01  1.46535799e-01
  -1.03308730e-01 -4.00221437e-01 -4.09739584e-01  5.96264340e-02
  -4.17388529e-01  1.95839062e-01 -2.15458289e-01 -2.71455973e-01
  -1.87294170e-01  1.42081067e-01 -1.90538585e-01  1.38071314e-01
  -2.18217567e-01 -9.80870351e-02  3.84714752e-02 -1.70943424e-01
  -3.26468557e-01 -2.39607573e-01  6.53460026e-02 -6.41045868e-01
  -2.60637760e-01 -1.96987271e-01  1.84460253e-01 -2.07735434e-01
   1.02515116e-01  7.03535601e-02  1.84603203e-02  8.62766057e-03
  -2.64039844e-01 -6.75563738e-02  7.79719353e-02 -4.43431377e-01
  -2.02020690e-01  4.05122072e-01 -3.54308598e-02  5.68597354e-02
  -9.17380378e-02  9.84334946e-02  3.99231732e-01 -1.31823540e-01
  -5.03996074e-01 -1.02457941e-01 -3.79288107e-01  2.04911502e-03
   8.44947323e-02 -5.29829383e-01  9.38799828e-02  2.29874581e-01
   7.04591423e-02  3.42043132e-01  3.13506603e-01 -1.99647844e-01
  -3.79475236e-01 -1.69778496e-01  7.93784391e-03  2.18625560e-01
   2.31679171e-01 -2.45480705e-02 -2.28904381e-01 -2.70827949e-01]
 [-1.70133471e-01  2.65130103e-01 -3.44751984e-01  8.50245133e-02
   1.14774555e-02 -2.57769644e-01 -4.28038687e-02  1.05565019e-01
   2.03177914e-01  5.53958341e-02  2.08174035e-01 -2.82966226e-01
  -4.18183804e-01 -2.07695961e-01 -6.66439086e-02  1.19928755e-01
   1.95290893e-01  3.37864272e-02  2.14791194e-01  6.82519525e-02
  -2.83952355e-02  2.76155680e-01 -1.58555597e-01  2.04952154e-02
  -3.05885579e-02  3.23001564e-01 -1.07655905e-01  2.31333435e-01
   1.57980084e-01 -4.63705398e-02  2.50907719e-01  1.86666623e-01
   1.08477206e-03  2.29571760e-01  8.64072368e-02  1.43434957e-01
  -1.72672570e-01 -6.09315597e-02 -1.97899371e-01 -4.86240871e-02
  -2.18717545e-01  3.07494223e-01 -3.13417882e-01  1.99817896e-01
  -1.46842480e-01  1.85135469e-01  2.42569849e-01 -1.86118037e-01
   4.50695641e-02  1.59763411e-01 -1.56448737e-01 -4.06531021e-02
   2.98550755e-01  3.97080153e-01  2.36808717e-01 -3.62777919e-01
   4.12586987e-01  4.29955244e-01 -2.73330837e-01 -1.09938048e-01
  -9.77393612e-02  1.36289820e-01  2.62405843e-01  5.07749282e-02
   1.12729341e-01 -2.53219575e-01 -5.94235472e-02  2.95445859e-01
   2.17650235e-01 -2.20097288e-01 -3.72599453e-01 -1.04215071e-01
  -2.50712365e-01  1.86613947e-02 -4.77797277e-02 -1.30192161e-01
  -1.90602794e-01  2.35023603e-01  8.18788782e-02  2.17921630e-01
  -5.13782680e-01 -3.12844887e-02  7.33044278e-03 -1.46125421e-01
  -2.64803171e-01 -4.02524531e-01  3.75249200e-02 -3.29821318e-01
  -9.63433757e-02 -1.73222065e-01  3.09482336e-01 -5.33266842e-01
   6.17774054e-02  1.02939382e-01  6.20125607e-03 -3.34907509e-02
  -5.71485385e-02 -6.57980517e-02  2.58211315e-01 -2.09194362e-01
   1.60378218e-01  3.05753499e-01  4.36942838e-02  1.06173180e-01
  -2.24442214e-01  2.43788779e-01 -8.66689309e-02  1.95875973e-01
  -3.43340725e-01 -1.89394981e-01 -2.06610411e-01 -8.28609429e-03
   1.27374232e-01 -1.61007956e-01  1.47138909e-01  2.09856853e-01
   2.50554204e-01  3.04224879e-01  3.06430310e-01 -3.54464889e-01
  -7.48082101e-02 -4.27911460e-01 -7.41828745e-03  2.68004984e-01
   1.03783332e-01 -1.48417160e-01  8.55419133e-03 -5.76319516e-01]
 [-3.46401811e-01 -4.73793969e-02 -1.00397719e-02 -7.08383918e-02
  -4.95342948e-02 -1.55588865e-01  7.20594227e-02 -2.55037844e-01
   1.08059004e-01  1.92689970e-01  1.52431086e-01 -3.23625475e-01
  -4.97319281e-01  3.27369928e-01 -8.17968100e-02  2.56278515e-01
   9.88271907e-02 -3.89262028e-02 -1.99390903e-01  1.12098649e-01
  -1.40778318e-01  2.15779409e-01 -4.77506250e-01  1.54375583e-01
   3.56547415e-01  3.58816326e-01 -3.23136568e-01  2.15373680e-01
   3.87621343e-01 -1.11016124e-01  2.28558645e-01  4.34066951e-02
  -4.48621601e-01  5.74422255e-02  1.09598696e-01 -2.29676794e-02
  -9.43354443e-02 -5.75208552e-02 -4.14149463e-02 -1.34391367e-01
  -1.77510738e-01  6.32503107e-02 -9.75710675e-02 -1.00753389e-01
  -2.32584089e-01  3.31872851e-01 -2.78648138e-01 -5.12202561e-01
  -1.19541310e-01  5.32596469e-01 -1.62490495e-02  2.04202142e-02
  -1.46859065e-01  5.51561899e-02 -9.41269174e-02  7.51602724e-02
   1.34452302e-02  2.34032959e-01 -1.95410132e-01  1.41326254e-02
  -1.32781655e-01 -1.33270603e-02 -5.95007896e-01 -5.25066778e-02
   2.27708757e-01 -2.37506479e-01  2.26429179e-02  4.22822744e-01
  -3.06890190e-01 -5.59840143e-01 -5.11172824e-02 -9.66420993e-02
  -1.53585836e-01 -4.62789088e-02 -1.25495702e-01 -1.68304354e-01
  -1.52513608e-01  2.53211826e-01 -2.46465936e-01 -4.34908383e-02
  -7.76365325e-02 -8.11131950e-03  9.18812677e-02 -5.58204614e-02
   2.29878742e-02 -1.96109295e-01  2.19223082e-01 -4.63824213e-01
  -1.75936118e-01 -2.45474696e-01  1.85488731e-01  5.13203628e-02
   2.89574534e-01  5.30646183e-02  8.66667181e-02  2.28803083e-02
  -2.27424636e-01 -1.68404773e-01  2.40324482e-01 -1.55021355e-01
  -2.94586837e-01  1.16530530e-01  2.00372815e-01  2.20886871e-01
  -1.43249348e-01  1.77753299e-01  1.73459813e-01 -1.34315655e-01
  -4.94331390e-01 -2.44944960e-01 -9.33769867e-02  1.81879401e-01
  -8.58794712e-03 -1.76375255e-01 -5.43145426e-02  3.68504643e-01
  -1.06309414e-01  2.12476879e-01  4.33005542e-01 -1.25079364e-01
  -3.05546880e-01  1.64340809e-02  5.42194396e-02  1.02030627e-01
  -4.36437177e-03 -5.88493288e-01 -7.50999227e-02  4.97121662e-02]
 [-3.63054335e-01  1.58214211e-01 -1.92388400e-01  9.07166079e-02
  -6.95937872e-02 -2.26477221e-01  1.52904456e-02 -1.08141214e-01
   2.46902257e-01  1.66432574e-01  1.49430245e-01 -4.16846484e-01
  -5.62809467e-01  2.02029243e-01 -3.76436651e-01  3.32947046e-01
   8.20888653e-02  5.88504821e-02 -4.33217511e-02  2.70053864e-01
  -1.46228909e-01  2.86995113e-01 -5.62894225e-01  7.82547295e-02
   2.18251660e-01  7.69900754e-02 -3.67129892e-01  4.51861560e-01
   5.02832532e-01  1.69462953e-02  1.74328670e-01  1.98337942e-01
  -4.75756854e-01 -1.81784064e-01  2.36927241e-01  1.64477736e-01
  -1.11136205e-01  1.75351992e-01 -9.37909037e-02 -2.08032131e-02
  -1.95716843e-01 -1.45535693e-01 -6.59042001e-02 -7.85155743e-02
  -1.07268631e-01  3.09577435e-01  6.91830367e-02 -2.69577205e-01
  -3.61443609e-02  5.45953751e-01 -1.40246943e-01 -3.02884132e-01
  -1.41142486e-02 -5.94317131e-02 -1.01499543e-01  1.62487790e-01
   3.65877040e-02  2.45252788e-01 -2.36541614e-01  1.61302835e-01
  -1.69463339e-03  1.02854013e-01 -5.38835526e-01 -6.33989647e-02
   1.99673548e-01 -5.14035523e-01 -2.23281384e-01  5.11524320e-01
   1.85436979e-02 -5.62869191e-01 -5.76197915e-02 -3.40564936e-01
  -3.35753471e-01 -2.13833839e-01 -2.42148414e-01  1.96061633e-03
  -2.95121521e-01  4.59556639e-01 -3.12284697e-02  1.03820689e-01
  -4.33896445e-02  2.90242061e-02 -3.42883058e-02 -7.05808867e-03
   1.41160384e-01 -1.66251287e-01  2.51033247e-01 -3.00160229e-01
  -2.58870900e-01 -2.53485888e-01  2.49386653e-01  3.90849933e-02
   3.37300390e-01 -2.62599792e-02  2.54384905e-01 -8.34557489e-02
  -3.34291011e-01 -2.84297556e-01  5.62330425e-01 -1.69005543e-01
  -1.80192620e-01 -3.38036753e-03  2.52465159e-01 -4.71207127e-02
  -4.01561856e-01  1.39373884e-01 -1.02657683e-01 -8.65852237e-02
  -3.65740538e-01 -3.64996225e-01 -1.27194956e-01  1.18921071e-01
  -2.39102557e-01 -3.75840068e-02  4.23142947e-02  2.35134184e-01
   1.97797552e-01  1.24509089e-01  4.00002390e-01 -3.32159489e-01
  -2.34933674e-01 -4.89460826e-02  2.25545727e-02  3.02500576e-01
  -1.12088814e-01 -6.94455028e-01  1.12512581e-01 -8.55510756e-02]
 [-2.72901297e-01  7.95433596e-02 -8.68915394e-02  3.00598890e-01
  -5.87171055e-02 -6.57315180e-02 -2.62226760e-01 -2.20741719e-01
   2.62408406e-01 -1.02527209e-01  1.41525716e-02 -4.13396120e-01
  -3.08159769e-01  2.59055346e-01 -2.71594644e-01  3.43137652e-01
   4.73840952e-01 -2.45362613e-02  1.05521679e-02 -6.20969795e-02
  -1.84871480e-01  6.60298094e-02 -4.31359172e-01  1.44528598e-01
   1.59631029e-01  2.00102076e-01 -1.27724603e-01  1.99513465e-01
   4.17829871e-01  1.89176202e-01  1.36167750e-01  1.31157070e-01
  -2.53919393e-01 -8.18003938e-02  1.58596843e-01  7.83837736e-02
  -2.51289070e-01  3.50968927e-01 -2.35233679e-01 -8.23068544e-02
  -1.32488862e-01 -5.20040430e-02  1.80130079e-01 -2.91098326e-01
   1.26633083e-03  4.48717363e-02 -5.73503040e-02 -3.62682700e-01
   1.36418924e-01  2.44189397e-01 -2.04167888e-01 -3.94625336e-01
  -1.05081290e-01 -1.30728841e-01 -1.01091467e-01  1.29963785e-01
  -1.33930221e-02  9.70246941e-02  7.45047703e-02  1.49689302e-01
  -3.54898125e-02 -6.51092455e-02 -2.83202857e-01 -1.26591638e-01
   8.56868029e-02 -1.16195910e-01 -1.29991561e-01  4.50295240e-01
  -4.81208190e-02 -4.60175693e-01  1.41871199e-01 -2.80901045e-01
  -2.65755445e-01 -2.20292598e-01 -1.26580909e-01 -5.39650731e-02
  -1.60437703e-01  3.11641276e-01  1.31299555e-01  1.12356536e-01
   2.86989622e-02  1.26136020e-01 -3.27457547e-01 -1.97951600e-01
   1.16253912e-01 -9.66623500e-02  1.62948121e-03 -2.58618593e-01
  -1.54378682e-01 -1.16578922e-01  1.99050978e-01 -1.27271265e-01
   2.92691350e-01  9.27142333e-03  4.33205813e-02 -7.75017217e-02
  -2.23511025e-01 -9.64361951e-02  3.06289315e-01 -6.83520138e-02
   1.11059070e-01  1.52725324e-01  3.65286738e-01  1.66090578e-02
   1.47659471e-02  1.90542534e-01 -2.76268959e-01  6.46007508e-02
  -3.81090254e-01 -2.08232045e-01 -2.32726652e-02  4.93514277e-02
  -3.73509198e-01  3.06284819e-02  2.14774773e-01  1.48649260e-01
   4.69109155e-02  3.95936593e-02  4.51317579e-02 -3.55525017e-01
  -3.50099295e-01 -1.34384006e-01 -3.47684063e-02 -3.95954549e-02
   5.62510081e-02 -4.04613048e-01  1.13710381e-01  3.13471816e-02]
 [-2.86452770e-01  1.80426672e-01 -3.56396109e-01 -2.74787936e-02
   1.09648399e-01 -1.97286293e-01  8.53647441e-02 -1.56108916e-01
   1.21037245e-01  1.21963285e-01  5.82791716e-02 -3.39917958e-01
  -5.21743238e-01  1.51907384e-01 -2.04253405e-01  4.13242817e-01
   2.19532758e-01 -5.04643507e-02 -9.12461132e-02  1.52133003e-01
  -3.94914187e-02  1.76219881e-01 -3.16372335e-01  3.05129111e-01
   3.09763908e-01  3.22373331e-01 -3.24513674e-01  3.13647658e-01
   4.49256867e-01  1.92772709e-02  3.79253685e-01  1.82924867e-01
  -2.97628224e-01  4.19344187e-01  6.21824600e-02  2.79665977e-01
  -2.80976802e-01  2.44917899e-01 -2.66921520e-01 -8.40674490e-02
  -4.92145270e-01  1.25885829e-01 -4.04255480e-01  1.51521608e-01
  -2.66142756e-01  4.97250050e-01  6.81348667e-02 -5.80519080e-01
  -4.46245261e-02  5.88755727e-01  9.70720425e-02  1.32002067e-02
   1.58936352e-01  4.49100941e-01  3.30091715e-01 -1.64537117e-01
   3.91974747e-01  2.92262733e-01 -7.42364749e-02  1.11897349e-01
  -2.48138279e-01  2.24217623e-02 -2.06783235e-01 -7.30125979e-02
   4.20692503e-01 -9.65739265e-02 -1.01946607e-01  3.97277117e-01
  -1.11164622e-01 -4.47353393e-01 -3.29461724e-01  1.02795281e-01
  -4.26233321e-01 -1.18667170e-01 -2.37187326e-01  1.03010908e-01
  -5.12889266e-01  2.55671412e-01 -1.01991527e-01 -3.25038135e-02
  -3.99681330e-01  1.57325447e-01  3.58242989e-02 -2.68951971e-02
  -2.82948941e-01 -4.43234980e-01  2.40169704e-01 -7.02010930e-01
  -4.06653315e-01 -1.99926570e-01  2.99211502e-01 -1.76968649e-01
   1.87269419e-01 -4.24906798e-02  7.73497596e-02  1.36335231e-02
  -2.66001821e-01 -2.57469445e-01  2.36248553e-01 -3.61114472e-01
  -3.17092717e-01  3.21181566e-01  2.08773427e-02  1.74187511e-01
  -2.94258356e-01  3.79909500e-02  1.76839083e-01  8.80349502e-02
  -7.13506103e-01 -4.77715731e-01 -4.66050655e-01  1.81841806e-01
   1.71705112e-01 -3.74682009e-01  2.28626370e-01  3.97942543e-01
   2.26159438e-01  2.99054593e-01  6.13485694e-01 -1.24726035e-02
  -3.59610736e-01 -1.02206565e-01  3.73033881e-02  1.61954984e-01
   1.24868691e-01 -4.20155555e-01 -7.01228529e-02 -3.21300566e-01]
 [-2.57117629e-01  2.24556684e-01 -4.94928122e-01 -1.89719573e-02
   7.50759616e-02 -2.80462265e-01 -5.88593148e-02 -2.20214888e-01
   3.58453602e-01  1.11350685e-01  2.95658737e-01 -3.82435560e-01
  -4.92831379e-01  1.70413360e-01 -1.74760565e-01  4.04844493e-01
   6.36015013e-02  1.52307779e-01  1.65770724e-01  2.49463469e-01
  -1.72528386e-01  5.51420450e-01 -4.98954177e-01  1.98248923e-01
   3.93214196e-01  2.90843636e-01 -3.28294337e-01  5.59514046e-01
   4.03793156e-01 -1.47764146e-01  3.32776845e-01  3.28072250e-01
  -2.18931586e-01  2.91928142e-01  7.78902993e-02  2.38264576e-01
  -2.81905890e-01 -7.09606186e-02 -4.10047144e-01 -1.57302022e-01
  -3.56316715e-01  1.61521628e-01 -3.27367187e-01  8.70594606e-02
  -1.15251482e-01  4.08150941e-01  3.91463824e-02 -3.70164454e-01
   5.16627729e-02  6.36656523e-01 -1.40863195e-01 -2.38937348e-01
   2.67931372e-01  3.00017923e-01  2.60383207e-02 -2.42089078e-01
   3.71119142e-01  5.19836366e-01 -4.38854218e-01  3.42393331e-02
  -2.17887625e-01  8.84531662e-02 -3.44193578e-01 -8.41029957e-02
   1.88849032e-01 -5.46556175e-01 -1.18866237e-03  5.36974192e-01
   1.40785888e-01 -3.79895061e-01 -3.39408189e-01 -3.12257022e-01
  -4.13553447e-01 -2.50452049e-02 -3.03593665e-01 -1.16491973e-01
  -3.67620736e-01  3.39787632e-01 -5.30005246e-02  1.94195509e-01
  -4.40194637e-01 -1.73558488e-01  1.97727457e-01 -1.34477273e-01
  -1.06914103e-01 -4.20076460e-01  1.36596188e-01 -6.60320818e-01
  -3.00755471e-01 -3.07537168e-01  2.70459414e-01 -3.27696294e-01
   3.19529772e-01  8.41936544e-02  2.06014603e-01  1.17546096e-02
  -3.10167104e-01 -2.58947939e-01  5.26398599e-01 -3.65414023e-01
  -2.48350561e-01  3.91977400e-01  2.98937291e-01  7.00662211e-02
  -2.56985337e-01  3.70167524e-01  2.24260781e-02 -4.97370679e-03
  -6.15608394e-01 -3.51519108e-01 -3.26617718e-01  1.03638686e-01
  -1.23195708e-01 -2.90267587e-01  1.89662203e-01  3.77007365e-01
   2.51287609e-01  2.91659564e-01  3.69023949e-01 -5.15126586e-01
  -2.63275325e-01 -4.27323550e-01 -1.01765461e-01  4.15945321e-01
   1.13221809e-01 -5.58439374e-01 -8.58303756e-02 -3.64278287e-01]
 [-2.31841862e-01  1.73155740e-01 -4.63722736e-01  2.18563467e-01
  -1.08881325e-01 -2.25054249e-01  9.37922597e-02 -3.85878198e-02
  -3.22434939e-02  2.87701249e-01 -3.05718463e-02 -2.75095552e-01
  -3.23197126e-01  9.97285619e-02 -1.96103901e-01  3.89444649e-01
   4.76614460e-02  7.16991052e-02 -2.24929303e-01  1.86091959e-01
   1.16515853e-01  1.39697164e-01 -2.48206049e-01  2.82315254e-01
   2.93887019e-01  1.06295884e-01 -2.65237421e-01  3.93431425e-01
   2.19048634e-01  2.15332076e-01  1.21806897e-01  5.08944355e-02
  -2.24601790e-01  2.22035602e-01 -2.85175405e-02  1.68672457e-01
  -3.29925895e-01  3.41823548e-01 -2.80053586e-01 -3.11137307e-02
  -3.91259789e-01  1.10282853e-01 -3.08174402e-01  2.48950452e-01
  -2.92718470e-01  3.24862182e-01  1.55501053e-01 -3.19980592e-01
   1.59233168e-01  3.61036867e-01  6.18331358e-02  1.24555521e-01
   2.20937088e-01  3.31808627e-01  3.25088978e-01 -5.83120249e-02
   3.12613130e-01  3.22014242e-01  6.03045449e-02 -4.31700684e-02
  -2.71915138e-01  4.57826704e-02 -2.20856786e-01 -1.01595357e-01
   3.22387487e-01 -4.58096666e-03 -1.78422496e-01  3.03475320e-01
   1.08243950e-01 -2.99280643e-01 -3.27339649e-01  1.68057114e-01
  -3.68892133e-01 -1.99832976e-01 -5.57097308e-02  8.83718953e-02
  -4.56783086e-01  3.30292165e-01 -2.45711859e-02 -1.12409584e-01
  -4.19075221e-01  2.50655919e-01  2.20553279e-01 -6.63881525e-02
  -2.69465327e-01 -3.94436479e-01  1.37339979e-01 -6.82460189e-01
  -2.96744794e-01 -3.22981104e-02  2.03996643e-01 -3.19270939e-01
   1.06824823e-01  7.07435086e-02  9.36172456e-02 -7.81240836e-02
  -1.81853458e-01 -1.52311027e-01  1.50862440e-01 -1.76688194e-01
  -2.00001806e-01  3.01944643e-01 -7.18880296e-02  1.15984067e-01
  -1.22994348e-01 -1.43184021e-01  1.90434039e-01  1.00403205e-01
  -5.21670163e-01 -3.54250193e-01 -3.01871538e-01  8.61554369e-02
   1.89300790e-01 -4.09827828e-01 -7.74767846e-02  2.74919450e-01
   2.11951032e-01  1.77089542e-01  4.57013965e-01 -5.96590377e-02
  -4.06792819e-01 -6.28473982e-02 -1.34746969e-01  2.74481606e-02
  -4.14100662e-02 -1.56534627e-01  2.81811804e-02 -4.52885687e-01]
 [-1.68966874e-01  2.62249440e-01 -1.11716002e-01  1.52653784e-01
   9.34747010e-02 -1.03662953e-01 -1.55733004e-01 -5.02498262e-02
   3.15587282e-01  6.53574243e-03  2.17044324e-01 -3.15688014e-01
  -4.31875080e-01  3.47291608e-03 -1.53135702e-01  2.30306014e-01
   3.55173767e-01  8.48305896e-02  2.67319500e-01  2.16733605e-01
  -2.27977354e-02  3.71085763e-01 -3.36004376e-01 -1.41355336e-01
   2.51161575e-01  1.31418183e-01 -1.85150221e-01  1.87366426e-01
   3.07671815e-01  1.90992191e-01  6.01166449e-02  3.69740665e-01
  -1.38336122e-01 -9.14234444e-02  1.27210438e-01  2.40722612e-01
  -6.80612400e-02  1.62072256e-01 -2.55616009e-01 -1.12331174e-01
  -8.38144720e-02 -1.21616058e-01  2.12266184e-02 -1.68877095e-01
  -3.38718481e-02  1.64680570e-01  2.74030358e-01 -1.55255958e-01
   1.02522589e-01  3.67156625e-01 -3.53762388e-01 -4.66683835e-01
   1.36073679e-01 -1.96190819e-01 -5.76790124e-02  5.23645023e-04
  -1.04177535e-01  2.66536176e-01 -1.62554786e-01 -1.82040613e-02
   1.88336596e-02  6.96408702e-03 -1.46968678e-01 -1.63714334e-01
   2.41655987e-02 -4.02613521e-01 -1.67629495e-01  3.92149746e-01
   1.60636052e-01 -4.02462989e-01  8.73658981e-04 -4.27057117e-01
  -2.63388544e-01 -5.13330884e-02 -1.68307692e-01  2.83607785e-02
  -1.25844717e-01  2.12374881e-01  7.28488714e-02  2.49964669e-01
   4.72834781e-02 -8.48882571e-02 -5.49959466e-02 -1.78453073e-01
  -1.76309943e-02 -6.59803376e-02 -3.21338661e-02 -1.99958667e-01
  -1.18722841e-01 -1.55418679e-01  2.50524253e-01 -1.17883518e-01
   1.63899496e-01 -1.88995134e-02  8.95439386e-02 -1.44927949e-01
  -1.05203912e-01 -2.63384860e-02  5.75819254e-01 -6.59608692e-02
   9.91553292e-02  3.98864336e-02  3.96860033e-01 -7.91988596e-02
  -8.42759758e-02  3.80848706e-01 -2.70817846e-01  2.09597111e-01
  -2.46780813e-01 -1.06699765e-01  2.35555246e-02  1.37186602e-01
  -3.68069172e-01 -7.11471587e-02  2.72928655e-01  1.67352393e-01
   1.66398004e-01  1.54766262e-01  1.71995580e-01 -4.65485573e-01
  -7.80438557e-02 -2.97363192e-01 -1.64826334e-01  1.45976394e-01
   4.15404662e-02 -3.23307246e-01  4.00998145e-02 -7.20681623e-02]
 [-2.45533273e-01  1.04023136e-01  1.65234506e-01  2.75424540e-01
  -1.60157472e-01 -1.11618917e-02 -8.00647736e-02 -1.94732755e-01
  -1.42119348e-01 -1.09756537e-01  4.44898605e-02 -8.79563317e-02
  -1.56025603e-01  1.92892328e-01 -2.66931683e-01  9.79250595e-02
  -7.10502788e-02 -4.08919640e-02 -3.33975077e-01  2.04368699e-02
   3.24094445e-02  5.62122390e-02 -2.67081380e-01  5.02083451e-02
   8.68480355e-02  1.82574183e-01 -7.57054389e-02 -1.30896300e-01
   3.12794894e-01  5.75480387e-02  1.76837355e-01  1.00046881e-01
  -1.41810164e-01 -7.51826391e-02  1.46204248e-01  3.87681760e-02
  -1.19325630e-01  2.43517056e-01 -5.13964631e-02  9.25012752e-02
   8.66275653e-02 -3.44154835e-02  5.70473708e-02 -8.82960763e-03
   5.36996201e-02  2.99578104e-02  3.06643844e-02 -1.41929403e-01
   1.18657298e-01  4.85135354e-02 -4.70547490e-02  8.33241791e-02
   3.93967777e-02 -2.66353190e-01  9.20999348e-02  2.58583575e-01
  -1.34476185e-01  1.11156404e-02  2.34743416e-01  5.43383844e-02
   8.88891295e-02 -2.59546161e-01 -5.84242828e-02 -8.53198022e-02
   1.88418746e-01  1.70643121e-01 -5.86822815e-02  2.15507403e-01
  -6.14743903e-02 -2.95057923e-01  1.76670596e-01  5.86555526e-02
   7.57708997e-02 -2.86526650e-01 -3.82306464e-02  1.75697923e-01
   1.26505837e-01  3.23372364e-01 -1.56401485e-01 -2.38276925e-03
   9.36179701e-03  1.34580851e-01 -2.46276796e-01  8.54155049e-03
   1.35790646e-01  1.31574348e-01 -3.23773399e-02 -9.34759974e-02
  -1.44029811e-01 -9.35693830e-02  1.49112538e-01  2.64001459e-01
   2.03021511e-01 -1.02562509e-01  4.14692350e-02  1.23937041e-01
   5.74228540e-02  1.31252334e-01 -1.24313012e-01 -1.78830251e-02
   4.30610478e-02  1.43334597e-01  1.35241956e-01 -3.52839343e-02
   2.20115840e-01 -3.12378705e-02 -2.52280086e-01  2.83295419e-02
  -2.25847930e-01  2.15029623e-02  1.62774935e-01  1.45080581e-01
   4.91644861e-03  2.61606369e-02 -6.40421407e-03  1.17855556e-01
  -1.53606147e-01 -2.13605747e-01  7.59206489e-02  1.36020243e-01
  -2.23455429e-02  3.30978692e-01  1.04552232e-01 -3.80024239e-02
   8.15067366e-02 -1.75670356e-01  3.25172171e-02  7.56608695e-02]
 [-1.88090429e-02  1.75232589e-01 -4.44345409e-03  1.69674814e-01
  -5.73525317e-02 -2.63635758e-02  4.00414914e-02 -2.09892988e-01
   8.65240097e-02  3.81912105e-02  8.23234692e-02 -3.06172162e-01
  -3.26493829e-01 -6.01160154e-02 -9.01685804e-02  2.79338121e-01
   1.23190112e-01 -8.94662514e-02 -4.69448715e-02  1.80864912e-02
   8.78712535e-02  3.19883764e-01 -1.77693531e-01 -1.27790617e-02
   7.50097409e-02  1.19787194e-01 -1.88019484e-01  1.20520562e-01
   2.26169184e-01  1.75363142e-02  9.50072482e-02  2.60635465e-01
  -1.56519994e-01  8.63604993e-02  1.01866521e-01  9.11225006e-02
  -2.23432586e-01  1.64828122e-01 -1.67677015e-01 -4.20596004e-02
  -1.16747983e-01 -5.27705811e-02  1.49532463e-02 -8.53202343e-02
   3.71830421e-03  1.17737418e-02  2.83806443e-01 -1.37477890e-01
   1.16035983e-01  1.72023419e-02 -2.02780202e-01 -1.28522873e-01
   1.69614196e-01 -1.02801166e-01 -3.01075596e-02  1.37587070e-01
   5.57631217e-02  1.58308297e-01  1.08807469e-02 -4.90166545e-02
  -1.88948587e-02 -1.20867766e-01  6.34588450e-02 -1.66059822e-01
   9.96090919e-02 -4.10400070e-02 -5.86692803e-02  1.62467018e-01
   2.77314633e-01 -3.29880208e-01 -9.95646045e-02 -3.91626544e-02
  -1.12907827e-01 -1.77517712e-01 -1.17654599e-01 -2.16366835e-02
  -1.09405942e-01  2.84216851e-01  1.93081439e-01  1.16252415e-01
  -1.56058818e-01  1.46825761e-01  1.36558218e-02  3.22562829e-03
   9.90277678e-02 -1.11123525e-01  1.46844506e-01 -2.58630365e-01
  -1.15248986e-01 -1.26773432e-01  8.40795264e-02 -8.55706781e-02
   1.74482599e-01 -1.41540259e-01  4.27428149e-02  2.70930771e-02
  -5.63205890e-02 -2.85984557e-02  9.49103162e-02 -1.79466736e-02
   3.63374501e-02  1.94765598e-01  8.30136538e-02 -8.82085562e-02
   1.35273281e-02  9.74466801e-02 -1.84948787e-01  2.24631369e-01
  -1.53739750e-01 -1.13988668e-01  6.11686334e-02  1.82436034e-01
   8.48457739e-02  4.40771552e-03  4.44239154e-02  1.85643077e-01
   1.83517754e-01  4.27299691e-03  1.58006504e-01  1.01765199e-02
  -1.19002715e-01 -3.34563926e-02 -3.23841907e-02  1.87234685e-01
   6.23596981e-02 -1.42663285e-01  1.58942416e-01 -5.26899137e-02]
 [-1.31537572e-01  2.80833781e-01  1.21596223e-02  2.57900119e-01
   4.53280434e-02  4.53128070e-02 -1.24293417e-01 -1.23248748e-01
   1.52994707e-01 -4.16158028e-02  2.47879103e-02 -2.02745125e-01
  -2.86645234e-01  2.17145104e-02 -4.73146066e-02  2.60924011e-01
   1.27851903e-01 -8.10922589e-03 -1.70726459e-02 -1.09242506e-01
  -6.24578632e-03  2.45569468e-01 -2.74314672e-01 -1.11908078e-01
   1.16293900e-01  2.29125693e-01 -1.47895202e-01 -1.16152847e-02
   2.51585603e-01  2.02290073e-01 -1.81035083e-02  9.85280499e-02
  -1.47148862e-01 -1.21827401e-01  1.45232648e-01  1.33378163e-01
  -1.81089729e-01  1.90620273e-01 -1.94348201e-01 -5.50757162e-02
   8.48203674e-02  3.11527941e-02  1.25994548e-01 -1.26776472e-01
  -2.20573451e-02 -4.33623008e-02  7.79262483e-02 -4.09735180e-02
   2.03391522e-01  1.84529528e-01 -1.62754476e-01 -2.52039492e-01
   4.80294563e-02 -1.32918864e-01  4.43877429e-02  1.94379881e-01
  -1.81688175e-01  2.05215469e-01  4.96623628e-02  1.37034252e-01
   7.44524375e-02 -2.80940950e-01  2.06262767e-02 -1.92309618e-01
  -8.24303776e-02  7.75561258e-02 -6.19095080e-02  2.71008044e-01
   9.79155824e-02 -2.83101559e-01  1.38561755e-01 -1.46591052e-01
  -2.22707421e-01 -1.69841126e-01 -1.33898929e-01 -4.47395369e-02
   2.71240398e-02  3.22180092e-01  1.96162418e-01  1.82941422e-01
   7.45807290e-02 -2.43145619e-02 -2.70026773e-01 -7.02677146e-02
   1.85752720e-01 -1.35896489e-01 -5.18105291e-02 -7.80220404e-02
  -6.44038916e-02 -4.97238077e-02  1.95078969e-01  3.26631628e-02
   7.76986405e-02 -5.62243629e-04 -1.20835073e-01  5.74103296e-02
  -7.90450871e-02 -3.05484496e-02  2.21671745e-01  2.84742322e-02
   4.01729718e-02  1.40000567e-01  1.97187945e-01 -1.43857095e-02
   1.86587080e-01  7.58426562e-02 -3.64300221e-01  5.62023669e-02
  -3.41907948e-01 -2.75441170e-01  2.13550314e-01  1.74457625e-01
  -1.48686409e-01 -9.09974333e-03  2.20973752e-02 -1.11703388e-02
  -4.07276936e-02  4.24002409e-02 -1.85146965e-02 -1.77587003e-01
  -8.14126506e-02 -8.08167458e-02  2.92558782e-02 -1.60759781e-02
  -1.34465517e-03 -2.26754636e-01  1.44759193e-01  2.10501850e-02]
 [-7.76270106e-02  2.07735538e-01  6.73048347e-02  1.53539315e-01
   2.39205211e-02  9.09915119e-02 -1.56151071e-01 -1.83799863e-01
   1.86258733e-01 -6.99313805e-02  1.00526579e-01 -1.03673220e-01
  -1.87854290e-01  6.85608611e-02 -8.88253972e-02 -8.31834078e-02
   2.40950696e-02  1.94182023e-02 -1.40771270e-01 -1.05237454e-01
   1.57496199e-01  2.82240868e-01 -1.26182601e-01 -2.59118110e-01
  -7.66316131e-02 -1.89753491e-02 -1.06887303e-01 -1.95688620e-01
   6.19618818e-02  1.28281221e-01 -2.14613955e-02  1.88521415e-01
  -1.36830462e-02  6.43780306e-02  1.33195326e-01 -1.09561589e-02
   2.81087905e-02  7.38167167e-02  9.53538790e-02  1.22157531e-02
  -2.78959572e-02  7.72675052e-02  1.36750042e-01 -2.34908089e-01
   2.01261312e-01 -8.78324285e-02  2.79638588e-01  3.95482741e-02
   2.98227906e-01 -1.64296106e-01 -2.22286806e-01 -1.19459964e-01
   1.25491276e-01 -2.04794586e-01 -7.85230622e-02  6.81533962e-02
  -5.93438707e-02  1.08601093e-01  1.98768675e-02  1.03198424e-01
  -2.65035164e-02 -1.30876705e-01  4.98106442e-02 -8.33525807e-02
  -1.25702113e-01  1.20901838e-01 -4.16151583e-02  2.15665862e-01
   1.77755222e-01 -1.86996609e-01  1.41997412e-01 -7.91257769e-02
  -5.95183820e-02 -2.92675912e-01 -3.85691747e-02 -2.87523530e-02
  -2.10166965e-02  1.44917771e-01  1.87151998e-01  1.70308366e-01
  -2.33530663e-02  1.44620985e-01 -2.71141250e-03 -7.74723813e-02
   5.55612221e-02 -5.86814359e-02 -1.55673683e-01 -1.48004502e-01
  -4.51648012e-02 -1.39187679e-01  7.04398751e-02  1.15356922e-01
   2.01868191e-01 -1.20430976e-01  5.41242212e-02  3.53624858e-02
  -7.96808004e-02 -1.47272637e-02  2.50581712e-01  1.32375313e-02
   2.09659889e-01  4.72663753e-02  1.48326308e-01 -1.08911932e-01
   9.16780606e-02  2.21538395e-02 -1.78892747e-01  1.62733108e-01
  -8.84063542e-02 -1.11247249e-01  1.17742546e-01 -1.48026878e-02
  -8.15490261e-02 -4.38997243e-03 -1.04512788e-01 -9.79183242e-02
  -4.01851088e-02 -2.02293992e-02 -1.75739244e-01 -1.48439303e-01
  -1.04712695e-01  6.84209925e-04  1.30108362e-02  1.05910651e-01
   4.26962934e-02 -3.34172603e-03  1.81417018e-02  1.03117466e-01]
 [-3.42976034e-01  2.46843234e-01 -1.59128189e-01  7.86044300e-02
  -1.87339082e-01 -2.04145148e-01  4.61477727e-01  2.07619727e-01
  -8.73642862e-02  5.58139145e-01 -9.27964002e-02 -3.19998503e-01
  -4.69800204e-01 -3.03953767e-01 -3.13795924e-01  2.85501808e-01
  -6.02754876e-02  2.31242806e-01 -3.34309191e-02  4.58535641e-01
  -5.39568625e-02  2.96647310e-01 -4.33752149e-01  2.20520124e-01
  -4.74735908e-02 -1.73068136e-01 -9.25014839e-02  6.45061076e-01
   1.46096647e-01  2.16280743e-01  1.73651516e-01  2.82279879e-01
  -2.24091530e-01 -1.07328512e-01 -1.63002580e-01  3.11271667e-01
   1.24966420e-01  3.38397324e-01 -3.88961703e-01  3.19232643e-01
  -3.49055856e-01 -1.28997132e-01 -3.80189061e-01 -3.45738232e-02
  -1.62417814e-01  3.80735725e-01  1.24718949e-01 -2.57876962e-01
   2.17041671e-02  5.99987447e-01  1.98173523e-01  1.49119049e-01
   4.28512931e-01  3.54211062e-01  5.24996042e-01 -3.36368233e-01
   2.96137691e-01  4.13590670e-01 -1.50873244e-01 -2.10907146e-01
  -2.41287395e-01  3.04665416e-01 -1.24739654e-01 -2.26006523e-01
   4.58484024e-01 -4.93336082e-01 -1.10121146e-01  2.78542757e-01
   2.38105059e-01 -3.10828775e-01 -7.24557519e-01  2.86636412e-01
   2.92820446e-02 -2.19699256e-02 -1.22049212e-01  5.83177917e-02
  -3.57137620e-01  3.21018606e-01  1.46371964e-02 -2.22301766e-01
  -6.15371168e-01  8.67541805e-02  4.13942993e-01  1.02571070e-01
  -5.09808481e-01 -3.08115900e-01  2.50535488e-01  1.04652449e-01
  -1.68817729e-01 -1.82475343e-01 -2.16658842e-02 -4.93606508e-01
   1.46605596e-02  2.39228070e-01  2.31046006e-01 -3.44032317e-01
   1.67564198e-01 -3.93079698e-01 -1.51258677e-01 -2.43823323e-03
  -1.74826179e-02 -7.68258050e-02 -1.95991993e-01 -8.45254660e-02
  -3.17133456e-01 -6.45685047e-02  2.59465456e-01  1.10037938e-01
  -2.42168739e-01  1.95658207e-01 -2.85346270e-01 -1.33030236e-01
   3.11836541e-01 -2.53211975e-01  8.06901604e-02  6.27955317e-01
   5.14084220e-01 -1.55472755e-01  8.07723939e-01  8.37037638e-02
  -2.85830677e-01 -1.46987036e-01 -2.97630191e-01  2.48115763e-01
   5.77155203e-02 -3.98684591e-01  4.41390909e-02 -3.99677813e-01]
 [-1.68507919e-01  1.51246250e-01 -6.29161447e-02  1.69458643e-01
   1.71281956e-02 -1.16409874e-02 -5.01163155e-02  4.08959612e-02
   6.37514144e-02  2.02231646e-01  3.49071361e-02 -2.28613824e-01
  -2.09183782e-01  7.44638517e-02 -1.97728768e-01  9.61214155e-02
   1.87526792e-01  7.33604208e-02  2.72410884e-02  1.67453527e-01
   1.31419778e-01  2.94390976e-01 -2.75902301e-01 -2.18440428e-01
   1.15905926e-01  2.80956268e-01 -1.25655845e-01  2.54790187e-01
   1.76528513e-01 -6.10301569e-02  2.45583385e-01  2.04247355e-01
  -8.96445438e-02  2.02734813e-01  3.60652193e-04  1.22718349e-01
  -5.90759628e-02  5.92049323e-02 -1.11048803e-01  1.26706854e-01
  -4.26005051e-02  5.98769486e-02 -1.49579467e-02 -5.44395931e-02
   4.89305072e-02  1.34818718e-01  1.11855783e-01 -2.76613235e-02
   8.86494517e-02  2.24969268e-01  3.39586660e-02 -1.03590503e-01
   1.55181557e-01 -7.45880231e-02  1.82046950e-01 -5.56220785e-02
   6.42570779e-02  4.08568352e-01 -8.79503600e-03 -8.28353390e-02
  -3.13080512e-02  1.04171321e-01  8.46405849e-02 -1.12852246e-01
   1.65633988e-02 -1.60669908e-01 -1.26081780e-01  2.17278898e-01
   1.93513379e-01 -2.57392555e-01 -7.52672330e-02  7.79652297e-02
  -1.13506816e-01  2.43100571e-03  1.85268149e-02  1.04537420e-02
  -1.65267125e-01  9.80351344e-02  2.45406851e-01  3.69836204e-02
  -1.20187730e-01 -6.84888288e-02  4.35810424e-02  7.52139241e-02
   1.65555909e-01 -1.34253189e-01 -2.12252941e-02 -2.63867140e-01
  -1.44347966e-01  4.76378761e-03  5.43202646e-02 -6.09870143e-02
  -2.57853828e-02  1.99239552e-01  1.09831050e-01 -1.54911965e-01
  -3.31450417e-03 -5.35494238e-02  1.41566291e-01 -2.38906611e-02
   9.13898498e-02  1.89761505e-01  4.77750972e-02 -1.25300586e-01
   4.61879708e-02  1.73955813e-01 -3.42395827e-02  1.71528593e-01
  -3.12233090e-01 -1.57507554e-01 -8.88716280e-02  6.39928058e-02
   2.00466424e-01 -9.10802260e-02 -6.89039603e-02  2.06123099e-01
   1.25711724e-01  9.63039324e-02  3.48651707e-01 -7.88720325e-02
  -9.94605348e-02 -1.70802757e-01 -1.99436411e-01  2.50687301e-01
  -6.92150444e-02 -1.46730125e-01  1.22649157e-02 -1.26691625e-01]
 [ 1.74505919e-01  1.89893842e-01  8.80273134e-02  2.02783883e-01
  -1.28370762e-01  2.33574167e-01 -7.16123357e-02 -4.16377820e-02
   2.17182059e-02  5.73839359e-02 -1.21081911e-01 -1.69737205e-01
  -4.40567099e-02 -2.22773597e-01 -3.18432450e-01  1.51258767e-01
   1.44157365e-01 -6.09578006e-02 -2.73239948e-02  4.52865735e-02
   2.62899399e-01  2.07592160e-01 -1.62672102e-02 -3.99959385e-01
  -1.31187409e-01  4.75564376e-02 -7.99733773e-02 -2.57969275e-03
   1.36950999e-01  4.41510184e-03 -9.84152183e-02  1.56902477e-01
  -1.66325212e-01 -5.12434170e-03  2.01875120e-01  1.31331176e-01
  -1.45493403e-01  7.05148652e-02 -5.87655231e-02 -3.71512398e-02
   4.69323946e-03 -1.93241045e-01  2.04257280e-01 -1.45941868e-01
   1.32634997e-01 -2.13220015e-01  2.07770303e-01  7.74609670e-02
   3.83835584e-01 -3.04885894e-01 -4.25770849e-01 -3.36198390e-01
   2.19145641e-01 -2.72145212e-01  5.78341931e-02  9.24780741e-02
  -7.26884082e-02  1.42507628e-01  6.54248521e-02  5.77945523e-02
   1.26506329e-01 -2.09551126e-01  8.47561732e-02 -1.41802981e-01
  -2.16723904e-01 -7.39471763e-02  2.59282277e-03 -8.04047508e-04
   3.11249971e-01 -7.10896030e-02  2.05636267e-02 -1.38532624e-01
  -1.41906053e-01 -2.75091916e-01  1.00079328e-01  2.22532362e-01
  -5.28820194e-02 -1.42437415e-02  1.66306496e-01 -1.49214789e-02
  -2.14412995e-02  1.59148172e-01 -1.50945753e-01  1.40284091e-01
   2.02601403e-01 -2.79869944e-01 -1.13866717e-01 -3.15564848e-03
   9.72791575e-03  7.92394113e-03 -3.16641890e-02 -2.64835190e-02
   1.14199296e-01 -1.79038748e-01  1.39624760e-01 -5.31241894e-02
   6.08341545e-02  8.65611956e-02  1.62892416e-01  7.23435357e-02
   2.45739698e-01 -1.11061975e-01  1.83295965e-01 -2.89110899e-01
   5.16429953e-02  4.07699980e-02 -3.47526342e-01  2.52942324e-01
   5.83821237e-02 -1.02810428e-01  1.19933657e-01  5.12104183e-02
  -4.70098574e-03  2.37367049e-01 -3.82788591e-02 -1.48032725e-01
   1.55214429e-01  9.47667062e-02 -1.86413452e-01 -7.05006495e-02
   3.33439969e-02 -5.98135516e-02 -2.88969278e-02  2.05887929e-01
  -9.70268250e-02 -1.62028477e-01  2.83743292e-01 -1.20592982e-01]
 [-2.12078709e-02  1.28838807e-01 -3.54610801e-01  1.07963691e-02
   6.86738491e-02 -1.26073673e-01  1.68993086e-01 -3.68375890e-02
  -1.10763714e-01  3.86347055e-01  2.07485240e-02 -1.63957775e-01
  -5.73078170e-02  3.27517450e-01  1.11955434e-01 -1.20567523e-01
  -1.40757978e-01  1.10107236e-01  2.06152990e-01  1.39669031e-01
  -4.52133976e-02  3.59988779e-01 -9.66584012e-02  1.91638425e-01
   2.45183185e-01  6.35665879e-02 -1.95077434e-01  2.32427344e-01
  -1.96660101e-01 -3.21512036e-02  1.92942992e-01 -2.22724956e-03
  -4.52321768e-03  3.79859567e-01 -7.41000548e-02  1.27011210e-01
  -1.36983961e-01 -1.22373821e-02 -1.08866759e-01  2.47830763e-01
  -2.78931350e-01  3.98416907e-01 -3.69938016e-01  1.84562922e-01
  -2.15530947e-01  1.79398298e-01  1.25206625e-02  2.64311302e-02
   1.01190902e-01  8.89239684e-02  7.38812760e-02  2.00804099e-01
   1.09326832e-01  4.09224212e-01  1.50183856e-01 -3.81712735e-01
   3.43059182e-01  2.99033076e-01 -5.93875907e-02 -1.39000818e-01
  -2.90958941e-01 -6.29899874e-02 -1.48843601e-01 -1.16434298e-01
   2.96752490e-02 -1.08066782e-01  1.71838045e-01  2.67965402e-02
  -4.22605053e-02 -5.15793860e-02 -2.71284848e-01  2.29363218e-01
  -4.03488874e-01  8.06896314e-02 -1.47377430e-02 -1.57077447e-01
  -3.00341368e-01 -7.99866319e-02 -1.06786802e-01  1.50790224e-02
  -8.27009082e-02 -5.77088818e-02  2.53265560e-01  1.38732105e-01
  -3.28435838e-01 -3.89971524e-01  2.86756596e-03 -4.09676552e-01
  -7.96828866e-02 -4.84608598e-02  6.45705825e-03 -3.97034228e-01
   4.95987162e-02  1.75101206e-01 -2.10876632e-02 -2.41391644e-01
  -2.21435398e-01 -1.03494987e-01 -1.29543155e-01 -2.76474983e-01
  -3.47030848e-01  3.79651725e-01 -1.66826040e-01 -7.88345933e-02
  -1.31459460e-01  6.76662847e-02  2.97768921e-01 -1.75485402e-01
  -3.07089597e-01 -2.79955924e-01 -3.88231426e-01 -1.84619755e-01
   5.12720197e-02 -3.62290412e-01 -2.70407591e-02  9.25093889e-02
   1.67484339e-02  2.43563037e-02  3.00479591e-01 -8.07930231e-02
  -2.92694747e-01 -7.75424764e-02 -1.10737883e-01  1.45402446e-01
   1.40558220e-02 -4.84274961e-02  3.49062122e-02 -2.37177014e-01]
 [-6.61435351e-02  2.55309552e-01 -1.56982422e-01  1.08168185e-01
  -2.19996404e-02  8.43709707e-02  4.93435888e-04  1.51393503e-01
   2.70188004e-02  1.37650639e-01  3.16358684e-03 -3.52219827e-02
  -2.59206057e-01 -1.12283096e-01  3.40087665e-03  1.24878436e-01
   1.48625195e-01  2.36663893e-02  7.99661037e-03 -2.50248816e-02
   3.49240303e-01  2.63399094e-01 -7.59684518e-02 -1.34036079e-01
  -6.21250793e-02  1.18175022e-01 -9.92374402e-03 -1.42141376e-02
   7.26772100e-02  9.50075965e-03 -4.77046743e-02  1.84719846e-01
  -7.90547803e-02  1.85989141e-01  6.84026163e-03  7.28387684e-02
  -2.87567242e-03  1.33857191e-01 -1.54145882e-01  2.66386755e-03
  -1.52512819e-01  1.44784495e-01 -2.69958168e-01  5.68031818e-02
  -1.10653654e-01  1.28378179e-02  3.55375201e-01  1.51276262e-02
   1.31399333e-01  1.10156424e-02 -2.37749666e-02 -1.22104652e-01
   3.20610881e-01  1.95416063e-01  6.83880448e-02 -4.13552940e-01
   2.24340364e-01  3.35730672e-01 -3.27831879e-02 -1.07325837e-01
  -9.35189351e-02 -9.64748785e-02  1.00801811e-01 -1.14100777e-01
  -1.10056944e-01 -1.53125405e-01 -7.84354582e-02  7.08197504e-02
   2.96287954e-01 -1.32088915e-01 -3.37050438e-01  7.96229094e-02
  -9.84891504e-02 -7.03795254e-02  1.09769240e-01  1.18743852e-01
  -3.07679266e-01  6.58379868e-02  2.11592510e-01 -1.15954012e-01
  -2.70434111e-01  1.71029851e-01  5.14912680e-02 -1.02525018e-02
  -1.54661074e-01 -3.37443233e-01 -7.87847787e-02 -1.00160211e-01
   8.18430930e-02 -4.22581062e-02 -5.79302851e-03 -3.98594737e-01
   1.10026538e-01  1.05231054e-01  8.03321153e-02 -1.89801931e-01
   8.56581330e-03 -8.57492164e-02  7.14382902e-02 -8.69907066e-03
   1.63138121e-01  1.64851457e-01 -2.54048780e-03 -1.48201570e-01
